{"learner":{"attributes":{"best_iteration":"499","best_score":"8.271503958608156","scikit_learn":"{\"_estimator_type\": \"regressor\"}"},"feature_names":[],"feature_types":[],"gradient_booster":{"model":{"gbtree_model_param":{"num_parallel_tree":"1","num_trees":"500"},"iteration_indptr":[0,1,2,3,4,5,6,7,8,9,10,11,12,13,14,15,16,17,18,19,20,21,22,23,24,25,26,27,28,29,30,31,32,33,34,35,36,37,38,39,40,41,42,43,44,45,46,47,48,49,50,51,52,53,54,55,56,57,58,59,60,61,62,63,64,65,66,67,68,69,70,71,72,73,74,75,76,77,78,79,80,81,82,83,84,85,86,87,88,89,90,91,92,93,94,95,96,97,98,99,100,101,102,103,104,105,106,107,108,109,110,111,112,113,114,115,116,117,118,119,120,121,122,123,124,125,126,127,128,129,130,131,132,133,134,135,136,137,138,139,140,141,142,143,144,145,146,147,148,149,150,151,152,153,154,155,156,157,158,159,160,161,162,163,164,165,166,167,168,169,170,171,172,173,174,175,176,177,178,179,180,181,182,183,184,185,186,187,188,189,190,191,192,193,194,195,196,197,198,199,200,201,202,203,204,205,206,207,208,209,210,211,212,213,214,215,216,217,218,219,220,221,222,223,224,225,226,227,228,229,230,231,232,233,234,235,236,237,238,239,240,241,242,243,244,245,246,247,248,249,250,251,252,253,254,255,256,257,258,259,260,261,262,263,264,265,266,267,268,269,270,271,272,273,274,275,276,277,278,279,280,281,282,283,284,285,286,287,288,289,290,291,292,293,294,295,296,297,298,299,300,301,302,303,304,305,306,307,308,309,310,311,312,313,314,315,316,317,318,319,320,321,322,323,324,325,326,327,328,329,330,331,332,333,334,335,336,337,338,339,340,341,342,343,344,345,346,347,348,349,350,351,352,353,354,355,356,357,358,359,360,361,362,363,364,365,366,367,368,369,370,371,372,373,374,375,376,377,378,379,380,381,382,383,384,385,386,387,388,389,390,391,392,393,394,395,396,397,398,399,400,401,402,403,404,405,406,407,408,409,410,411,412,413,414,415,416,417,418,419,420,421,422,423,424,425,426,427,428,429,430,431,432,433,434,435,436,437,438,439,440,441,442,443,444,445,446,447,448,449,450,451,452,453,454,455,456,457,458,459,460,461,462,463,464,465,466,467,468,469,470,471,472,473,474,475,476,477,478,479,480,481,482,483,484,485,486,487,488,489,490,491,492,493,494,495,496,497,498,499,500],"tree_info":[0,0,0,0,0,0,0,0,0,0,0,0,0,0,0,0,0,0,0,0,0,0,0,0,0,0,0,0,0,0,0,0,0,0,0,0,0,0,0,0,0,0,0,0,0,0,0,0,0,0,0,0,0,0,0,0,0,0,0,0,0,0,0,0,0,0,0,0,0,0,0,0,0,0,0,0,0,0,0,0,0,0,0,0,0,0,0,0,0,0,0,0,0,0,0,0,0,0,0,0,0,0,0,0,0,0,0,0,0,0,0,0,0,0,0,0,0,0,0,0,0,0,0,0,0,0,0,0,0,0,0,0,0,0,0,0,0,0,0,0,0,0,0,0,0,0,0,0,0,0,0,0,0,0,0,0,0,0,0,0,0,0,0,0,0,0,0,0,0,0,0,0,0,0,0,0,0,0,0,0,0,0,0,0,0,0,0,0,0,0,0,0,0,0,0,0,0,0,0,0,0,0,0,0,0,0,0,0,0,0,0,0,0,0,0,0,0,0,0,0,0,0,0,0,0,0,0,0,0,0,0,0,0,0,0,0,0,0,0,0,0,0,0,0,0,0,0,0,0,0,0,0,0,0,0,0,0,0,0,0,0,0,0,0,0,0,0,0,0,0,0,0,0,0,0,0,0,0,0,0,0,0,0,0,0,0,0,0,0,0,0,0,0,0,0,0,0,0,0,0,0,0,0,0,0,0,0,0,0,0,0,0,0,0,0,0,0,0,0,0,0,0,0,0,0,0,0,0,0,0,0,0,0,0,0,0,0,0,0,0,0,0,0,0,0,0,0,0,0,0,0,0,0,0,0,0,0,0,0,0,0,0,0,0,0,0,0,0,0,0,0,0,0,0,0,0,0,0,0,0,0,0,0,0,0,0,0,0,0,0,0,0,0,0,0,0,0,0,0,0,0,0,0,0,0,0,0,0,0,0,0,0,0,0,0,0,0,0,0,0,0,0,0,0,0,0,0,0,0,0,0,0,0,0,0,0,0,0,0,0,0,0,0,0,0,0,0,0,0,0,0,0,0,0,0,0,0,0,0,0,0,0,0,0,0,0,0,0,0,0,0,0,0,0,0,0,0,0,0,0,0,0,0,0,0,0,0,0,0,0,0,0,0,0,0,0,0,0,0,0],"trees":[{"base_weights":[3.3759914E-2,3.2881715E0,-6.1093704E1,-6.018718E0,1.7086452E1,-4.029375E1,-1.0969471E2,-1.5547444E1,5.180896E0,3.0240108E1,9.536326E0,-4.837096E1,-1.141116E1,-1.3024323E2,-6.573683E1,-2.900442E1,-7.279306E0,-4.295809E0,1.3394988E1,1.9009007E1,3.7260735E1,3.4689574E0,2.2168514E1,-4.4362198E1,-1.1054715E2,-1.581691E1,2.367734E1,-1.5063776E2,-1.13221085E2,-7.8998184E1,2.1926658E0,-1.9044724E1,-4.3958275E1,-1.115207E1,-1.0803951E0,2.6040034E0,-1.7169432E1,9.132229E0,2.4946758E1,7.165306E0,2.546601E1,2.3710733E1,4.242127E1,-1.2527013E0,9.708142E0,2.6054586E1,1.5253499E1,-4.1227245E1,-1.13386024E2,-8.465195E1,-1.2589655E2,-3.648811E1,4.6391842E-1,1.24685335E1,8.89865E1,-5.2505604E1,-1.5680444E2,-9.008499E1,-1.2958347E2,-7.244948E1,-1.15695435E2,-7.116093E0,8.146973E0,-1.2466122E0,-4.1946435E-1,-2.6317706E0,-1.4465568E0,-2.8633952E-1,-7.56936E-1,-4.3081862E-1,5.818742E-2,4.8255554E-1,-6.969878E-1,1.02578714E-1,-1.1340748E0,1.7350304E-1,6.138279E-1,2.0677507E0,1.155414E0,2.5338488E0,2.511564E-1,2.1293697E0,1.1585014E0,1.974088E0,6.1388326E-1,3.0393455E0,1.9940262E0,2.1654287E-1,-2.9401478E-1,5.865675E-1,2.8428838E-2,9.95648E-1,1.5475178E0,6.827861E-1,1.4050653E0,-3.2562997E0,-1.7052635E0,-4.937889E0,-7.194179E0,-2.1979082E0,-4.3242126E0,-5.5000057E0,-7.4004908E0,-2.2103217E0,-9.246929E-1,-2.8663138E-1,6.4952326E-1,1.714068E0,-4.78667E-1,5.894828E0,2.3482869E0,-7.163728E0,-1.4800489E0,-7.028076E0,-8.805442E0,-3.5740414E0,-5.4242277E0,-6.661119E0,-4.850084E0,-3.0290143E0,-4.706095E0,-6.5463824E0,-4.8309083E0,-4.1700003E-1,-9.942088E-2,7.2537124E-1,1.6459188E-1],"categories":[],"categories_nodes":[],"categories_segments":[],"categories_sizes":[],"default_left":[0,0,0,0,0,0,0,0,0,0,0,0,0,0,0,0,0,0,0,0,0,0,0,0,0,0,0,0,0,0,0,0,0,0,0,0,0,0,0,0,0,0,0,0,0,0,0,0,0,0,0,0,0,0,0,0,0,0,0,0,0,0,0,0,0,0,0,0,0,0,0,0,0,0,0,0,0,0,0,0,0,0,0,0,0,0,0,0,0,0,0,0,0,0,0,0,0,0,0,0,0,0,0,0,0,0,0,0,0,0,0,0,0,0,0,0,0,0,0,0,0,0,0,0,0,0,0],"id":0,"left_children":[1,3,5,7,9,11,13,15,17,19,21,23,25,27,29,31,33,35,37,39,41,43,45,47,49,51,53,55,57,59,61,63,65,67,69,71,73,75,77,79,81,83,85,87,89,91,93,95,97,99,101,103,105,107,109,111,113,115,117,119,121,123,125,-1,-1,-1,-1,-1,-1,-1,-1,-1,-1,-1,-1,-1,-1,-1,-1,-1,-1,-1,-1,-1,-1,-1,-1,-1,-1,-1,-1,-1,-1,-1,-1,-1,-1,-1,-1,-1,-1,-1,-1,-1,-1,-1,-1,-1,-1,-1,-1,-1,-1,-1,-1,-1,-1,-1,-1,-1,-1,-1,-1,-1,-1,-1,-1],"loss_changes":[2.8449736E7,1.7437104E7,7.30335E6,8.653741E6,5.431465E6,1.180827E6,1.947898E6,4.8746E6,2.901794E6,1.571936E6,2.663305E6,9.8136E5,1.7166067E5,4.94978E5,6.2356025E5,2.482514E6,6.5153475E5,1.5375282E6,9.8309075E5,5.8668175E5,8.5711E5,6.915996E5,3.02583E5,8.000515E5,8.4318E4,3.3151662E5,8.9653016E4,3.95986E5,2.94182E5,1.30744E5,6.3767793E3,6.277555E5,8.67536E5,3.6119675E5,1.7651938E5,1.3140542E6,6.399709E5,2.5967638E5,1.6139225E5,2.5224511E5,1.9422225E5,6.1022425E5,4.12207E5,3.453306E5,1.86994E5,2.16379E5,8.2935E4,6.035335E5,5.7592375E4,3.0450625E3,3.57185E4,5.9452438E4,4.2922168E4,5.177578E4,1.6313234E4,8.0981836E4,1.72129E5,1.0792775E5,4.2897E4,1.2135625E5,1.2317875E4,2.6479468E2,2.1121235E3,0E0,0E0,0E0,0E0,0E0,0E0,0E0,0E0,0E0,0E0,0E0,0E0,0E0,0E0,0E0,0E0,0E0,0E0,0E0,0E0,0E0,0E0,0E0,0E0,0E0,0E0,0E0,0E0,0E0,0E0,0E0,0E0,0E0,0E0,0E0,0E0,0E0,0E0,0E0,0E0,0E0,0E0,0E0,0E0,0E0,0E0,0E0,0E0,0E0,0E0,0E0,0E0,0E0,0E0,0E0,0E0,0E0,0E0,0E0,0E0,0E0,0E0,0E0,0E0],"parents":[2147483647,0,0,1,1,2,2,3,3,4,4,5,5,6,6,7,7,8,8,9,9,10,10,11,11,12,12,13,13,14,14,15,15,16,16,17,17,18,18,19,19,20,20,21,21,22,22,23,23,24,24,25,25,26,26,27,27,28,28,29,29,30,30,31,31,32,32,33,33,34,34,35,35,36,36,37,37,38,38,39,39,40,40,41,41,42,42,43,43,44,44,45,45,46,46,47,47,48,48,49,49,50,50,51,51,52,52,53,53,54,54,55,55,56,56,57,57,58,58,59,59,60,60,61,61,62,62],"right_children":[2,4,6,8,10,12,14,16,18,20,22,24,26,28,30,32,34,36,38,40,42,44,46,48,50,52,54,56,58,60,62,64,66,68,70,72,74,76,78,80,82,84,86,88,90,92,94,96,98,100,102,104,106,108,110,112,114,116,118,120,122,124,126,-1,-1,-1,-1,-1,-1,-1,-1,-1,-1,-1,-1,-1,-1,-1,-1,-1,-1,-1,-1,-1,-1,-1,-1,-1,-1,-1,-1,-1,-1,-1,-1,-1,-1,-1,-1,-1,-1,-1,-1,-1,-1,-1,-1,-1,-1,-1,-1,-1,-1,-1,-1,-1,-1,-1,-1,-1,-1,-1,-1,-1,-1,-1,-1],"split_conditions":[-5.592171E0,1.5917903E0,8.695894E-1,3.9862393E2,1.4512389E1,1.3175942E1,6.3605595E0,1.7465984E1,2.0146923E1,3.92784E2,4.0440912E2,-5.0395594E0,1.5378966E0,1.171908E0,1.9913305E1,8.254242E-2,3.8868414E2,2.2043991E-1,4.1527115E2,1.802725E0,1.7553706E0,3.9227377E2,2.452358E-1,8.5207754E-1,2.1516098E-2,2.127731E1,5.2707773E-1,-1.8212223E0,-5.320156E0,8.0650806E-1,3.8921545E2,1.3638021E0,1.3537589E0,-1.5682602E-1,3.3809185E1,8.5207754E-1,-6.4790897E0,4.0388007E2,-6.0043526E-1,-5.049611E-1,-5.049611E-1,3.3752804E1,3.340533E1,-1.0671806E-1,5.884638E-1,4.1155618E2,2.1150863E0,-4.9002868E-1,6.8795395E-1,5.4311275E-2,4.559602E-3,1.342449E0,3.990946E2,3.524507E1,3.568789E1,3.2697407E1,2.2791177E-1,9.998518E-1,4.093001E2,-5.320156E0,3.9633243E2,1.2234913E0,8.779601E-1,-1.2466122E0,-4.1946435E-1,-2.6317706E0,-1.4465568E0,-2.8633952E-1,-7.56936E-1,-4.3081862E-1,5.818742E-2,4.8255554E-1,-6.969878E-1,1.02578714E-1,-1.1340748E0,1.7350304E-1,6.138279E-1,2.0677507E0,1.155414E0,2.5338488E0,2.511564E-1,2.1293697E0,1.1585014E0,1.974088E0,6.1388326E-1,3.0393455E0,1.9940262E0,2.1654287E-1,-2.9401478E-1,5.865675E-1,2.8428838E-2,9.95648E-1,1.5475178E0,6.827861E-1,1.4050653E0,-3.2562997E0,-1.7052635E0,-4.937889E0,-7.194179E0,-2.1979082E0,-4.3242126E0,-5.5000057E0,-7.4004908E0,-2.2103217E0,-9.246929E-1,-2.8663138E-1,6.4952326E-1,1.714068E0,-4.78667E-1,5.894828E0,2.3482869E0,-7.163728E0,-1.4800489E0,-7.028076E0,-8.805442E0,-3.5740414E0,-5.4242277E0,-6.661119E0,-4.850084E0,-3.0290143E0,-4.706095E0,-6.5463824E0,-4.8309083E0,-4.1700003E-1,-9.942088E-2,7.2537124E-1,1.6459188E-1],"split_indices":[5,4,11,7,0,0,0,0,0,7,7,5,4,4,0,1,7,1,7,4,4,7,1,11,11,0,11,0,5,1,7,4,4,1,2,11,5,7,1,11,11,2,2,1,1,7,4,11,1,6,9,4,7,2,2,2,10,11,7,5,7,4,11,0,0,0,0,0,0,0,0,0,0,0,0,0,0,0,0,0,0,0,0,0,0,0,0,0,0,0,0,0,0,0,0,0,0,0,0,0,0,0,0,0,0,0,0,0,0,0,0,0,0,0,0,0,0,0,0,0,0,0,0,0,0,0,0],"split_type":[0,0,0,0,0,0,0,0,0,0,0,0,0,0,0,0,0,0,0,0,0,0,0,0,0,0,0,0,0,0,0,0,0,0,0,0,0,0,0,0,0,0,0,0,0,0,0,0,0,0,0,0,0,0,0,0,0,0,0,0,0,0,0,0,0,0,0,0,0,0,0,0,0,0,0,0,0,0,0,0,0,0,0,0,0,0,0,0,0,0,0,0,0,0,0,0,0,0,0,0,0,0,0,0,0,0,0,0,0,0,0,0,0,0,0,0,0,0,0,0,0,0,0,0,0,0,0],"sum_hessian":[1.43009E5,1.35781E5,7.228E3,8.1088E4,5.4693E4,5.063E3,2.165E3,4.3812E4,3.7276E4,1.9944E4,3.4749E4,3.956E3,1.107E3,1.474E3,6.91E2,1.6673E4,2.7139E4,1.7308E4,1.9968E4,7.673E3,1.2271E4,2.3475E4,1.1274E4,3.718E3,2.38E2,9.84E2,1.23E2,6.67E2,8.07E2,5.78E2,1.13E2,1.0009E4,6.664E3,1.6703E4,1.0436E4,1.1269E4,6.039E3,1.4587E4,5.381E3,2.708E3,4.965E3,3.386E3,8.885E3,1.3363E4,1.0112E4,7.216E3,4.058E3,3.558E3,1.6E2,9.1E1,1.47E2,4.33E2,5.51E2,1.06E2,1.7E1,4E1,6.27E2,3.37E2,4.7E2,4.93E2,8.5E1,4.4E1,6.9E1,6.446E3,3.563E3,4.223E3,2.441E3,7.076E3,9.627E3,2.394E3,8.042E3,7.903E3,3.366E3,1.346E3,4.693E3,5.209E3,9.378E3,5.4E2,4.841E3,1.26E2,2.582E3,5.85E2,4.38E3,1.422E3,1.964E3,1.077E3,7.808E3,6.056E3,7.307E3,8.279E3,1.833E3,3.203E3,4.013E3,3.611E3,4.47E2,8.15E2,2.743E3,1.11E2,4.9E1,5E0,8.6E1,8.9E1,5.8E1,3.02E2,1.31E2,3.69E2,1.82E2,5.3E1,5.3E1,9E0,8E0,7E0,3.3E1,3.45E2,2.82E2,1.7E2,1.67E2,4.2E2,5E1,3.21E2,1.72E2,4.4E1,4.1E1,3.5E1,9E0,2.9E1,4E1],"tree_param":{"num_deleted":"0","num_feature":"13","num_nodes":"127","size_leaf_vector":"1"}},{"base_weights":[-3.110589E-2,3.1848276E0,-5.580639E1,-5.6035256E0,1.6273859E1,-1.1800835E2,-3.887195E1,-1.4650674E1,4.9834933E0,2.897833E1,9.085246E0,-1.500915E2,-1.0710726E2,-4.677337E1,-8.280344E0,-2.7280172E1,-6.958176E0,-1.5311954E1,8.9934845E0,1.9698868E1,3.659147E1,3.278522E0,2.1253742E1,-4.4015163E1,-1.6242015E2,-9.0796524E1,-1.2126358E2,-6.0530743E1,-3.0024612E1,-2.3199678E1,1.3381015E0,-1.778437E1,-4.144423E1,-4.2228365E0,-3.241574E1,-2.915907E1,-5.451102E0,1.6078196E1,-2.7270257E0,8.011986E0,2.581042E1,2.2391756E1,4.1948757E1,-1.2835553E0,9.281226E0,2.4016619E1,1.2391178E1,-7.160029E0,-2.5081497E1,-1.3544136E2,-1.7703098E2,-9.851571E1,-8.4925785E0,-1.2973384E2,-9.745506E1,-4.5967228E1,-7.664905E1,-1.4809531E1,-5.1588047E1,-3.3250576E1,2.601362E1,3.280432E0,-2.934147E0,-1.1762304E0,-3.7577114E-1,-2.4816108E0,-1.352333E0,-3.951956E-1,8.4412016E-2,-1.1236461E0,-1.9933039E0,-2.39442E0,-8.695621E-1,7.807117E-2,-7.873153E-1,6.336653E-1,1.4025198E0,1.3124367E0,-4.2360005E-1,2.348483E0,3.018487E-1,1.5436387E0,9.597027E-1,1.9551672E0,6.101419E-1,4.8057117E0,2.0573523E0,2.0335E-1,-2.846874E-1,6.087978E-1,1.5378514E-1,9.2707556E-1,1.4134556E0,3.9941177E-1,9.884303E-1,6.4706457E-1,-1.6903261E0,-4.7717876E0,-7.136932E0,-6.457495E0,-9.242351E0,-4.1713843E0,-5.6757975E0,5.2054163E-2,-3.429073E0,-6.554864E0,-1.5934843E0,-2.252529E0,-5.1000285E0,-1.8777307E0,-3.1957612E0,-4.633458E0,-3.141081E0,-1.4760897E0,-2.5195593E-1,-2.4147499E0,-4.3457427E0,-2.7521315E0,-1.173242E0,2.0730722E0,-5.0188696E-1,-1.2152725E-1,7.569716E-1],"categories":[],"categories_nodes":[],"categories_segments":[],"categories_sizes":[],"default_left":[0,0,0,0,0,0,0,0,0,0,0,0,0,0,0,0,0,0,0,0,0,0,0,0,0,0,0,0,0,0,0,0,0,0,0,0,0,0,0,0,0,0,0,0,0,0,0,0,0,0,0,0,0,0,0,0,0,0,0,0,0,0,0,0,0,0,0,0,0,0,0,0,0,0,0,0,0,0,0,0,0,0,0,0,0,0,0,0,0,0,0,0,0,0,0,0,0,0,0,0,0,0,0,0,0,0,0,0,0,0,0,0,0,0,0,0,0,0,0,0,0,0,0],"id":1,"left_children":[1,3,5,7,9,11,13,15,17,19,21,23,25,27,29,31,33,35,37,39,41,43,45,47,49,51,53,55,57,59,61,63,65,67,69,71,73,75,77,79,81,83,85,87,89,91,93,-1,95,97,99,101,103,105,107,109,111,113,115,117,119,121,-1,-1,-1,-1,-1,-1,-1,-1,-1,-1,-1,-1,-1,-1,-1,-1,-1,-1,-1,-1,-1,-1,-1,-1,-1,-1,-1,-1,-1,-1,-1,-1,-1,-1,-1,-1,-1,-1,-1,-1,-1,-1,-1,-1,-1,-1,-1,-1,-1,-1,-1,-1,-1,-1,-1,-1,-1,-1,-1,-1,-1],"loss_changes":[2.5561966E7,1.5499487E7,8.178912E6,7.7215655E6,4.94302E6,5.6517E5,1.476015E6,4.222925E6,3.0233295E6,1.381037E6,2.4425425E6,5.4079E5,2.76208E5,1.116628E6,1.8012675E5,2.212304E6,1.8811206E6,8.367181E5,2.575752E6,6.2954375E5,8.16295E5,6.408991E5,2.731355E5,8.089894E4,1.23809E5,3.68909E5,1.21038E5,6.21809E5,7.180731E5,2.442275E5,8.925461E4,5.8055825E5,7.77058E5,5.308495E5,1.9325475E5,5.6096925E5,2.5855766E5,7.87731E5,1.9456974E6,2.3276802E5,1.9330125E5,5.0097162E5,3.34703E5,3.1381594E5,1.8149831E5,1.976555E5,8.611253E4,0E0,1.3377828E4,2.60565E4,6.59135E4,1.10914E5,2.9294373E4,6.0653E4,3.7790625E4,2.09277E5,2.739385E5,1.8470369E5,1.0118675E5,8.592041E4,4.7200188E4,5.0223387E4,0E0,0E0,0E0,0E0,0E0,0E0,0E0,0E0,0E0,0E0,0E0,0E0,0E0,0E0,0E0,0E0,0E0,0E0,0E0,0E0,0E0,0E0,0E0,0E0,0E0,0E0,0E0,0E0,0E0,0E0,0E0,0E0,0E0,0E0,0E0,0E0,0E0,0E0,0E0,0E0,0E0,0E0,0E0,0E0,0E0,0E0,0E0,0E0,0E0,0E0,0E0,0E0,0E0,0E0,0E0,0E0,0E0,0E0,0E0,0E0,0E0],"parents":[2147483647,0,0,1,1,2,2,3,3,4,4,5,5,6,6,7,7,8,8,9,9,10,10,11,11,12,12,13,13,14,14,15,15,16,16,17,17,18,18,19,19,20,20,21,21,22,22,23,23,24,24,25,25,26,26,27,27,28,28,29,29,30,30,31,31,32,32,33,33,34,34,35,35,36,36,37,37,38,38,39,39,40,40,41,41,42,42,43,43,44,44,45,45,46,46,48,48,49,49,50,50,51,51,52,52,53,53,54,54,55,55,56,56,57,57,58,58,59,59,60,60,61,61],"right_children":[2,4,6,8,10,12,14,16,18,20,22,24,26,28,30,32,34,36,38,40,42,44,46,48,50,52,54,56,58,60,62,64,66,68,70,72,74,76,78,80,82,84,86,88,90,92,94,-1,96,98,100,102,104,106,108,110,112,114,116,118,120,122,-1,-1,-1,-1,-1,-1,-1,-1,-1,-1,-1,-1,-1,-1,-1,-1,-1,-1,-1,-1,-1,-1,-1,-1,-1,-1,-1,-1,-1,-1,-1,-1,-1,-1,-1,-1,-1,-1,-1,-1,-1,-1,-1,-1,-1,-1,-1,-1,-1,-1,-1,-1,-1,-1,-1,-1,-1,-1,-1,-1,-1],"split_conditions":[-5.625256E0,1.5917903E0,-8.703557E-1,3.9862393E2,1.4363586E1,-9.426415E-1,1.5525638E1,1.7465984E1,-5.6640625E-1,3.9457346E2,4.0440912E2,-1.8212223E0,-5.320156E0,1.632271E0,-1.953552E-1,8.254242E-2,5.9482276E-1,1.3461269E0,5.6640625E-1,1.802725E0,-6.6262007E-1,3.9227377E2,4.317665E-1,-1.355093E0,-9.317966E-2,1.3936574E0,4.0035083E2,1.958456E-1,-5.276094E0,1.5127006E0,5.9482276E-1,1.3638021E0,1.3570031E0,3.8868414E2,-4.3010134E-1,-8.870108E-1,7.1308136E-2,4.1692252E2,7.525687E0,-1.4268837E0,1.1238098E-2,-6.881518E0,-2.6351852E0,-1.0671806E-1,3.3522177E-1,4.1155618E2,1.8510497E0,-7.160029E0,-5.400788E0,-8.030146E-1,-8.030146E-1,2.7848196E0,4.914646E-1,1.7931341E0,-1.8212223E0,-5.320156E0,3.9518997E2,3.9227377E2,-5.0395594E0,-4.1469324E-1,1.7848106E1,3.990946E2,-2.934147E0,-1.1762304E0,-3.7577114E-1,-2.4816108E0,-1.352333E0,-3.951956E-1,8.4412016E-2,-1.1236461E0,-1.9933039E0,-2.39442E0,-8.695621E-1,7.807117E-2,-7.873153E-1,6.336653E-1,1.4025198E0,1.3124367E0,-4.2360005E-1,2.348483E0,3.018487E-1,1.5436387E0,9.597027E-1,1.9551672E0,6.101419E-1,4.8057117E0,2.0573523E0,2.0335E-1,-2.846874E-1,6.087978E-1,1.5378514E-1,9.2707556E-1,1.4134556E0,3.9941177E-1,9.884303E-1,6.4706457E-1,-1.6903261E0,-4.7717876E0,-7.136932E0,-6.457495E0,-9.242351E0,-4.1713843E0,-5.6757975E0,5.2054163E-2,-3.429073E0,-6.554864E0,-1.5934843E0,-2.252529E0,-5.1000285E0,-1.8777307E0,-3.1957612E0,-4.633458E0,-3.141081E0,-1.4760897E0,-2.5195593E-1,-2.4147499E0,-4.3457427E0,-2.7521315E0,-1.173242E0,2.0730722E0,-5.0188696E-1,-1.2152725E-1,7.569716E-1],"split_indices":[5,4,8,7,0,8,0,0,8,7,7,0,5,4,10,1,8,4,8,4,8,7,1,1,9,4,7,1,5,4,8,4,4,7,10,8,1,7,0,1,1,5,1,1,1,7,4,0,5,0,0,0,1,4,0,5,7,7,5,8,0,7,0,0,0,0,0,0,0,0,0,0,0,0,0,0,0,0,0,0,0,0,0,0,0,0,0,0,0,0,0,0,0,0,0,0,0,0,0,0,0,0,0,0,0,0,0,0,0,0,0,0,0,0,0,0,0,0,0,0,0,0,0],"split_type":[0,0,0,0,0,0,0,0,0,0,0,0,0,0,0,0,0,0,0,0,0,0,0,0,0,0,0,0,0,0,0,0,0,0,0,0,0,0,0,0,0,0,0,0,0,0,0,0,0,0,0,0,0,0,0,0,0,0,0,0,0,0,0,0,0,0,0,0,0,0,0,0,0,0,0,0,0,0,0,0,0,0,0,0,0,0,0,0,0,0,0,0,0,0,0,0,0,0,0,0,0,0,0,0,0,0,0,0,0,0,0,0,0,0,0,0,0,0,0,0,0,0,0],"sum_hessian":[1.42508E5,1.3474E5,7.768E3,8.0614E4,5.4126E4,1.661E3,6.107E3,4.3468E4,3.7146E4,1.9558E4,3.4568E4,4.18E2,1.243E3,4.853E3,1.254E3,1.6453E4,2.7015E4,6.128E3,3.1018E4,8.816E3,1.0742E4,2.3402E4,1.1166E4,4.4E1,3.74E2,5.81E2,6.62E2,2.663E3,2.19E3,4.91E2,7.63E2,9.851E3,6.602E3,2.4395E4,2.62E3,2.548E3,3.58E3,1.9332E4,1.1686E4,3.028E3,5.788E3,2.944E3,7.798E3,1.3297E4,1.0105E4,8.511E3,2.655E3,6E0,3.8E1,1.35E2,2.39E2,5.31E2,5E1,4.85E2,1.77E2,1.401E3,1.262E3,1.285E3,9.05E2,4.08E2,8.3E1,7.4E2,2.3E1,6.318E3,3.533E3,4.207E3,2.395E3,1.5033E4,9.362E3,1.124E3,1.496E3,9.82E2,1.566E3,2.13E3,1.45E3,1.5053E4,4.279E3,1.933E3,9.753E3,1.45E2,2.883E3,3.277E3,2.511E3,1.114E3,1.83E3,1.12E2,7.686E3,6.008E3,7.289E3,6.89E3,3.215E3,3.723E3,4.788E3,1.664E3,9.91E2,7E0,3.1E1,2.3E1,1.12E2,3.6E1,2.03E2,2.68E2,2.63E2,4.4E1,6E0,4.78E2,7E0,1.5E1,1.62E2,9.56E2,4.45E2,5.82E2,6.8E2,5.12E2,7.73E2,8.3E2,7.5E1,1.25E2,2.83E2,5.8E1,2.5E1,5E2,2.4E2],"tree_param":{"num_deleted":"0","num_feature":"13","num_nodes":"123","size_leaf_vector":"1"}},{"base_weights":[1.2715005E-2,-5.281831E1,1.8445852E0,-7.0561035E1,4.5823336E0,-7.276448E0,1.0410618E1,-4.5635628E1,-9.6690315E1,-8.377773E0,2.30951E1,-3.8065102E0,-2.2265682E1,1.364101E1,-1.0740904E0,1.9216402E1,-5.121094E1,-1.1134968E2,-6.3856453E1,-1.3926294E1,8.55335E0,6.6822486E0,3.417004E1,-9.331776E0,-2.7251866E-1,-2.018067E1,-9.541052E1,-7.9573417E-1,1.5772184E1,3.2959548E-1,-6.19881E1,-2.2637632E1,5.0997528E1,-9.376209E1,-4.1675205E1,-1.6144719E2,-9.950356E1,-5.5018055E1,-1.2823798E2,-1.6831837E1,-4.4325614E0,5.459131E0,1.9887335E1,1.9567625E1,2.518988E0,3.7011475E1,1.7320284E1,-5.6496487E0,-1.7162786E1,-1.4008321E1,1.345919E0,-1.48407955E1,-3.0813614E1,-1.0713872E2,-7.408916E0,3.8780377E0,-4.4891926E1,7.174339E0,1.9820866E1,-2.0468822E1,2.5422726E0,-7.681752E1,-2.2136617E0,-5.4436455E0,-6.010472E-1,3.0263474E0,2.15572E0,-5.8874555E0,-3.669606E0,-1.947946E0,-4.4113364E0,-6.205132E0,-9.076606E0,2.1561544E0,-5.1082315E0,-2.3612134E0,-4.239235E0,-6.942132E0,-5.194528E0,-4.9550757E-1,-1.1320261E0,-4.6996903E-1,2.997116E-1,5.974419E-1,1.2885468E-1,1.1747214E0,7.8039855E-1,3.9095497E-1,1.0736641E0,3.8200772E-1,-1.2136265E-1,2.5621765E0,1.5609074E0,6.687987E-1,1.6199551E0,-2.6948336E-1,-3.0191514E0,-1.3615767E0,-1.5725316E-1,-4.0584713E-1,-2.6495912E0,-3.2508916E-1,2.5817862E-1,-1.8362505E0,-5.3918713E-1,-2.153953E0,-6.392925E-1,-5.519127E0,-9.093937E-1,6.128408E-1,-1.0637944E0,1.0510335E0,-1.528751E-3,-1.3766195E0,-2.69188E0,1.5066633E0,1.3073286E-1,1.7619542E0,9.070875E-1,1.7504828E-1,-1.6052965E0,-3.355766E-1,5.3785706E-1,-6.315318E0,-3.381514E0,1.856613E0,-2.879269E-1],"categories":[],"categories_nodes":[],"categories_segments":[],"categories_sizes":[],"default_left":[0,0,0,0,0,0,0,0,0,0,0,0,0,0,0,0,0,0,0,0,0,0,0,0,0,0,0,0,0,0,0,0,0,0,0,0,0,0,0,0,0,0,0,0,0,0,0,0,0,0,0,0,0,0,0,0,0,0,0,0,0,0,0,0,0,0,0,0,0,0,0,0,0,0,0,0,0,0,0,0,0,0,0,0,0,0,0,0,0,0,0,0,0,0,0,0,0,0,0,0,0,0,0,0,0,0,0,0,0,0,0,0,0,0,0,0,0,0,0,0,0,0,0,0,0,0,0],"id":2,"left_children":[1,3,5,7,9,11,13,15,17,19,21,23,25,27,29,31,33,35,37,39,41,43,45,47,49,51,53,55,57,59,61,63,65,67,69,71,73,75,77,79,81,83,85,87,89,91,93,95,97,99,101,103,105,107,109,111,113,115,117,119,121,123,125,-1,-1,-1,-1,-1,-1,-1,-1,-1,-1,-1,-1,-1,-1,-1,-1,-1,-1,-1,-1,-1,-1,-1,-1,-1,-1,-1,-1,-1,-1,-1,-1,-1,-1,-1,-1,-1,-1,-1,-1,-1,-1,-1,-1,-1,-1,-1,-1,-1,-1,-1,-1,-1,-1,-1,-1,-1,-1,-1,-1,-1,-1,-1,-1],"loss_changes":[1.3821474E7,4.874602E6,1.0784351E7,2.376664E6,2.7155288E5,3.4768435E6,2.6408015E6,6.782085E5,8.51554E5,6.268549E4,8.447305E4,1.0599589E6,1.914477E6,1.709256E6,1.3361996E6,1.9935239E5,6.96009E5,7.15052E5,3.075995E5,1.3770648E4,5.675421E3,1.0087439E4,1.2663469E4,6.105059E5,7.3605106E5,6.93316E5,3.583655E5,1.4731431E6,1.684934E6,7.0305456E5,3.11842E5,5.81888E4,3.7653906E3,1.452525E5,1.7496725E5,1.52956E5,3.8357E5,1.091965E5,2.592375E3,1.52114375E4,6.219455E3,2.4179226E3,1.6965137E2,8.590469E2,3.6666606E3,1.7932875E4,2.0600244E3,2.0464656E5,9.557176E5,8.011001E5,8.874428E5,7.21957E5,9.0249175E5,8.656175E4,1.1715247E4,4.3304906E5,1.0488525E5,1.6224371E6,8.51362E5,4.0987662E5,1.0497401E6,1.1965425E5,1.0113518E4,0E0,0E0,0E0,0E0,0E0,0E0,0E0,0E0,0E0,0E0,0E0,0E0,0E0,0E0,0E0,0E0,0E0,0E0,0E0,0E0,0E0,0E0,0E0,0E0,0E0,0E0,0E0,0E0,0E0,0E0,0E0,0E0,0E0,0E0,0E0,0E0,0E0,0E0,0E0,0E0,0E0,0E0,0E0,0E0,0E0,0E0,0E0,0E0,0E0,0E0,0E0,0E0,0E0,0E0,0E0,0E0,0E0,0E0,0E0,0E0,0E0,0E0,0E0,0E0],"parents":[2147483647,0,0,1,1,2,2,3,3,4,4,5,5,6,6,7,7,8,8,9,9,10,10,11,11,12,12,13,13,14,14,15,15,16,16,17,17,18,18,19,19,20,20,21,21,22,22,23,23,24,24,25,25,26,26,27,27,28,28,29,29,30,30,31,31,32,32,33,33,34,34,35,35,36,36,37,37,38,38,39,39,40,40,41,41,42,42,43,43,44,44,45,45,46,46,47,47,48,48,49,49,50,50,51,51,52,52,53,53,54,54,55,55,56,56,57,57,58,58,59,59,60,60,61,61,62,62],"right_children":[2,4,6,8,10,12,14,16,18,20,22,24,26,28,30,32,34,36,38,40,42,44,46,48,50,52,54,56,58,60,62,64,66,68,70,72,74,76,78,80,82,84,86,88,90,92,94,96,98,100,102,104,106,108,110,112,114,116,118,120,122,124,126,-1,-1,-1,-1,-1,-1,-1,-1,-1,-1,-1,-1,-1,-1,-1,-1,-1,-1,-1,-1,-1,-1,-1,-1,-1,-1,-1,-1,-1,-1,-1,-1,-1,-1,-1,-1,-1,-1,-1,-1,-1,-1,-1,-1,-1,-1,-1,-1,-1,-1,-1,-1,-1,-1,-1,-1,-1,-1,-1,-1,-1,-1,-1,-1],"split_conditions":[-8.870108E-1,8.5876393E-1,3.9572723E2,1.25899315E-2,4.009158E2,4.4821677E-1,5.0035477E-1,-1.8212223E0,4.862727E-1,8.717063E-1,8.6314213E-1,3.8388364E2,3.9144754E-1,-6.087614E-1,3.61763E-1,-9.559536E-2,-9.4832367E-1,-9.4832367E-1,8.4189606E-1,3.9418378E2,3.92784E2,-3.4514424E-1,4.1379916E2,5.6640625E-1,-6.2251467E-1,6.3607824E-1,3.4530136E1,2.485261E-1,-4.9377555E-1,-5.9482276E-1,8.5876393E-1,-1.5112495E0,-3.283047E-1,4.862727E-1,6.8795395E-1,-9.317966E-2,3.7831577E2,4.2849302E-1,-9.099613E-1,-2.273759E-1,3.6692443E-1,-1.5682602E-1,-2.4570274E-1,-1.6710451E-1,-1.2858391E-1,9.999167E-1,4.1563495E2,5.658121E-1,1.7213356E-2,2.386651E-1,-4.9377555E-1,-6.2251467E-1,1.7213356E-2,8.5876393E-1,9.6057625E0,-4.9377555E-1,-4.9377555E-1,4.3619387E-2,7.2436013E0,1.7213356E-2,1.7213356E-2,-8.616292E-1,3.199124E1,-5.4436455E0,-6.010472E-1,3.0263474E0,2.15572E0,-5.8874555E0,-3.669606E0,-1.947946E0,-4.4113364E0,-6.205132E0,-9.076606E0,2.1561544E0,-5.1082315E0,-2.3612134E0,-4.239235E0,-6.942132E0,-5.194528E0,-4.9550757E-1,-1.1320261E0,-4.6996903E-1,2.997116E-1,5.974419E-1,1.2885468E-1,1.1747214E0,7.8039855E-1,3.9095497E-1,1.0736641E0,3.8200772E-1,-1.2136265E-1,2.5621765E0,1.5609074E0,6.687987E-1,1.6199551E0,-2.6948336E-1,-3.0191514E0,-1.3615767E0,-1.5725316E-1,-4.0584713E-1,-2.6495912E0,-3.2508916E-1,2.5817862E-1,-1.8362505E0,-5.3918713E-1,-2.153953E0,-6.392925E-1,-5.519127E0,-9.093937E-1,6.128408E-1,-1.0637944E0,1.0510335E0,-1.528751E-3,-1.3766195E0,-2.69188E0,1.5066633E0,1.3073286E-1,1.7619542E0,9.070875E-1,1.7504828E-1,-1.6052965E0,-3.355766E-1,5.3785706E-1,-6.315318E0,-3.381514E0,1.856613E0,-2.879269E-1],"split_indices":[8,12,7,6,7,1,1,0,12,12,12,7,6,8,6,1,8,8,1,7,7,9,7,8,8,8,2,6,12,8,12,1,9,12,1,9,7,6,8,9,10,1,1,10,1,12,7,6,12,6,12,8,12,12,0,12,12,8,0,12,12,8,2,0,0,0,0,0,0,0,0,0,0,0,0,0,0,0,0,0,0,0,0,0,0,0,0,0,0,0,0,0,0,0,0,0,0,0,0,0,0,0,0,0,0,0,0,0,0,0,0,0,0,0,0,0,0,0,0,0,0,0,0,0,0,0,0],"split_type":[0,0,0,0,0,0,0,0,0,0,0,0,0,0,0,0,0,0,0,0,0,0,0,0,0,0,0,0,0,0,0,0,0,0,0,0,0,0,0,0,0,0,0,0,0,0,0,0,0,0,0,0,0,0,0,0,0,0,0,0,0,0,0,0,0,0,0,0,0,0,0,0,0,0,0,0,0,0,0,0,0,0,0,0,0,0,0,0,0,0,0,0,0,0,0,0,0,0,0,0,0,0,0,0,0,0,0,0,0,0,0,0,0,0,0,0,0,0,0,0,0,0,0,0,0,0,0],"sum_hessian":[1.42812E5,4.785E3,1.38027E5,3.655E3,1.13E3,6.6848E4,7.1179E4,1.872E3,1.783E3,6.65E2,4.65E2,5.4283E4,1.2565E4,5.5553E4,1.5626E4,1.48E2,1.724E3,1.231E3,5.52E2,5.01E2,1.64E2,1.88E2,2.77E2,2.1175E4,3.3108E4,1.2218E4,3.47E2,7.146E3,4.8407E4,1.5275E4,3.51E2,6.4E1,8.4E1,3.14E2,1.41E3,2.33E2,9.98E2,4.87E2,6.5E1,3.83E2,1.18E2,1.3E2,3.4E1,4.5E1,1.43E2,2.36E2,4.1E1,1.4404E4,6.771E3,3.489E3,2.9619E4,8.135E3,4.083E3,3.06E2,4.1E1,6.462E3,6.84E2,1.5498E4,3.2909E4,1.468E3,1.3807E4,2.81E2,7E1,6E0,5.8E1,3.5E1,4.9E1,1.42E2,1.72E2,1.334E3,7.6E1,8.4E1,1.49E2,1.8E1,9.8E2,3.88E2,9.9E1,4.2E1,2.3E1,1.76E2,2.07E2,8E1,3.8E1,3.9E1,9.1E1,1.6E1,1.8E1,7E0,3.8E1,7E1,7.3E1,6.6E1,1.7E2,3.4E1,7E0,1.4337E4,6.7E1,3.94E3,2.831E3,3.032E3,4.57E2,9.693E3,1.9926E4,1.271E3,6.864E3,2.429E3,1.654E3,2.95E2,1.1E1,1.7E1,2.4E1,1.199E3,5.263E3,2.34E2,4.5E2,2.567E3,1.2931E4,3.23E3,2.9679E4,4.8E2,9.88E2,6.493E3,7.314E3,4.2E1,2.39E2,5E0,6.5E1],"tree_param":{"num_deleted":"0","num_feature":"13","num_nodes":"127","size_leaf_vector":"1"}},{"base_weights":[-2.0352846E-2,3.0880914E0,-5.0026318E1,-4.974336E0,1.5404786E1,-1.0330565E2,-3.3994907E1,-1.3349207E1,4.838718E0,2.7111027E1,8.009288E0,-1.2622988E2,-8.836462E1,-4.2372353E1,-9.370394E0,-2.464124E1,-6.3857355E0,-1.2561972E1,8.451162E0,1.7621178E1,3.303947E1,2.7228866E0,1.9094236E1,-4.0386116E1,-1.3260786E2,-7.391119E1,-1.0828973E2,-5.611493E1,-3.0503283E1,-2.1544018E1,7.029603E-1,-1.6077486E1,-3.7291573E1,-3.9978626E0,-3.0507244E1,-2.3188124E1,-2.8610134E0,1.4294523E1,-4.0382824E0,7.8360934E0,2.2919888E1,2.0621292E1,3.7272182E1,-1.8292546E0,7.347982E0,2.4284603E1,1.4934396E1,-6.34592E0,-2.4795809E1,-1.63007E2,-1.23633736E2,-8.5147644E1,-1.993967E1,-1.1549012E2,-8.922406E1,-3.9204468E1,-7.009567E1,-1.3532305E1,-4.78638E1,-3.8807537E1,1.5878142E1,-2.5692823E0,1.7764427E1,-1.0645689E0,-3.112507E-1,-2.251708E0,-1.2186751E0,-3.5488027E-1,9.442507E-2,-1.3391109E0,-2.5918226E0,-2.1629443E0,-7.594715E-1,1.9114132E-1,-6.112026E-1,4.6571907E-1,1.1052426E0,1.0766515E0,-5.982806E-1,2.5427377E0,3.098539E-1,1.3867028E0,8.424328E-1,1.7722214E0,4.7584105E-1,4.2674212E0,1.8288288E0,1.327408E0,-1.3024533E-1,-5.0508386E-1,4.1149083E-1,9.449281E-1,1.4228725E0,8.5355645E-1,3.8802257E-1,-2.7115738E-1,-2.3279574E0,-6.64512E0,-8.655349E0,-5.7878203E0,-7.349553E0,-3.4454255E0,-5.0046897E0,-1.7766397E-1,-1.827094E0,-4.971201E0,-6.108305E0,-4.154061E0,-6.2948203E0,-1.6490227E0,-3.0043485E0,-2.8188167E0,-4.290342E0,-1.3618788E0,-1.9898513E-1,-1.8999281E0,-3.0351808E0,-2.7392776E0,-1.5059805E0,5.1042004E0,5.172419E-1,-1.0948695E0,-1.3217233E-2,1.0465207E0,-6.560953E-1],"categories":[],"categories_nodes":[],"categories_segments":[],"categories_sizes":[],"default_left":[0,0,0,0,0,0,0,0,0,0,0,0,0,0,0,0,0,0,0,0,0,0,0,0,0,0,0,0,0,0,0,0,0,0,0,0,0,0,0,0,0,0,0,0,0,0,0,0,0,0,0,0,0,0,0,0,0,0,0,0,0,0,0,0,0,0,0,0,0,0,0,0,0,0,0,0,0,0,0,0,0,0,0,0,0,0,0,0,0,0,0,0,0,0,0,0,0,0,0,0,0,0,0,0,0,0,0,0,0,0,0,0,0,0,0,0,0,0,0,0,0,0,0,0,0],"id":3,"left_children":[1,3,5,7,9,11,13,15,17,19,21,23,25,27,29,31,33,35,37,39,41,43,45,47,49,51,53,55,57,59,61,63,65,67,69,71,73,75,77,79,81,83,85,87,89,91,93,-1,95,97,99,101,103,105,107,109,111,113,115,117,119,121,123,-1,-1,-1,-1,-1,-1,-1,-1,-1,-1,-1,-1,-1,-1,-1,-1,-1,-1,-1,-1,-1,-1,-1,-1,-1,-1,-1,-1,-1,-1,-1,-1,-1,-1,-1,-1,-1,-1,-1,-1,-1,-1,-1,-1,-1,-1,-1,-1,-1,-1,-1,-1,-1,-1,-1,-1,-1,-1,-1,-1,-1,-1],"loss_changes":[2.219119E7,1.3347122E7,7.132838E6,6.6761245E6,4.603324E6,6.50556E5,1.324809E6,3.446191E6,2.351411E6,1.15764E6,1.9096448E6,4.10735E5,3.29786E5,7.80073E5,2.0014811E5,1.810528E6,1.5615012E6,6.6286344E5,2.2606972E6,4.10352E5,6.65192E5,4.646145E5,2.2683625E5,6.968728E4,1.72691E5,4.1249625E5,5.70795E4,5.22095E5,7.57711E5,4.7804072E5,4.9958516E4,5.1207175E5,6.73826E5,4.5016625E5,1.9262525E5,4.9203388E5,2.1050762E5,8.206245E5,2.001837E6,1.9590356E5,1.49643E5,5.301739E5,3.12828E5,2.448731E5,1.68517E5,1.04641E5,8.94465E4,0E0,1.9558154E4,2.5004E4,8.4154E4,1.302185E5,3.2240117E4,2.56935E4,2.0832375E4,1.28891875E5,2.568225E5,1.7047855E5,1.5880475E5,6.858225E4,1.1055149E5,3.344911E4,1.4356566E4,0E0,0E0,0E0,0E0,0E0,0E0,0E0,0E0,0E0,0E0,0E0,0E0,0E0,0E0,0E0,0E0,0E0,0E0,0E0,0E0,0E0,0E0,0E0,0E0,0E0,0E0,0E0,0E0,0E0,0E0,0E0,0E0,0E0,0E0,0E0,0E0,0E0,0E0,0E0,0E0,0E0,0E0,0E0,0E0,0E0,0E0,0E0,0E0,0E0,0E0,0E0,0E0,0E0,0E0,0E0,0E0,0E0,0E0,0E0,0E0,0E0,0E0],"parents":[2147483647,0,0,1,1,2,2,3,3,4,4,5,5,6,6,7,7,8,8,9,9,10,10,11,11,12,12,13,13,14,14,15,15,16,16,17,17,18,18,19,19,20,20,21,21,22,22,23,23,24,24,25,25,26,26,27,27,28,28,29,29,30,30,31,31,32,32,33,33,34,34,35,35,36,36,37,37,38,38,39,39,40,40,41,41,42,42,43,43,44,44,45,45,46,46,48,48,49,49,50,50,51,51,52,52,53,53,54,54,55,55,56,56,57,57,58,58,59,59,60,60,61,61,62,62],"right_children":[2,4,6,8,10,12,14,16,18,20,22,24,26,28,30,32,34,36,38,40,42,44,46,48,50,52,54,56,58,60,62,64,66,68,70,72,74,76,78,80,82,84,86,88,90,92,94,-1,96,98,100,102,104,106,108,110,112,114,116,118,120,122,124,-1,-1,-1,-1,-1,-1,-1,-1,-1,-1,-1,-1,-1,-1,-1,-1,-1,-1,-1,-1,-1,-1,-1,-1,-1,-1,-1,-1,-1,-1,-1,-1,-1,-1,-1,-1,-1,-1,-1,-1,-1,-1,-1,-1,-1,-1,-1,-1,-1,-1,-1,-1,-1,-1,-1,-1,-1,-1,-1,-1,-1,-1],"split_conditions":[-5.653203E0,1.6008812E0,-8.616292E-1,3.9862393E2,1.5234314E1,1.171908E0,1.3462773E1,1.771725E1,-5.51937E-1,3.92784E2,4.0440912E2,-1.8212223E0,-5.2312474E0,1.5286158E0,2.127731E1,8.254242E-2,5.9482276E-1,1.3779122E0,6.087614E-1,1.8083647E0,-6.4944804E-1,3.9022238E2,1.754418E-2,3.2697407E1,-9.6363044E-1,1.3936574E0,4.0035083E2,4.975319E-2,-5.320156E0,1.4652662E0,4.093001E2,1.3747059E0,1.3537589E0,3.8969034E2,7.585926E-1,-8.9493436E-1,7.1308136E-2,4.1222406E2,8.206682E0,-8.030146E-1,6.389618E-3,-6.818505E0,-2.6351852E0,-8.3340305E-1,-5.6640625E-1,4.1155618E2,6.8795395E-1,-6.34592E0,-5.185451E0,-4.6459866E-1,2.4823797E-1,2.7848196E0,-1.2254424E-1,3.9022238E2,2.9706154E0,-5.320156E0,-5.400788E0,3.9227377E2,-5.185451E0,-4.1469324E-1,-9.3115616E-1,-8.2008845E-1,3.3380687E-1,-1.0645689E0,-3.112507E-1,-2.251708E0,-1.2186751E0,-3.5488027E-1,9.442507E-2,-1.3391109E0,-2.5918226E0,-2.1629443E0,-7.594715E-1,1.9114132E-1,-6.112026E-1,4.6571907E-1,1.1052426E0,1.0766515E0,-5.982806E-1,2.5427377E0,3.098539E-1,1.3867028E0,8.424328E-1,1.7722214E0,4.7584105E-1,4.2674212E0,1.8288288E0,1.327408E0,-1.3024533E-1,-5.0508386E-1,4.1149083E-1,9.449281E-1,1.4228725E0,8.5355645E-1,3.8802257E-1,-2.7115738E-1,-2.3279574E0,-6.64512E0,-8.655349E0,-5.7878203E0,-7.349553E0,-3.4454255E0,-5.0046897E0,-1.7766397E-1,-1.827094E0,-4.971201E0,-6.108305E0,-4.154061E0,-6.2948203E0,-1.6490227E0,-3.0043485E0,-2.8188167E0,-4.290342E0,-1.3618788E0,-1.9898513E-1,-1.8999281E0,-3.0351808E0,-2.7392776E0,-1.5059805E0,5.1042004E0,5.172419E-1,-1.0948695E0,-1.3217233E-2,1.0465207E0,-6.560953E-1],"split_indices":[5,4,8,7,0,4,0,0,8,7,7,0,5,4,0,1,8,4,8,4,8,7,1,2,8,4,7,1,5,4,7,4,4,7,1,8,1,7,0,0,1,5,1,10,8,7,1,0,5,1,10,0,0,7,0,5,5,7,5,8,1,10,8,0,0,0,0,0,0,0,0,0,0,0,0,0,0,0,0,0,0,0,0,0,0,0,0,0,0,0,0,0,0,0,0,0,0,0,0,0,0,0,0,0,0,0,0,0,0,0,0,0,0,0,0,0,0,0,0,0,0,0,0,0,0],"split_type":[0,0,0,0,0,0,0,0,0,0,0,0,0,0,0,0,0,0,0,0,0,0,0,0,0,0,0,0,0,0,0,0,0,0,0,0,0,0,0,0,0,0,0,0,0,0,0,0,0,0,0,0,0,0,0,0,0,0,0,0,0,0,0,0,0,0,0,0,0,0,0,0,0,0,0,0,0,0,0,0,0,0,0,0,0,0,0,0,0,0,0,0,0,0,0,0,0,0,0,0,0,0,0,0,0,0,0,0,0,0,0,0,0,0,0,0,0,0,0,0,0,0,0,0,0],"sum_hessian":[1.42761E5,1.34407E5,8.354E3,8.1233E4,5.3174E4,1.931E3,6.423E3,4.3828E4,3.7405E4,2.0586E4,3.2588E4,7.59E2,1.172E3,4.792E3,1.631E3,1.6717E4,2.7111E4,6.43E3,3.0975E4,7.917E3,1.2669E4,2.2066E4,1.0522E4,5.3E1,7.06E2,6.82E2,4.9E2,2.219E3,2.573E3,7.38E2,8.93E2,9.97E3,6.747E3,2.467E4,2.441E3,3.068E3,3.362E3,2.1102E4,9.873E3,2.782E3,5.135E3,3.222E3,9.447E3,1.1121E4,1.0945E4,4.679E3,5.843E3,7E0,4.6E1,1.57E2,5.49E2,5.64E2,1.18E2,3.52E2,1.38E2,1.006E3,1.213E3,1.302E3,1.271E3,5.05E2,2.33E2,7.5E2,1.43E2,6.519E3,3.451E3,4.217E3,2.53E3,1.616E4,8.51E3,2.08E3,3.61E2,8.73E2,2.195E3,1.962E3,1.4E3,1.2887E4,8.215E3,2.336E3,7.537E3,1.01E2,2.681E3,2.862E3,2.273E3,1.379E3,1.843E3,1.33E2,9.314E3,2.95E2,1.0826E4,5.26E2,1.0419E4,2.045E3,2.634E3,4.501E3,1.342E3,2.5E1,2.1E1,4.3E1,1.14E2,4.15E2,1.34E2,2.73E2,2.91E2,6E1,5.8E1,1.08E2,2.44E2,1.21E2,1.7E1,7.77E2,2.29E2,6.5E2,5.63E2,5.34E2,7.68E2,7.21E2,5.5E2,1.76E2,3.29E2,1.3E1,2.2E2,7.9E1,6.71E2,1.3E2,1.3E1],"tree_param":{"num_deleted":"0","num_feature":"13","num_nodes":"125","size_leaf_vector":"1"}},{"base_weights":[2.3630207E-2,3.150414E0,-4.4144833E1,-6.85771E0,9.4146595E0,-9.603332E1,-2.9776102E1,1.763336E1,-8.972926E0,3.0818031E1,7.2234044E0,-1.7616877E1,-1.0143491E2,-3.71215E1,-5.1585736E0,5.437234E1,1.5873487E1,-6.5619483E0,-2.5429052E1,4.032919E1,2.471126E1,-9.804235E0,9.744437E0,-4.0349703E0,-6.035555E1,-8.672741E1,-1.18528564E2,-4.1646664E1,3.4403033E0,-2.0580692E0,-3.4968063E1,4.688907E1,6.43553E1,2.2337814E1,8.2976465E0,-2.4386509E1,-4.401332E0,-3.577164E1,9.534963E0,5.920369E1,3.8582745E1,1.9873697E1,3.354777E1,2.3846807E1,-1.5999617E1,2.122066E0,1.6760841E1,1.0291667E1,-8.337557E0,-2.0042188E0,-3.4530122E0,-7.054888E1,-1.0174136E2,-1.0410436E2,-1.4441728E2,-3.1285557E1,-5.6371754E1,-6.646001E0,1.210761E1,-7.9960566E0,6.671246E0,-8.700397E1,-2.8984322E1,6.963158E-1,2.416257E0,3.3162441E0,1.7585114E0,6.3825077E-1,1.2202326E0,9.017009E-1,1.6826202E-1,9.375898E-1,-1.7645851E0,-5.8230346E-1,-3.911366E-3,-2.0845547E0,-8.57765E-1,-5.2370644E-1,9.7864115E-1,3.5474956E0,2.5031884E0,1.6250015E0,2.1089923E0,1.1541475E0,4.232586E-1,1.5116309E0,2.4243345E0,2.134671E0,-7.1016364E-3,-1.5612314E0,-5.377566E-1,4.9303228E-1,-8.755393E-1,1.23902485E-2,1.0295953E0,-1.4299087E-1,1.3051703E0,-8.6716825E-1,-1.0789516E-1,-3.0535276E0,-5.5418224E0,-3.8407848E0,-5.6551347E0,-6.0084643E0,-4.5072875E0,-7.7984023E0,-6.144255E0,-1.1827611E0,-2.2986648E0,-2.386499E0,-4.060418E0,-7.1436845E-2,-9.2393446E-1,8.914283E-1,2.3217526E-1,-1.2344282E0,-2.8684986E-1,1.1680526E0,1.5071343E-1,-2.251886E0,-5.098806E0,-1.0358001E0,-2.147206E0],"categories":[],"categories_nodes":[],"categories_segments":[],"categories_sizes":[],"default_left":[0,0,0,0,0,0,0,0,0,0,0,0,0,0,0,0,0,0,0,0,0,0,0,0,0,0,0,0,0,0,0,0,0,0,0,0,0,0,0,0,0,0,0,0,0,0,0,0,0,0,0,0,0,0,0,0,0,0,0,0,0,0,0,0,0,0,0,0,0,0,0,0,0,0,0,0,0,0,0,0,0,0,0,0,0,0,0,0,0,0,0,0,0,0,0,0,0,0,0,0,0,0,0,0,0,0,0,0,0,0,0,0,0,0,0,0,0,0,0,0,0,0,0],"id":4,"left_children":[1,3,5,7,9,11,13,15,17,19,21,23,25,27,29,31,33,35,37,39,41,43,45,47,49,51,53,55,57,59,61,63,65,67,69,71,73,75,77,79,81,83,85,87,89,91,93,95,97,-1,-1,99,101,103,105,107,109,111,113,115,117,119,121,-1,-1,-1,-1,-1,-1,-1,-1,-1,-1,-1,-1,-1,-1,-1,-1,-1,-1,-1,-1,-1,-1,-1,-1,-1,-1,-1,-1,-1,-1,-1,-1,-1,-1,-1,-1,-1,-1,-1,-1,-1,-1,-1,-1,-1,-1,-1,-1,-1,-1,-1,-1,-1,-1,-1,-1,-1,-1,-1,-1],"loss_changes":[1.9703056E7,8.353012E6,7.02936E6,2.657232E6,3.843015E6,8.64412E5,1.335743E6,2.6279675E5,1.873062E6,4.410045E5,3.1911348E6,7.695289E4,4.70636E5,1.044541E6,1.5695348E5,1.08665E4,1.9046225E5,1.5858929E6,2.181987E6,9.5739E4,1.9754675E5,1.9990885E6,3.462898E6,6.373055E3,2.8673828E3,2.43482E5,3.14301E5,7.79224E5,5.0085875E4,7.987871E4,4.728575E4,4.5278438E3,2.0833438E3,4.1234188E4,8.609175E4,2.0950242E6,1.150404E6,5.12364E5,2.7697512E5,2.327575E4,5.8245E4,1.09603375E5,7.9697375E4,6.7410375E5,6.461836E5,4.715483E6,2.132888E6,5.0677236E3,4.3571934E3,0E0,0E0,1.8414325E5,1.42233E5,1.169655E5,5.86535E4,3.35907E5,4.496295E5,1.6331187E4,1.3067129E4,3.443481E4,3.8012312E4,5.4457266E3,1.58405E4,0E0,0E0,0E0,0E0,0E0,0E0,0E0,0E0,0E0,0E0,0E0,0E0,0E0,0E0,0E0,0E0,0E0,0E0,0E0,0E0,0E0,0E0,0E0,0E0,0E0,0E0,0E0,0E0,0E0,0E0,0E0,0E0,0E0,0E0,0E0,0E0,0E0,0E0,0E0,0E0,0E0,0E0,0E0,0E0,0E0,0E0,0E0,0E0,0E0,0E0,0E0,0E0,0E0,0E0,0E0,0E0,0E0,0E0,0E0,0E0],"parents":[2147483647,0,0,1,1,2,2,3,3,4,4,5,5,6,6,7,7,8,8,9,9,10,10,11,11,12,12,13,13,14,14,15,15,16,16,17,17,18,18,19,19,20,20,21,21,22,22,23,23,24,24,25,25,26,26,27,27,28,28,29,29,30,30,31,31,32,32,33,33,34,34,35,35,36,36,37,37,38,38,39,39,40,40,41,41,42,42,43,43,44,44,45,45,46,46,47,47,48,48,51,51,52,52,53,53,54,54,55,55,56,56,57,57,58,58,59,59,60,60,61,61,62,62],"right_children":[2,4,6,8,10,12,14,16,18,20,22,24,26,28,30,32,34,36,38,40,42,44,46,48,50,52,54,56,58,60,62,64,66,68,70,72,74,76,78,80,82,84,86,88,90,92,94,96,98,-1,-1,100,102,104,106,108,110,112,114,116,118,120,122,-1,-1,-1,-1,-1,-1,-1,-1,-1,-1,-1,-1,-1,-1,-1,-1,-1,-1,-1,-1,-1,-1,-1,-1,-1,-1,-1,-1,-1,-1,-1,-1,-1,-1,-1,-1,-1,-1,-1,-1,-1,-1,-1,-1,-1,-1,-1,-1,-1,-1,-1,-1,-1,-1,-1,-1,-1,-1,-1,-1],"split_conditions":[-5.7005105E0,3.9164902E2,-8.616292E-1,-6.881518E0,-6.8274374E0,4.975133E-1,1.5525638E1,-1.8212223E0,7.1325046E-1,-7.5065236E0,-5.9482276E-1,-5.2312474E0,9.998518E-1,9.999167E-1,-5.185451E0,3.8321884E2,-7.3905435E0,-6.2251467E-1,-1.2910296E-2,3.8653097E-1,4.0883005E2,4.975133E-1,1.7213356E-2,-5.523408E0,3.174634E-1,-5.2312474E0,-5.276094E0,2.0232105E-1,3.991797E2,3.9518997E2,1.0154877E0,-3.303604E-1,-4.9377555E-1,-5.160624E-1,-1.9179344E-1,4.975133E-1,-4.9377555E-1,5.012418E-1,-8.800122E-1,-4.7873384E-1,3.9998544E2,3.8479042E-1,8.5207754E-1,5.234156E-1,-8.7881714E-1,6.087614E-1,-8.726535E-3,3.854624E2,3.9022238E2,-2.0042188E0,-3.4530122E0,8.2424164E-1,-8.030146E-1,-9.238795E-1,3.365143E1,-5.320156E0,4.2849302E-1,-5.361185E0,-5.487706E0,-4.1469324E-1,-7.1257234E-1,1.6384918E1,4.3035382E-3,6.963158E-1,2.416257E0,3.3162441E0,1.7585114E0,6.3825077E-1,1.2202326E0,9.017009E-1,1.6826202E-1,9.375898E-1,-1.7645851E0,-5.8230346E-1,-3.911366E-3,-2.0845547E0,-8.57765E-1,-5.2370644E-1,9.7864115E-1,3.5474956E0,2.5031884E0,1.6250015E0,2.1089923E0,1.1541475E0,4.232586E-1,1.5116309E0,2.4243345E0,2.134671E0,-7.1016364E-3,-1.5612314E0,-5.377566E-1,4.9303228E-1,-8.755393E-1,1.23902485E-2,1.0295953E0,-1.4299087E-1,1.3051703E0,-8.6716825E-1,-1.0789516E-1,-3.0535276E0,-5.5418224E0,-3.8407848E0,-5.6551347E0,-6.0084643E0,-4.5072875E0,-7.7984023E0,-6.144255E0,-1.1827611E0,-2.2986648E0,-2.386499E0,-4.060418E0,-7.1436845E-2,-9.2393446E-1,8.914283E-1,2.3217526E-1,-1.2344282E0,-2.8684986E-1,1.1680526E0,1.5071343E-1,-2.251886E0,-5.098806E0,-1.0358001E0,-2.147206E0],"split_indices":[5,7,8,5,5,11,0,0,8,5,8,5,11,12,5,7,5,8,11,0,7,11,12,5,6,5,5,1,7,7,3,1,12,12,1,11,12,12,12,12,7,1,11,12,8,8,8,7,7,0,0,1,0,8,2,5,6,5,5,8,1,0,11,0,0,0,0,0,0,0,0,0,0,0,0,0,0,0,0,0,0,0,0,0,0,0,0,0,0,0,0,0,0,0,0,0,0,0,0,0,0,0,0,0,0,0,0,0,0,0,0,0,0,0,0,0,0,0,0,0,0,0,0],"split_type":[0,0,0,0,0,0,0,0,0,0,0,0,0,0,0,0,0,0,0,0,0,0,0,0,0,0,0,0,0,0,0,0,0,0,0,0,0,0,0,0,0,0,0,0,0,0,0,0,0,0,0,0,0,0,0,0,0,0,0,0,0,0,0,0,0,0,0,0,0,0,0,0,0,0,0,0,0,0,0,0,0,0,0,0,0,0,0,0,0,0,0,0,0,0,0,0,0,0,0,0,0,0,0,0,0,0,0,0,0,0,0,0,0,0,0,0,0,0,0,0,0,0,0],"sum_hessian":[1.42665E5,1.33234E5,9.431E3,5.129E4,8.1944E4,2.044E3,7.387E3,4.077E3,4.7213E4,7.609E3,7.4335E4,1.32E2,1.912E3,5.689E3,1.698E3,1.85E2,3.892E3,4.1181E4,6.032E3,2.973E3,4.636E3,9.586E3,6.4749E4,1.01E2,3.1E1,1.031E3,8.81E2,5.118E3,5.71E2,1.539E3,1.59E2,1.09E2,7.6E1,2.099E3,1.793E3,4.451E3,3.673E4,4.655E3,1.377E3,2.49E2,2.724E3,2.998E3,1.638E3,1.49E3,8.096E3,3.1035E4,3.3714E4,2.3E1,7.8E1,1.1E1,2E1,4.99E2,5.32E2,5.69E2,3.12E2,3.006E3,2.112E3,2.64E2,3.07E2,9.16E2,6.23E2,1.5E1,1.44E2,5E0,1.04E2,7E1,6E0,3.74E2,1.725E3,6.02E2,1.191E3,8.98E2,3.553E3,1.3726E4,2.3004E4,3.531E3,1.124E3,4.6E2,9.17E2,1.06E2,1.43E2,1.016E3,1.708E3,2.339E3,6.59E2,1.343E3,2.95E2,8.34E2,6.56E2,2.073E3,6.023E3,2.2261E4,8.774E3,6.349E3,2.7365E4,1.3E1,1E1,3.1E1,4.7E1,4.06E2,9.3E1,1.69E2,3.63E2,2.61E2,3.08E2,1.99E2,1.13E2,1.98E3,1.026E3,1.569E3,5.43E2,1.84E2,8E1,1.73E2,1.34E2,1.08E2,8.08E2,1.11E2,5.12E2,5E0,1E1,9.2E1,5.2E1],"tree_param":{"num_deleted":"0","num_feature":"13","num_nodes":"123","size_leaf_vector":"1"}},{"base_weights":[3.6908742E-2,-8.916233E0,1.1140395E1,-3.641503E1,-3.829512E0,2.690749E0,1.7436903E1,-2.4372114E1,-6.472543E1,3.0484874E0,-1.7746143E1,-1.8498207E0,1.1348872E1,1.4577928E1,2.8039167E1,-6.453928E1,-1.9385832E1,-9.378749E1,-4.8737263E1,-2.7796564E0,1.4726136E1,-2.8219513E1,2.2362885E-1,2.772756E0,-7.9412456E0,1.4433513E1,-7.665168E0,3.313058E1,1.2098303E1,3.215537E1,1.8622026E1,-8.970761E1,-4.9523376E1,-2.949006E1,-9.755381E0,-1.345366E2,-8.522702E1,-3.5324787E1,-7.632793E1,-6.5459757E0,1.4763925E0,1.0916955E1,2.134877E1,-1.9247866E1,-3.7196106E1,9.430192E0,-3.2709602E1,5.2558136E1,2.1219075E0,-7.3363323E0,-9.683678E1,2.2047525E1,5.376294E0,-2.0437626E1,7.9127355E0,4.226628E1,2.0258717E1,1.579946E1,6.316184E0,3.5774765E1,1.9941633E1,1.4206499E1,2.4653008E1,-1.2203059E0,-5.0779185E0,-3.044153E0,-1.2409716E0,-1.8669357E0,-9.67168E-1,-2.575367E-1,-1.2981604E0,-5.3688293E0,-7.7702403E0,-4.5025005E0,-2.0673485E0,-2.0999038E0,-3.962994E-1,4.3272725E-1,-3.9994965E0,-3.7275522E-3,-4.6017477E-1,-2.1598394E-1,1.4774002E-1,-5.041239E-1,5.987009E-1,1.6909916E0,9.7837746E-1,-1.410712E0,-6.343132E-1,-2.5774915E0,-1.5011016E0,1.3890116E0,4.5318555E-2,-1.0393173E0,-2.0287852E0,2.8689253E0,1.433619E0,2.2020385E0,7.87651E-2,1.18577205E-1,-4.476851E-1,-1.7383531E0,-5.1349044E0,-1.2709408E-1,1.2159083E0,4.2431098E-1,-1.6819839E-1,1.4256245E-1,-2.0324574E0,7.0541304E-1,1.781762E-1,2.4631784E0,1.4452704E0,4.2885754E-1,1.2628155E0,6.590914E-1,1.1619449E0,-2.4066646E-1,4.1455728E-1,8.783948E-1,1.8775946E0,-7.47152E-1,1.5158333E0,8.984527E-1,4.9233317E-1,1.386403E0,1.0006605E0],"categories":[],"categories_nodes":[],"categories_segments":[],"categories_sizes":[],"default_left":[0,0,0,0,0,0,0,0,0,0,0,0,0,0,0,0,0,0,0,0,0,0,0,0,0,0,0,0,0,0,0,0,0,0,0,0,0,0,0,0,0,0,0,0,0,0,0,0,0,0,0,0,0,0,0,0,0,0,0,0,0,0,0,0,0,0,0,0,0,0,0,0,0,0,0,0,0,0,0,0,0,0,0,0,0,0,0,0,0,0,0,0,0,0,0,0,0,0,0,0,0,0,0,0,0,0,0,0,0,0,0,0,0,0,0,0,0,0,0,0,0,0,0,0,0,0,0],"id":5,"left_children":[1,3,5,7,9,11,13,15,17,19,21,23,25,27,29,31,33,35,37,39,41,43,45,47,49,51,53,55,57,59,61,63,65,67,69,71,73,75,77,79,81,83,85,87,89,91,93,95,97,99,101,103,105,107,109,111,113,115,117,119,121,123,125,-1,-1,-1,-1,-1,-1,-1,-1,-1,-1,-1,-1,-1,-1,-1,-1,-1,-1,-1,-1,-1,-1,-1,-1,-1,-1,-1,-1,-1,-1,-1,-1,-1,-1,-1,-1,-1,-1,-1,-1,-1,-1,-1,-1,-1,-1,-1,-1,-1,-1,-1,-1,-1,-1,-1,-1,-1,-1,-1,-1,-1,-1,-1,-1],"loss_changes":[1.4198587E7,1.1060068E7,3.392032E6,4.206633E6,6.387165E6,1.0703132E6,1.106962E6,1.733408E6,1.706719E6,3.0394215E6,4.15386E6,5.0292588E5,5.49441E5,1.3233945E6,3.00118E5,3.568405E5,7.4956625E5,4.44086E5,8.77293E5,4.775491E5,3.7483575E5,1.122257E6,2.4647312E6,3.2893288E5,4.1366203E5,5.5564175E5,2.6041328E5,3.9801475E5,5.4315025E5,2.37863E5,6.2545812E4,2.73007E5,1.6713825E5,2.987105E5,2.9443297E5,1.108125E5,2.25251E5,2.9257225E5,2.425065E5,2.7181175E5,1.19866625E5,2.096895E5,1.19909E5,4.100625E5,7.16075E5,9.936603E5,1.657205E5,1.34293125E4,2.296297E5,1.2021478E5,1.5333844E4,2.4450375E5,1.0011156E5,3.385556E5,1.5845895E4,1.839585E5,8.209544E4,3.0108475E5,2.1784362E5,1.339995E5,4.477995E5,2.2228312E4,1.3665125E4,0E0,0E0,0E0,0E0,0E0,0E0,0E0,0E0,0E0,0E0,0E0,0E0,0E0,0E0,0E0,0E0,0E0,0E0,0E0,0E0,0E0,0E0,0E0,0E0,0E0,0E0,0E0,0E0,0E0,0E0,0E0,0E0,0E0,0E0,0E0,0E0,0E0,0E0,0E0,0E0,0E0,0E0,0E0,0E0,0E0,0E0,0E0,0E0,0E0,0E0,0E0,0E0,0E0,0E0,0E0,0E0,0E0,0E0,0E0,0E0,0E0,0E0,0E0,0E0],"parents":[2147483647,0,0,1,1,2,2,3,3,4,4,5,5,6,6,7,7,8,8,9,9,10,10,11,11,12,12,13,13,14,14,15,15,16,16,17,17,18,18,19,19,20,20,21,21,22,22,23,23,24,24,25,25,26,26,27,27,28,28,29,29,30,30,31,31,32,32,33,33,34,34,35,35,36,36,37,37,38,38,39,39,40,40,41,41,42,42,43,43,44,44,45,45,46,46,47,47,48,48,49,49,50,50,51,51,52,52,53,53,54,54,55,55,56,56,57,57,58,58,59,59,60,60,61,61,62,62],"right_children":[2,4,6,8,10,12,14,16,18,20,22,24,26,28,30,32,34,36,38,40,42,44,46,48,50,52,54,56,58,60,62,64,66,68,70,72,74,76,78,80,82,84,86,88,90,92,94,96,98,100,102,104,106,108,110,112,114,116,118,120,122,124,126,-1,-1,-1,-1,-1,-1,-1,-1,-1,-1,-1,-1,-1,-1,-1,-1,-1,-1,-1,-1,-1,-1,-1,-1,-1,-1,-1,-1,-1,-1,-1,-1,-1,-1,-1,-1,-1,-1,-1,-1,-1,-1,-1,-1,-1,-1,-1,-1,-1,-1,-1,-1,-1,-1,-1,-1,-1,-1,-1,-1,-1,-1,-1,-1],"split_conditions":[1.5378966E0,-6.087614E-1,3.9412207E2,1.2543917E-1,6.087614E-1,1.9006104E0,2.0414011E0,1.1809697E0,1.2772777E0,4.0388007E2,1.7213356E-2,5.543518E-2,8.6314213E-1,3.3511078E1,1.6248615E1,-9.366722E-1,3.9665634E2,-9.426415E-1,3.9144754E-1,3.8969034E2,4.1527115E2,1.1238098E-2,8.616292E-1,-1.8212223E0,6.8754625E-1,1.5075891E1,9.999167E-1,1.2063947E1,1.8427277E-1,8.717063E-1,4.0822375E2,-1.8212223E0,4.0643903E2,1.3980564E0,2.958336E-1,-9.317966E-2,-7.253744E-1,8.5876393E-1,-8.5876393E-1,-3.656845E-1,-8.5876393E-1,-5.3729963E-1,-6.0043526E-1,3.9155038E2,3.87323E2,8.081189E0,3.4929382E1,-1.6710451E-1,-2.050869E0,3.3565495E1,3.3933853E1,-8.800122E-1,2.6372337E-1,7.6040596E-1,1.0093212E-2,1.5415573E-1,-4.9377555E-1,4.124629E2,-5.8070296E-1,-8.800122E-1,9.999167E-1,6.8114746E-1,1.60038E-1,-1.2203059E0,-5.0779185E0,-3.044153E0,-1.2409716E0,-1.8669357E0,-9.67168E-1,-2.575367E-1,-1.2981604E0,-5.3688293E0,-7.7702403E0,-4.5025005E0,-2.0673485E0,-2.0999038E0,-3.962994E-1,4.3272725E-1,-3.9994965E0,-3.7275522E-3,-4.6017477E-1,-2.1598394E-1,1.4774002E-1,-5.041239E-1,5.987009E-1,1.6909916E0,9.7837746E-1,-1.410712E0,-6.343132E-1,-2.5774915E0,-1.5011016E0,1.3890116E0,4.5318555E-2,-1.0393173E0,-2.0287852E0,2.8689253E0,1.433619E0,2.2020385E0,7.87651E-2,1.18577205E-1,-4.476851E-1,-1.7383531E0,-5.1349044E0,-1.2709408E-1,1.2159083E0,4.2431098E-1,-1.6819839E-1,1.4256245E-1,-2.0324574E0,7.0541304E-1,1.781762E-1,2.4631784E0,1.4452704E0,4.2885754E-1,1.2628155E0,6.590914E-1,1.1619449E0,-2.4066646E-1,4.1455728E-1,8.783948E-1,1.8775946E0,-7.47152E-1,1.5158333E0,8.984527E-1,4.9233317E-1,1.386403E0,1.0006605E0],"split_indices":[4,8,7,6,8,4,4,4,4,7,12,1,12,2,0,8,7,8,6,7,7,1,8,0,6,0,12,0,1,12,7,0,7,4,1,9,8,12,12,1,12,8,1,7,7,0,2,10,1,2,2,12,1,8,6,1,12,7,8,12,12,10,1,0,0,0,0,0,0,0,0,0,0,0,0,0,0,0,0,0,0,0,0,0,0,0,0,0,0,0,0,0,0,0,0,0,0,0,0,0,0,0,0,0,0,0,0,0,0,0,0,0,0,0,0,0,0,0,0,0,0,0,0,0,0,0,0],"split_type":[0,0,0,0,0,0,0,0,0,0,0,0,0,0,0,0,0,0,0,0,0,0,0,0,0,0,0,0,0,0,0,0,0,0,0,0,0,0,0,0,0,0,0,0,0,0,0,0,0,0,0,0,0,0,0,0,0,0,0,0,0,0,0,0,0,0,0,0,0,0,0,0,0,0,0,0,0,0,0,0,0,0,0,0,0,0,0,0,0,0,0,0,0,0,0,0,0,0,0,0,0,0,0,0,0,0,0,0,0,0,0,0,0,0,0,0,0,0,0,0,0,0,0,0,0,0,0],"sum_hessian":[1.42825E5,7.9069E4,6.3756E4,1.2342E4,6.6727E4,2.7224E4,3.6532E4,8.66E3,3.682E3,4.4657E4,2.207E4,1.7859E4,9.365E3,2.8775E4,7.757E3,9.55E2,7.705E3,1.305E3,2.377E3,2.979E4,1.4867E4,1.3943E4,8.127E3,1.0154E4,7.705E3,8.058E3,1.307E3,3.391E3,2.5384E4,5.396E3,2.361E3,3.55E2,6E2,3.759E3,3.946E3,2.24E2,1.081E3,1.601E3,7.76E2,1.5804E4,1.3986E4,9.44E3,5.427E3,6.975E3,6.968E3,6.352E3,1.775E3,1.3E2,1.0024E4,7.654E3,5.1E1,4.377E3,3.681E3,7.18E2,5.89E2,1.982E3,1.409E3,1.5476E4,9.908E3,4.161E3,1.235E3,1.365E3,9.96E2,5.5E1,3E2,4.1E2,1.9E2,2.118E3,1.641E3,3.074E3,8.72E2,1E2,1.24E2,9.73E2,1.08E2,1.287E3,3.14E2,3.2E1,7.44E2,4.601E3,1.1203E4,2.842E3,1.1144E4,4.52E2,8.988E3,6.76E2,4.751E3,2.946E3,4.029E3,2.32E3,4.648E3,2.014E3,4.338E3,7.07E2,1.068E3,1.07E2,2.3E1,1.28E2,9.896E3,1.093E3,6.561E3,5E0,4.6E1,3.7E2,4.007E3,2.715E3,9.66E2,3.34E2,3.84E2,2.42E2,3.47E2,1.299E3,6.83E2,4.23E2,9.86E2,1.145E4,4.026E3,1.493E3,8.415E3,3.71E2,3.79E3,2.83E2,9.52E2,7.31E2,6.34E2,5.96E2,4E2],"tree_param":{"num_deleted":"0","num_feature":"13","num_nodes":"127","size_leaf_vector":"1"}},{"base_weights":[3.9019473E-2,2.7600908E0,-4.37451E1,-3.7846785E0,1.4592356E1,-9.2046364E1,-3.1223219E1,-6.710913E0,9.840312E0,2.6327147E1,7.902263E0,-7.2290344E1,-1.0632016E2,-3.800377E1,-6.6148324E0,-1.5770924E1,7.2171104E-1,-3.720083E0,1.4633578E1,3.708325E1,2.3296507E1,7.966921E-1,9.623957E0,-4.579992E1,-8.974409E1,-1.3390906E2,-9.396665E1,-3.136405E1,-6.552978E1,-1.8539587E1,9.625603E-1,-9.586129E0,-2.809699E1,3.2532809E0,-2.0412909E1,1.050132E1,-6.3860493E0,3.3017532E1,1.2167399E1,6.83193E1,3.435573E1,4.2743793E1,2.1663034E1,1.5708025E1,-4.6444125E0,1.1661984E1,4.6260166E0,-5.25402E0,-5.843482E1,-6.3051746E1,-1.0228805E2,-1.0228341E2,-1.4234645E2,-7.767887E1,-1.01959496E2,-3.570158E1,-1.4521335E-1,-5.595712E1,-9.0693214E1,-2.9334427E1,2.1960106E1,5.7598505E0,-5.4403563E0,2.0484625E-1,-6.6661304E-1,-6.429935E-1,-1.736598E0,2.5027356E-1,-1.4319664E-1,-6.597411E-1,-1.9778626E0,7.444084E-1,-8.040786E-1,-2.004307E-1,-8.6223644E-1,2.5986874E0,1.1562647E0,1.6771889E0,5.670437E-1,3.067093E0,5.659162E0,2.5112026E0,1.6151942E0,2.572699E0,1.9878222E0,6.1981934E-1,1.2716829E0,1.2534684E0,6.365912E-1,-1.8628281E-1,-1.1090264E0,8.7894434E-1,4.9579698E-1,-5.8636487E-1,2.8110692E-1,-2.116783E0,1.5731214E-1,-3.9041035E0,-2.1908379E0,-1.368704E0,-3.9930553E0,-4.5760245E0,-5.790517E0,-7.046081E-1,-5.4528723E0,-5.3707848E0,-7.3613486E0,-3.6518219E0,-5.659639E0,-5.642331E0,-4.6954837E0,-2.9464169E0,-1.55374E0,4.191072E-1,-3.0416283E-1,-2.3835254E0,-3.8942478E0,-4.156266E0,-5.806333E0,-2.351283E0,-1.0645684E0,5.6116076E0,7.186833E-1,3.5535243E-1,-7.144094E-1,-1.6624014E0,-2.1380082E-1],"categories":[],"categories_nodes":[],"categories_segments":[],"categories_sizes":[],"default_left":[0,0,0,0,0,0,0,0,0,0,0,0,0,0,0,0,0,0,0,0,0,0,0,0,0,0,0,0,0,0,0,0,0,0,0,0,0,0,0,0,0,0,0,0,0,0,0,0,0,0,0,0,0,0,0,0,0,0,0,0,0,0,0,0,0,0,0,0,0,0,0,0,0,0,0,0,0,0,0,0,0,0,0,0,0,0,0,0,0,0,0,0,0,0,0,0,0,0,0,0,0,0,0,0,0,0,0,0,0,0,0,0,0,0,0,0,0,0,0,0,0,0,0,0,0,0,0],"id":6,"left_children":[1,3,5,7,9,11,13,15,17,19,21,23,25,27,29,31,33,35,37,39,41,43,45,47,49,51,53,55,57,59,61,63,65,67,69,71,73,75,77,79,81,83,85,87,89,91,93,95,97,99,101,103,105,107,109,111,113,115,117,119,121,123,125,-1,-1,-1,-1,-1,-1,-1,-1,-1,-1,-1,-1,-1,-1,-1,-1,-1,-1,-1,-1,-1,-1,-1,-1,-1,-1,-1,-1,-1,-1,-1,-1,-1,-1,-1,-1,-1,-1,-1,-1,-1,-1,-1,-1,-1,-1,-1,-1,-1,-1,-1,-1,-1,-1,-1,-1,-1,-1,-1,-1,-1,-1,-1,-1],"loss_changes":[1.702661E7,1.0419611E7,5.054641E6,3.4541165E6,3.761757E6,4.77607E5,1.108017E6,4.802475E6,9.95639E5,5.66301E5,3.7337325E5,3.3108475E5,3.27192E5,9.49593E5,1.2977447E5,2.4498935E6,2.0962352E6,1.5175969E5,5.1268525E5,3.233505E5,4.30363E5,4.831466E5,2.5019275E5,1.4825169E5,1.3951925E5,6.7069E4,8.21505E4,5.683185E5,2.384405E5,2.4459569E5,2.70313E4,1.0971416E6,1.085137E6,3.750341E5,5.7860825E5,7.394008E4,8.6928016E4,2.496915E5,1.7594262E5,8.88285E4,1.12913E5,2.529275E4,4.37387E5,4.4032156E4,7.020888E4,1.8011225E5,1.1601683E5,2.19418E4,6.0038812E4,8.296319E4,3.233275E4,3.907475E4,2.49045E4,2.996425E4,2.97835E4,3.941685E5,2.6026936E4,1.2982975E5,4.364325E4,6.1742562E4,7.918569E4,1.3686189E4,1.2060427E4,0E0,0E0,0E0,0E0,0E0,0E0,0E0,0E0,0E0,0E0,0E0,0E0,0E0,0E0,0E0,0E0,0E0,0E0,0E0,0E0,0E0,0E0,0E0,0E0,0E0,0E0,0E0,0E0,0E0,0E0,0E0,0E0,0E0,0E0,0E0,0E0,0E0,0E0,0E0,0E0,0E0,0E0,0E0,0E0,0E0,0E0,0E0,0E0,0E0,0E0,0E0,0E0,0E0,0E0,0E0,0E0,0E0,0E0,0E0,0E0,0E0,0E0,0E0,0E0],"parents":[2147483647,0,0,1,1,2,2,3,3,4,4,5,5,6,6,7,7,8,8,9,9,10,10,11,11,12,12,13,13,14,14,15,15,16,16,17,17,18,18,19,19,20,20,21,21,22,22,23,23,24,24,25,25,26,26,27,27,28,28,29,29,30,30,31,31,32,32,33,33,34,34,35,35,36,36,37,37,38,38,39,39,40,40,41,41,42,42,43,43,44,44,45,45,46,46,47,47,48,48,49,49,50,50,51,51,52,52,53,53,54,54,55,55,56,56,57,57,58,58,59,59,60,60,61,61,62,62],"right_children":[2,4,6,8,10,12,14,16,18,20,22,24,26,28,30,32,34,36,38,40,42,44,46,48,50,52,54,56,58,60,62,64,66,68,70,72,74,76,78,80,82,84,86,88,90,92,94,96,98,100,102,104,106,108,110,112,114,116,118,120,122,124,126,-1,-1,-1,-1,-1,-1,-1,-1,-1,-1,-1,-1,-1,-1,-1,-1,-1,-1,-1,-1,-1,-1,-1,-1,-1,-1,-1,-1,-1,-1,-1,-1,-1,-1,-1,-1,-1,-1,-1,-1,-1,-1,-1,-1,-1,-1,-1,-1,-1,-1,-1,-1,-1,-1,-1,-1,-1,-1,-1,-1,-1,-1,-1,-1],"split_conditions":[-5.653203E0,1.6454453E0,-8.703557E-1,8.6314213E-1,1.4058462E1,-4.7873384E-1,1.4936699E1,2.0146923E1,2.6176948E-2,-4.6459866E-1,-5.160624E-1,-5.2312474E0,1.0985224E0,8.5207754E-1,2.1388723E1,2.2043991E-1,5.6640625E-1,4.4214754E0,7.6739035E0,-2.050869E0,-5.049611E-1,6.104854E-2,3.0784893E-1,-8.030146E-1,-8.030146E-1,-8.768492E-2,-5.487706E0,9.999167E-1,-5.276094E0,1.5249728E0,1.3166618E-1,-6.534612E0,-6.422439E0,4.305111E-1,6.2251467E-1,-2.1025243E-1,6.229422E-1,7.253744E-1,-1.1487222E0,9.9999076E-1,-8.797226E-1,1.8335396E0,1.7978271E0,-2.4570274E-1,9.017658E-1,1.771725E1,-5.8070296E-1,-7.2782516E-1,-2.6228982E-1,-5.0395594E0,-5.0395594E0,-1.8212223E0,-1.2408657E0,1.0309715E0,1.1765853E0,1.1132425E0,-5.487706E0,5.3800774E-1,8.0650806E-1,-4.1469324E-1,-1.0098009E0,2.6723838E-1,-9.584575E-2,2.0484625E-1,-6.6661304E-1,-6.429935E-1,-1.736598E0,2.5027356E-1,-1.4319664E-1,-6.597411E-1,-1.9778626E0,7.444084E-1,-8.040786E-1,-2.004307E-1,-8.6223644E-1,2.5986874E0,1.1562647E0,1.6771889E0,5.670437E-1,3.067093E0,5.659162E0,2.5112026E0,1.6151942E0,2.572699E0,1.9878222E0,6.1981934E-1,1.2716829E0,1.2534684E0,6.365912E-1,-1.8628281E-1,-1.1090264E0,8.7894434E-1,4.9579698E-1,-5.8636487E-1,2.8110692E-1,-2.116783E0,1.5731214E-1,-3.9041035E0,-2.1908379E0,-1.368704E0,-3.9930553E0,-4.5760245E0,-5.790517E0,-7.046081E-1,-5.4528723E0,-5.3707848E0,-7.3613486E0,-3.6518219E0,-5.659639E0,-5.642331E0,-4.6954837E0,-2.9464169E0,-1.55374E0,4.191072E-1,-3.0416283E-1,-2.3835254E0,-3.8942478E0,-4.156266E0,-5.806333E0,-2.351283E0,-1.0645684E0,5.6116076E0,7.186833E-1,3.5535243E-1,-7.144094E-1,-1.6624014E0,-2.1380082E-1],"split_indices":[5,4,8,12,0,12,0,0,8,1,12,5,4,11,0,1,8,0,0,1,11,8,1,0,0,9,5,12,5,4,1,5,5,8,8,9,1,8,1,12,3,4,4,1,1,0,8,3,9,5,5,0,1,1,4,4,5,1,1,8,1,8,8,0,0,0,0,0,0,0,0,0,0,0,0,0,0,0,0,0,0,0,0,0,0,0,0,0,0,0,0,0,0,0,0,0,0,0,0,0,0,0,0,0,0,0,0,0,0,0,0,0,0,0,0,0,0,0,0,0,0,0,0,0,0,0,0],"split_type":[0,0,0,0,0,0,0,0,0,0,0,0,0,0,0,0,0,0,0,0,0,0,0,0,0,0,0,0,0,0,0,0,0,0,0,0,0,0,0,0,0,0,0,0,0,0,0,0,0,0,0,0,0,0,0,0,0,0,0,0,0,0,0,0,0,0,0,0,0,0,0,0,0,0,0,0,0,0,0,0,0,0,0,0,0,0,0,0,0,0,0,0,0,0,0,0,0,0,0,0,0,0,0,0,0,0,0,0,0,0,0,0,0,0,0,0,0,0,0,0,0,0,0,0,0,0,0],"sum_hessian":[1.42911E5,1.3455E5,8.361E3,8.6632E4,4.7918E4,1.72E3,6.641E3,7.1316E4,1.5316E4,1.7398E4,3.052E4,7.24E2,9.96E2,5.206E3,1.435E3,3.2139E4,3.9177E4,4E3,1.1316E4,3.822E3,1.3576E4,5.953E3,2.4567E4,2.89E2,4.35E2,3.05E2,6.91E2,4.196E3,1.01E3,5.57E2,8.78E2,2.1402E4,1.0737E4,3.4987E4,4.19E3,6.31E2,3.369E3,1.337E3,9.979E3,3.05E2,3.517E3,1.05E3,1.2526E4,1.591E3,4.362E3,1.745E4,7.117E3,6.9E1,2.2E2,1.41E2,2.94E2,6.7E1,2.38E2,2.31E2,4.6E2,3.684E3,5.12E2,7.34E2,2.76E2,4.4E2,1.17E2,5.02E2,3.76E2,4.6E3,1.6802E4,3.258E3,7.479E3,2.7197E4,7.79E3,3.044E3,1.146E3,5.42E2,8.9E1,2.765E3,6.04E2,4.57E2,8.8E2,3.7E2,9.609E3,2.66E2,3.9E1,4E2,3.117E3,2.64E2,7.86E2,3.624E3,8.902E3,3.82E2,1.209E3,4.146E3,2.16E2,3.974E3,1.3476E4,4.08E2,6.709E3,1.2E1,5.7E1,9.2E1,1.28E2,4.6E1,9.5E1,1.68E2,1.26E2,5E0,6.2E1,3.2E1,2.06E2,2.07E2,2.4E1,1.9E2,2.7E2,6.1E2,3.074E3,2.1E2,3.02E2,5.35E2,1.99E2,2.16E2,6E1,1.36E2,3.04E2,8E0,1.09E2,4.71E2,3.1E1,1.4E1,3.62E2],"tree_param":{"num_deleted":"0","num_feature":"13","num_nodes":"127","size_leaf_vector":"1"}},{"base_weights":[-1.6964631E-2,2.187424E0,-4.92918E1,-4.4065814E0,1.30839E1,-6.930459E1,-2.5157694E1,-1.084778E1,5.146462E0,2.3462309E1,7.082453E0,-2.4093248E1,-7.674477E1,-1.7232016E1,-4.1093494E1,-1.9514431E1,-5.122257E0,8.622E0,-7.4856677E0,1.4952148E1,2.8836737E1,2.5014913E0,1.675414E1,-9.622562E0,-5.1643314E1,-8.116052E1,-1.672172E1,-2.4135681E1,-3.573925E0,2.1813269E0,-4.3951073E1,-2.4822824E1,2.3137126E0,-1.1307603E1,-5.4441106E-1,4.982078E0,1.7838678E1,-1.4496512E1,1.5122822E1,1.9200716E1,6.003213E0,4.0913532E1,2.6115725E1,-2.119143E0,5.750695E0,2.261367E1,1.3788351E1,-1.9510632E1,-1.0303434E0,-4.0550755E1,-6.509848E1,-9.210109E1,-6.156281E1,-2.8922733E1,-3.718369E0,-2.939348E1,-1.7036895E0,2.3709795E1,-6.8437014E0,-2.2811525E0,9.075584E0,-5.355382E1,-3.408895E1,-8.909295E-1,-1.9893599E0,8.057236E-1,-2.835358E-1,-6.703515E-1,4.0242407E-1,2.2696267E-1,-2.1633933E-1,3.0983582E-1,-8.0524015E-1,9.959297E-1,-1.4705466E-1,-1.0301001E0,5.113606E-1,1.1814299E0,2.0019768E-1,1.2408631E0,6.169291E-1,8.871496E-2,8.255084E-1,2.4056404E0,1.4042668E0,7.442435E-1,1.6060904E0,1.3950871E-1,-2.7265915E-1,-7.546578E-2,4.0665427E-1,8.7971604E-1,1.3121257E0,5.7399195E-1,9.747888E-1,-2.1213344E-1,-1.3874058E0,3.439851E-1,-3.9816344E-1,-2.1190498E0,-8.011538E-1,-2.0298421E0,-3.419698E0,-4.3302565E0,-5.9394603E0,-2.5788271E0,-4.289423E0,7.483066E-1,-1.6928513E0,-6.9476026E-1,3.7007833E-1,-1.8713865E0,-1.0234171E0,-4.2258215E-1,3.0866587E-1,1.7415307E0,-1.0435599E0,-3.6011092E-2,-1.447615E0,4.7267684E-1,-2.9875594E-1,5.7359153E-1,9.72667E-2,-2.5253727E0,-4.7281475E0,-7.113769E-1,-1.8927962E0],"categories":[],"categories_nodes":[],"categories_segments":[],"categories_sizes":[],"default_left":[0,0,0,0,0,0,0,0,0,0,0,0,0,0,0,0,0,0,0,0,0,0,0,0,0,0,0,0,0,0,0,0,0,0,0,0,0,0,0,0,0,0,0,0,0,0,0,0,0,0,0,0,0,0,0,0,0,0,0,0,0,0,0,0,0,0,0,0,0,0,0,0,0,0,0,0,0,0,0,0,0,0,0,0,0,0,0,0,0,0,0,0,0,0,0,0,0,0,0,0,0,0,0,0,0,0,0,0,0,0,0,0,0,0,0,0,0,0,0,0,0,0,0,0,0,0,0],"id":7,"left_children":[1,3,5,7,9,11,13,15,17,19,21,23,25,27,29,31,33,35,37,39,41,43,45,47,49,51,53,55,57,59,61,63,65,67,69,71,73,75,77,79,81,83,85,87,89,91,93,95,97,99,101,103,105,107,109,111,113,115,117,119,121,123,125,-1,-1,-1,-1,-1,-1,-1,-1,-1,-1,-1,-1,-1,-1,-1,-1,-1,-1,-1,-1,-1,-1,-1,-1,-1,-1,-1,-1,-1,-1,-1,-1,-1,-1,-1,-1,-1,-1,-1,-1,-1,-1,-1,-1,-1,-1,-1,-1,-1,-1,-1,-1,-1,-1,-1,-1,-1,-1,-1,-1,-1,-1,-1,-1],"loss_changes":[1.5519103E7,9.826173E6,2.953185E6,5.242611E6,3.211145E6,1.122998E6,3.4977412E5,2.5250165E6,1.5064796E6,8.63541E5,1.4473766E6,1.8846572E5,7.59584E5,1.7482056E5,1.13992125E5,2.3457795E6,8.67723E5,9.026516E5,1.1737874E6,2.7796162E5,3.79358E5,3.3285925E5,1.82155E5,2.6485512E4,2.167775E4,5.67646E5,3.1302691E4,1.452525E5,5.5828656E4,1.8057803E3,7.998925E4,1.706075E6,4.365596E5,5.297669E5,3.3866894E5,4.9422353E5,3.2931175E5,8.533834E5,1.6569194E5,1.9081738E5,1.0465302E5,1.9507725E5,6.370195E5,1.4984686E5,2.2515722E5,6.3776375E4,9.1660125E4,1.8115668E4,9.267973E3,3.4451094E3,3.026125E3,2.41097E5,2.280505E5,2.2597766E4,1.1080573E4,7.079144E4,1.2543516E4,3.3945414E4,7.551909E4,1.6166498E3,3.6931567E2,4.96785E4,3.1552875E4,0E0,0E0,0E0,0E0,0E0,0E0,0E0,0E0,0E0,0E0,0E0,0E0,0E0,0E0,0E0,0E0,0E0,0E0,0E0,0E0,0E0,0E0,0E0,0E0,0E0,0E0,0E0,0E0,0E0,0E0,0E0,0E0,0E0,0E0,0E0,0E0,0E0,0E0,0E0,0E0,0E0,0E0,0E0,0E0,0E0,0E0,0E0,0E0,0E0,0E0,0E0,0E0,0E0,0E0,0E0,0E0,0E0,0E0,0E0,0E0,0E0,0E0,0E0,0E0],"parents":[2147483647,0,0,1,1,2,2,3,3,4,4,5,5,6,6,7,7,8,8,9,9,10,10,11,11,12,12,13,13,14,14,15,15,16,16,17,17,18,18,19,19,20,20,21,21,22,22,23,23,24,24,25,25,26,26,27,27,28,28,29,29,30,30,31,31,32,32,33,33,34,34,35,35,36,36,37,37,38,38,39,39,40,40,41,41,42,42,43,43,44,44,45,45,46,46,47,47,48,48,49,49,50,50,51,51,52,52,53,53,54,54,55,55,56,56,57,57,58,58,59,59,60,60,61,61,62,62],"right_children":[2,4,6,8,10,12,14,16,18,20,22,24,26,28,30,32,34,36,38,40,42,44,46,48,50,52,54,56,58,60,62,64,66,68,70,72,74,76,78,80,82,84,86,88,90,92,94,96,98,100,102,104,106,108,110,112,114,116,118,120,122,124,126,-1,-1,-1,-1,-1,-1,-1,-1,-1,-1,-1,-1,-1,-1,-1,-1,-1,-1,-1,-1,-1,-1,-1,-1,-1,-1,-1,-1,-1,-1,-1,-1,-1,-1,-1,-1,-1,-1,-1,-1,-1,-1,-1,-1,-1,-1,-1,-1,-1,-1,-1,-1,-1,-1,-1,-1,-1,-1,-1,-1,-1,-1,-1,-1],"split_conditions":[-5.523408E0,1.6190982E0,3.4403652E1,4.0076596E2,1.4207495E1,-8.5876393E-1,-5.2312474E0,1.7978672E1,-6.09107E0,3.92784E2,4.0440912E2,-5.2312474E0,8.5876393E-1,1.2613782E1,-8.8111955E-1,8.5876393E-1,-4.9377555E-1,4.1527115E2,8.5876393E-1,8.5876393E-1,3.362008E1,3.881023E2,-1.1230278E-1,3.9083017E2,-5.0395594E0,4.0047168E2,9.999167E-1,9.999167E-1,1.6936367E1,3.8502206E2,3.9699985E2,2.2620392E-1,3.3380592E1,8.7005746E-1,-1.2329197E-1,1.1757593E0,1.00173E0,2.0597794E1,3.4096634E1,1.1238098E-2,2.1964605E0,7.688761E-2,1.8756857E0,-1.5682602E-1,-5.160624E-1,4.1155618E2,4.1733813E2,-5.442818E0,-5.400788E0,6.966569E0,-5.167645E-1,-5.0395594E0,-5.185451E0,8.6314213E-1,4.0546274E2,3.9966855E2,3.991797E2,1.0424852E-1,-2.8873494E-1,2.127731E1,2.2312284E1,-2.6482677E-1,-5.263917E-1,-8.909295E-1,-1.9893599E0,8.057236E-1,-2.835358E-1,-6.703515E-1,4.0242407E-1,2.2696267E-1,-2.1633933E-1,3.0983582E-1,-8.0524015E-1,9.959297E-1,-1.4705466E-1,-1.0301001E0,5.113606E-1,1.1814299E0,2.0019768E-1,1.2408631E0,6.169291E-1,8.871496E-2,8.255084E-1,2.4056404E0,1.4042668E0,7.442435E-1,1.6060904E0,1.3950871E-1,-2.7265915E-1,-7.546578E-2,4.0665427E-1,8.7971604E-1,1.3121257E0,5.7399195E-1,9.747888E-1,-2.1213344E-1,-1.3874058E0,3.439851E-1,-3.9816344E-1,-2.1190498E0,-8.011538E-1,-2.0298421E0,-3.419698E0,-4.3302565E0,-5.9394603E0,-2.5788271E0,-4.289423E0,7.483066E-1,-1.6928513E0,-6.9476026E-1,3.7007833E-1,-1.8713865E0,-1.0234171E0,-4.2258215E-1,3.0866587E-1,1.7415307E0,-1.0435599E0,-3.6011092E-2,-1.447615E0,4.7267684E-1,-2.9875594E-1,5.7359153E-1,9.72667E-2,-2.5253727E0,-4.7281475E0,-7.113769E-1,-1.8927962E0],"split_indices":[5,4,2,7,0,12,5,0,5,7,7,5,12,0,9,12,12,7,12,12,2,7,1,7,5,7,12,12,0,7,7,1,2,10,1,1,1,0,2,1,4,1,4,1,12,7,7,5,5,0,9,5,5,12,7,7,7,1,9,0,0,10,10,0,0,0,0,0,0,0,0,0,0,0,0,0,0,0,0,0,0,0,0,0,0,0,0,0,0,0,0,0,0,0,0,0,0,0,0,0,0,0,0,0,0,0,0,0,0,0,0,0,0,0,0,0,0,0,0,0,0,0,0,0,0,0,0],"split_type":[0,0,0,0,0,0,0,0,0,0,0,0,0,0,0,0,0,0,0,0,0,0,0,0,0,0,0,0,0,0,0,0,0,0,0,0,0,0,0,0,0,0,0,0,0,0,0,0,0,0,0,0,0,0,0,0,0,0,0,0,0,0,0,0,0,0,0,0,0,0,0,0,0,0,0,0,0,0,0,0,0,0,0,0,0,0,0,0,0,0,0,0,0,0,0,0,0,0,0,0,0,0,0,0,0,0,0,0,0,0,0,0,0,0,0,0,0,0,0,0,0,0,0,0,0,0,0],"sum_hessian":[1.42872E5,1.36755E5,6.117E3,8.5198E4,5.1557E4,3.343E3,2.774E3,5.0887E4,3.4311E4,1.8889E4,3.2668E4,4.73E2,2.87E3,1.854E3,9.2E2,2.0243E4,3.0644E4,2.6908E4,7.403E3,7.313E3,1.1576E4,2.2169E4,1.0499E4,3.11E2,1.62E2,2.673E3,1.97E2,1.231E3,6.23E2,5.7E1,8.63E2,1.6283E4,3.96E3,1.3033E4,1.7611E4,1.9291E4,7.617E3,5.651E3,1.752E3,4.958E3,2.355E3,2.126E3,9.45E3,9.153E3,1.3016E4,3.526E3,6.973E3,1.44E2,1.67E2,9.1E1,7.1E1,1.713E3,9.6E2,1.01E2,9.6E1,9.97E2,2.34E2,6.6E1,5.57E2,3.5E1,2.2E1,4.35E2,4.28E2,1.1093E4,5.19E3,1.451E3,2.509E3,1.1758E4,1.275E3,7.513E3,1.0098E4,1.8241E4,1.05E3,6.924E3,6.93E2,4.532E3,1.119E3,9.92E2,7.6E2,2.725E3,2.233E3,1.68E3,6.75E2,1.36E3,7.66E2,3.294E3,6.156E3,3.702E3,5.451E3,3.216E3,9.8E3,1.482E3,2.044E3,4.967E3,2.006E3,5.1E1,9.3E1,7.8E1,8.9E1,8.4E1,7E0,1E1,6.1E1,1.424E3,2.89E2,6.82E2,2.78E2,1E1,9.1E1,5E1,4.6E1,5.23E2,4.74E2,1.26E2,1.08E2,5.3E1,1.3E1,4.37E2,1.2E2,8E0,2.7E1,1.6E1,6E0,4.07E2,2.8E1,6.9E1,3.59E2],"tree_param":{"num_deleted":"0","num_feature":"13","num_nodes":"127","size_leaf_vector":"1"}},{"base_weights":[-3.9268807E-2,2.6100898E0,-3.7297928E1,-3.1943781E0,1.3293274E1,-8.033285E1,-2.5303541E1,-5.842015E0,9.178002E0,2.308189E1,6.580347E0,-1.6218071E1,-8.5171394E1,-3.181635E1,-4.8558574E0,-1.3857323E1,6.2278646E-1,-3.7940435E0,1.3770715E1,1.5109936E1,2.6115442E1,2.1689813E0,9.072553E0,-2.853294E0,-5.4124454E1,-7.0566765E1,-9.766765E1,-3.553209E1,4.455599E-1,-2.8646488E1,-1.6756175E0,-1.9032833E1,-2.291334E0,3.5034049E0,-1.5269856E1,1.1127077E1,-6.247783E0,2.9181515E1,1.1185052E1,2.5396406E1,7.4726706E0,4.169402E1,2.4859255E1,1.476954E1,-2.4922526E0,-1.103191E1,1.0093356E1,5.1502314E0,-1.0246864E1,-3.2688196E0,-3.6373455E1,-4.6808853E1,-8.224676E1,-8.505777E1,-1.2103445E2,-8.767173E0,-3.8986736E1,4.2455254E0,-1.0500645E1,-4.4336388E1,2.4129025E1,3.3445864E0,-1.4527861E1,-7.0431036E-1,-1.3401971E0,2.4574583E0,-1.7465682E-1,-1.0415353E0,1.9574814E-1,-5.106589E-1,-1.8595448E0,7.702972E-1,-6.3669676E-1,-1.3536059E0,-2.8316218E-1,2.206412E0,9.951133E-1,6.474098E-1,1.9552669E-1,1.3383325E0,-6.720676E-1,1.0271162E-2,6.356849E-1,1.8640339E0,3.4388406E0,1.3400484E0,8.484403E-1,1.5583061E0,6.753684E-1,-2.792507E-1,4.197819E-2,1.7902254E-1,-1.1538543E0,4.3744737E-1,7.167463E-1,1.2348988E-1,1.2859331E0,-6.667542E-1,5.161433E-1,-9.7345954E-1,-2.0893066E0,5.1786196E-1,-2.5280683E0,-9.6065515E-1,-4.2782683E0,-2.9628294E0,-4.5302963E0,-4.943114E0,-6.553943E0,2.511518E-1,-1.9980215E0,-2.6319375E0,-1.5339066E0,1.7159091E-1,2.3465273E0,-3.9994943E-1,-1.7111973E0,-4.179034E0,-1.9896758E0,-2.1019416E0,2.21959E0,2.1469557E-1,-4.7990486E-1,-1.4902223E0,-1.5610133E-2],"categories":[],"categories_nodes":[],"categories_segments":[],"categories_sizes":[],"default_left":[0,0,0,0,0,0,0,0,0,0,0,0,0,0,0,0,0,0,0,0,0,0,0,0,0,0,0,0,0,0,0,0,0,0,0,0,0,0,0,0,0,0,0,0,0,0,0,0,0,0,0,0,0,0,0,0,0,0,0,0,0,0,0,0,0,0,0,0,0,0,0,0,0,0,0,0,0,0,0,0,0,0,0,0,0,0,0,0,0,0,0,0,0,0,0,0,0,0,0,0,0,0,0,0,0,0,0,0,0,0,0,0,0,0,0,0,0,0,0,0,0,0,0,0,0],"id":8,"left_children":[1,3,5,7,9,11,13,15,17,19,21,23,25,27,29,31,33,35,37,39,41,43,45,47,49,51,53,55,57,59,61,63,65,67,69,71,73,75,77,79,81,83,85,87,89,91,93,95,97,-1,99,101,103,105,107,109,111,113,115,117,119,121,123,-1,-1,-1,-1,-1,-1,-1,-1,-1,-1,-1,-1,-1,-1,-1,-1,-1,-1,-1,-1,-1,-1,-1,-1,-1,-1,-1,-1,-1,-1,-1,-1,-1,-1,-1,-1,-1,-1,-1,-1,-1,-1,-1,-1,-1,-1,-1,-1,-1,-1,-1,-1,-1,-1,-1,-1,-1,-1,-1,-1,-1,-1],"loss_changes":[1.4076664E7,8.255896E6,4.884611E6,2.8259502E6,3.07975E6,6.38597E5,9.85979E5,3.682204E6,9.0603875E5,4.60705E5,3.0566825E5,7.380498E4,3.43131E5,6.73248E5,1.3538022E5,1.89907E6,1.8008795E6,1.4567712E5,4.4719275E5,4.1287812E5,2.69213E5,5.8967025E5,3.64738E5,6.5033174E3,5.2017188E3,2.4255E5,2.93471E5,4.652985E5,2.4210766E4,1.7578878E5,1.01992695E5,8.42163E5,6.0657244E5,3.335858E5,6.686916E5,5.7575586E4,4.1425203E4,2.228295E5,1.23321125E5,1.1956775E5,1.1498333E5,1.20417125E5,1.95374E5,5.56795E4,7.552695E4,1.5127578E5,9.6294125E4,2.8556738E3,3.758817E3,0E0,7.3578516E2,6.3810125E4,1.22601E5,9.0955E4,6.697E4,2.4840744E5,5.042705E5,1.4838615E4,8.624154E3,2.5721625E4,6.756287E4,1.4010791E4,9.64097E4,0E0,0E0,0E0,0E0,0E0,0E0,0E0,0E0,0E0,0E0,0E0,0E0,0E0,0E0,0E0,0E0,0E0,0E0,0E0,0E0,0E0,0E0,0E0,0E0,0E0,0E0,0E0,0E0,0E0,0E0,0E0,0E0,0E0,0E0,0E0,0E0,0E0,0E0,0E0,0E0,0E0,0E0,0E0,0E0,0E0,0E0,0E0,0E0,0E0,0E0,0E0,0E0,0E0,0E0,0E0,0E0,0E0,0E0,0E0,0E0,0E0,0E0],"parents":[2147483647,0,0,1,1,2,2,3,3,4,4,5,5,6,6,7,7,8,8,9,9,10,10,11,11,12,12,13,13,14,14,15,15,16,16,17,17,18,18,19,19,20,20,21,21,22,22,23,23,24,24,25,25,26,26,27,27,28,28,29,29,30,30,31,31,32,32,33,33,34,34,35,35,36,36,37,37,38,38,39,39,40,40,41,41,42,42,43,43,44,44,45,45,46,46,47,47,48,48,50,50,51,51,52,52,53,53,54,54,55,55,56,56,57,57,58,58,59,59,60,60,61,61,62,62],"right_children":[2,4,6,8,10,12,14,16,18,20,22,24,26,28,30,32,34,36,38,40,42,44,46,48,50,52,54,56,58,60,62,64,66,68,70,72,74,76,78,80,82,84,86,88,90,92,94,96,98,-1,100,102,104,106,108,110,112,114,116,118,120,122,124,-1,-1,-1,-1,-1,-1,-1,-1,-1,-1,-1,-1,-1,-1,-1,-1,-1,-1,-1,-1,-1,-1,-1,-1,-1,-1,-1,-1,-1,-1,-1,-1,-1,-1,-1,-1,-1,-1,-1,-1,-1,-1,-1,-1,-1,-1,-1,-1,-1,-1,-1,-1,-1,-1,-1,-1,-1,-1,-1,-1,-1,-1],"split_conditions":[-5.7005105E0,1.6493413E0,-8.616292E-1,8.6314213E-1,1.5379669E1,-8.800122E-1,1.4936699E1,2.0146923E1,2.6176948E-2,1.7978271E0,-8.606997E-3,-5.2312474E0,-8.606997E-3,9.999167E-1,-3.9874908E-1,1.40945E0,5.3729963E-1,3.8847575E0,8.868906E0,3.3822975E1,3.3251854E1,9.584575E-2,-5.6640625E-1,-5.400788E0,3.146602E-1,-5.320156E0,-5.276094E0,-8.5876393E-1,-5.361185E0,1.4588861E0,2.6723838E-1,-6.1062493E0,-8.030146E-1,-5.51937E-1,6.2251467E-1,-2.1025243E-1,-9.2868215E-1,7.253744E-1,-6.0597363E0,4.55416E-1,-6.4944804E-1,1.7178123E-1,-6.226342E0,-8.3340305E-1,-5.160624E-1,1.771725E1,4.246069E-1,2.2905159E-1,4.0317273E-1,-3.2688196E0,1.7787441E0,-1.8212223E0,-9.5881975E-1,-3.4514424E-1,-1.514047E-1,-5.320156E0,4.862727E-1,1.626088E-1,-5.130311E0,-7.776938E-1,-8.800122E-1,3.5401268E1,1.259051E0,-7.0431036E-1,-1.3401971E0,2.4574583E0,-1.7465682E-1,-1.0415353E0,1.9574814E-1,-5.106589E-1,-1.8595448E0,7.702972E-1,-6.3669676E-1,-1.3536059E0,-2.8316218E-1,2.206412E0,9.951133E-1,6.474098E-1,1.9552669E-1,1.3383325E0,-6.720676E-1,1.0271162E-2,6.356849E-1,1.8640339E0,3.4388406E0,1.3400484E0,8.484403E-1,1.5583061E0,6.753684E-1,-2.792507E-1,4.197819E-2,1.7902254E-1,-1.1538543E0,4.3744737E-1,7.167463E-1,1.2348988E-1,1.2859331E0,-6.667542E-1,5.161433E-1,-9.7345954E-1,-2.0893066E0,5.1786196E-1,-2.5280683E0,-9.6065515E-1,-4.2782683E0,-2.9628294E0,-4.5302963E0,-4.943114E0,-6.553943E0,2.511518E-1,-1.9980215E0,-2.6319375E0,-1.5339066E0,1.7159091E-1,2.3465273E0,-3.9994943E-1,-1.7111973E0,-4.179034E0,-1.9896758E0,-2.1019416E0,2.21959E0,2.1469557E-1,-4.7990486E-1,-1.4902223E0,-1.5610133E-2],"split_indices":[5,4,8,12,0,12,0,0,8,4,12,5,12,12,8,4,8,0,0,2,2,8,8,5,10,5,5,12,5,4,8,5,0,8,8,9,9,8,5,9,8,9,5,10,12,0,9,6,9,0,4,0,8,9,10,5,12,9,5,9,12,2,4,0,0,0,0,0,0,0,0,0,0,0,0,0,0,0,0,0,0,0,0,0,0,0,0,0,0,0,0,0,0,0,0,0,0,0,0,0,0,0,0,0,0,0,0,0,0,0,0,0,0,0,0,0,0,0,0,0,0,0,0,0,0],"split_type":[0,0,0,0,0,0,0,0,0,0,0,0,0,0,0,0,0,0,0,0,0,0,0,0,0,0,0,0,0,0,0,0,0,0,0,0,0,0,0,0,0,0,0,0,0,0,0,0,0,0,0,0,0,0,0,0,0,0,0,0,0,0,0,0,0,0,0,0,0,0,0,0,0,0,0,0,0,0,0,0,0,0,0,0,0,0,0,0,0,0,0,0,0,0,0,0,0,0,0,0,0,0,0,0,0,0,0,0,0,0,0,0,0,0,0,0,0,0,0,0,0,0,0,0,0],"sum_hessian":[1.42602E5,1.33136E5,9.466E3,8.6266E4,4.687E4,2.062E3,7.404E3,7.106E4,1.5206E4,1.9066E4,2.7804E4,1.45E2,1.917E3,5.615E3,1.789E3,3.1725E4,3.9335E4,3.976E3,1.123E4,5.257E3,1.3809E4,1.0038E4,1.7766E4,1.08E2,3.7E1,8.87E2,1.03E3,5.035E3,5.8E2,2.1E2,1.579E3,2.1917E4,9.808E3,3.33E4,6.035E3,5.61E2,3.415E3,1.612E3,9.618E3,2.239E3,3.018E3,1.028E3,1.2781E4,2.71E3,7.328E3,8.58E2,1.6908E4,5.2E1,5.6E1,2.1E1,1.6E1,2.94E2,5.93E2,6.72E2,3.58E2,5.76E2,4.459E3,4.31E2,1.49E2,1.62E2,4.8E1,1.136E3,4.43E2,1.3394E4,8.523E3,2.23E2,9.585E3,5.53E2,3.2747E4,4.905E3,1.13E3,4.76E2,8.5E1,9.2E1,3.323E3,6.16E2,9.96E2,7.741E3,1.877E3,2.163E3,7.6E1,1.265E3,1.753E3,8.86E2,1.42E2,1.0255E4,2.526E3,1.92E2,2.518E3,3.8E3,3.528E3,3.88E2,4.7E2,1.2841E4,4.067E3,4.7E1,5E0,4.9E1,7E0,5E0,1.1E1,1.8E1,2.76E2,3E1,5.63E2,1.21E2,5.51E2,1.15E2,2.43E2,4E2,1.76E2,1.685E3,2.774E3,4.24E2,7E0,1.36E2,1.3E1,1.5E1,1.47E2,1.1E1,3.7E1,1.059E3,7.7E1,2.13E2,2.3E2],"tree_param":{"num_deleted":"0","num_feature":"13","num_nodes":"125","size_leaf_vector":"1"}},{"base_weights":[2.3355734E-2,2.8289347E0,-3.1252924E1,-2.2391737E0,1.3425564E1,-7.408728E1,-2.153364E1,-9.565514E0,5.421788E0,2.3144005E1,6.7146916E0,-9.1337555E1,-6.2050976E1,-1.4038078E1,-3.689648E1,-7.234405E0,-2.290033E1,-6.3699203E0,7.8340197E0,1.373223E1,2.8100407E1,1.8127011E0,1.4738408E1,-2.2560183E1,-9.6619934E1,-4.8197006E1,-7.8569496E1,-1.3445259E2,-1.3360654E1,-3.0087273E1,-6.1940247E1,-1.834159E1,-5.545481E0,-3.2233624E1,-1.4073559E1,-1.5984811E1,3.9525926E-1,1.2259181E1,6.6976644E-2,2.9619438E1,1.2168068E1,6.540676E1,2.7412716E1,-2.1891148E0,5.080488E0,1.0807471E1,1.8827782E1,-5.197209E0,-9.31253E0,-8.16197E1,-1.073026E2,-2.6979973E1,-6.21272E1,-6.657604E1,-8.856811E1,-8.620356E0,-9.2600787E-1,-1.8705976E1,4.7591007E-1,-3.279232E1,-3.3892841E0,-7.079296E1,-9.365239E0,1.576981E0,-1.0502716E0,-5.9547123E-2,-6.1458796E-1,-8.3484143E-1,-1.9295281E0,-5.545661E-1,-2.296839E0,-1.7421741E0,-5.34136E-1,9.662326E-1,-1.3510399E-1,4.0212408E-1,9.5688725E-1,9.71974E-1,-2.7930215E-1,2.0815063E0,1.1987463E0,3.0728072E-1,7.857738E-1,2.517296E0,4.1327357E0,1.1825708E0,1.7287813E0,1.4983946E-1,-2.510535E-1,1.2482879E-1,4.8205075E-1,-8.382335E-1,5.5893844E-1,1.0668736E0,5.760002E-1,3.903213E-1,-1.3056906E0,-3.7480443E0,-5.1362324E0,-6.3751426E0,-4.901501E0,-1.9803165E0,-1.3748829E-1,-2.8862245E0,-4.7275753E0,-3.5324154E0,-1.6449009E0,-4.6770396E0,-3.720139E0,-1.3998622E0,-4.7602545E-2,-2.0418547E-1,5.5898297E-1,-1.2922214E0,-2.0315516E0,7.6151475E-2,-6.6499513E-1,-2.8776696E0,-4.3140006E0,3.721848E0,-8.8212556E-1],"categories":[],"categories_nodes":[],"categories_segments":[],"categories_sizes":[],"default_left":[0,0,0,0,0,0,0,0,0,0,0,0,0,0,0,0,0,0,0,0,0,0,0,0,0,0,0,0,0,0,0,0,0,0,0,0,0,0,0,0,0,0,0,0,0,0,0,0,0,0,0,0,0,0,0,0,0,0,0,0,0,0,0,0,0,0,0,0,0,0,0,0,0,0,0,0,0,0,0,0,0,0,0,0,0,0,0,0,0,0,0,0,0,0,0,0,0,0,0,0,0,0,0,0,0,0,0,0,0,0,0,0,0,0,0,0,0,0,0,0,0],"id":9,"left_children":[1,3,5,7,9,11,13,15,17,19,21,23,25,27,29,31,33,35,37,39,41,43,45,47,49,51,53,55,57,59,61,63,65,67,69,71,73,75,77,79,81,83,85,87,89,91,93,-1,95,97,99,101,103,105,107,-1,-1,109,111,113,115,117,119,-1,-1,-1,-1,-1,-1,-1,-1,-1,-1,-1,-1,-1,-1,-1,-1,-1,-1,-1,-1,-1,-1,-1,-1,-1,-1,-1,-1,-1,-1,-1,-1,-1,-1,-1,-1,-1,-1,-1,-1,-1,-1,-1,-1,-1,-1,-1,-1,-1,-1,-1,-1,-1,-1,-1,-1,-1,-1],"loss_changes":[1.255587E7,7.0520705E6,4.902219E6,4.985685E6,2.770615E6,4.46535E5,1.1051775E6,1.4112722E6,1.2351881E6,8.09102E5,9.884681E5,3.222425E5,2.90498E5,5.2473375E5,5.349495E5,7.2495725E5,5.561205E5,4.797256E5,1.239017E6,1.4843825E5,2.89796E5,2.0404006E5,1.53005E5,6.910024E4,1.24064E5,2.0579612E5,6.424E4,1.5519356E5,4.7483975E5,1.787725E5,3.12099E5,6.784606E5,9.8560925E5,3.2360025E5,3.2959706E5,3.04194E5,2.53925E5,6.659395E5,1.4330894E6,3.5333188E4,1.1639975E5,4.9077938E4,2.999015E5,1.0302459E5,1.0118747E5,4.996125E4,8.5399875E4,0E0,1.6600049E4,4.13285E4,7.75735E4,8.5549875E4,5.4912125E4,3.4694875E4,1.52825E4,0E0,0E0,7.6388375E5,8.740735E4,1.2142925E5,1.1170086E4,1.12919E5,6.928564E4,0E0,0E0,0E0,0E0,0E0,0E0,0E0,0E0,0E0,0E0,0E0,0E0,0E0,0E0,0E0,0E0,0E0,0E0,0E0,0E0,0E0,0E0,0E0,0E0,0E0,0E0,0E0,0E0,0E0,0E0,0E0,0E0,0E0,0E0,0E0,0E0,0E0,0E0,0E0,0E0,0E0,0E0,0E0,0E0,0E0,0E0,0E0,0E0,0E0,0E0,0E0,0E0,0E0,0E0,0E0,0E0,0E0,0E0],"parents":[2147483647,0,0,1,1,2,2,3,3,4,4,5,5,6,6,7,7,8,8,9,9,10,10,11,11,12,12,13,13,14,14,15,15,16,16,17,17,18,18,19,19,20,20,21,21,22,22,23,23,24,24,25,25,26,26,27,27,28,28,29,29,30,30,31,31,32,32,33,33,34,34,35,35,36,36,37,37,38,38,39,39,40,40,41,41,42,42,43,43,44,44,45,45,46,46,48,48,49,49,50,50,51,51,52,52,53,53,54,54,57,57,58,58,59,59,60,60,61,61,62,62],"right_children":[2,4,6,8,10,12,14,16,18,20,22,24,26,28,30,32,34,36,38,40,42,44,46,48,50,52,54,56,58,60,62,64,66,68,70,72,74,76,78,80,82,84,86,88,90,92,94,-1,96,98,100,102,104,106,108,-1,-1,110,112,114,116,118,120,-1,-1,-1,-1,-1,-1,-1,-1,-1,-1,-1,-1,-1,-1,-1,-1,-1,-1,-1,-1,-1,-1,-1,-1,-1,-1,-1,-1,-1,-1,-1,-1,-1,-1,-1,-1,-1,-1,-1,-1,-1,-1,-1,-1,-1,-1,-1,-1,-1,-1,-1,-1,-1,-1,-1,-1,-1,-1],"split_conditions":[-5.776896E0,1.6848369E0,-8.616292E-1,3.967617E2,1.5234314E1,1.1809697E0,-5.400788E0,5.3800774E-1,-5.3729963E-1,3.9022238E2,4.029405E2,-1.8212223E0,-5.320156E0,3.7457556E2,3.9144754E-1,-5.8070296E-1,1.91239E1,1.3779122E0,5.6640625E-1,-8.8446426E-1,-2.050869E0,3.881023E2,4.1155618E2,3.2697407E1,4.873524E-2,1.8210914E0,3.61763E-1,1.3759872E1,1.6086021E1,2.1170197E1,3.4273075E1,-8.030146E-1,5.2249855E-1,-6.4790897E0,6.087614E-1,-9.0258527E-1,-6.7825894E0,4.1222406E2,8.587993E0,-5.2249855E-1,1.9068642E0,-6.494163E0,4.0800095E2,-2.3363686E-1,-6.5382977E0,-6.087614E-1,3.9978313E-1,-5.197209E0,-5.185451E0,3.9144754E-1,3.9076343E2,1.3900014E0,1.0625854E0,1.802725E0,3.9811884E2,-8.620356E0,-9.2600787E-1,1.5286158E0,4.0546274E2,-5.2312474E0,2.7025032E-1,4.073658E-1,-8.459573E-1,1.576981E0,-1.0502716E0,-5.9547123E-2,-6.1458796E-1,-8.3484143E-1,-1.9295281E0,-5.545661E-1,-2.296839E0,-1.7421741E0,-5.34136E-1,9.662326E-1,-1.3510399E-1,4.0212408E-1,9.5688725E-1,9.71974E-1,-2.7930215E-1,2.0815063E0,1.1987463E0,3.0728072E-1,7.857738E-1,2.517296E0,4.1327357E0,1.1825708E0,1.7287813E0,1.4983946E-1,-2.510535E-1,1.2482879E-1,4.8205075E-1,-8.382335E-1,5.5893844E-1,1.0668736E0,5.760002E-1,3.903213E-1,-1.3056906E0,-3.7480443E0,-5.1362324E0,-6.3751426E0,-4.901501E0,-1.9803165E0,-1.3748829E-1,-2.8862245E0,-4.7275753E0,-3.5324154E0,-1.6449009E0,-4.6770396E0,-3.720139E0,-1.3998622E0,-4.7602545E-2,-2.0418547E-1,5.5898297E-1,-1.2922214E0,-2.0315516E0,7.6151475E-2,-6.6499513E-1,-2.8776696E0,-4.3140006E0,3.721848E0,-8.8212556E-1],"split_indices":[5,4,8,7,0,4,5,1,8,7,7,0,5,7,6,8,0,4,8,1,1,7,7,2,10,0,6,0,0,0,2,0,8,5,8,8,5,7,0,8,4,5,7,1,5,8,1,0,5,6,7,4,1,4,7,0,0,4,7,5,1,1,10,0,0,0,0,0,0,0,0,0,0,0,0,0,0,0,0,0,0,0,0,0,0,0,0,0,0,0,0,0,0,0,0,0,0,0,0,0,0,0,0,0,0,0,0,0,0,0,0,0,0,0,0,0,0,0,0,0,0],"split_type":[0,0,0,0,0,0,0,0,0,0,0,0,0,0,0,0,0,0,0,0,0,0,0,0,0,0,0,0,0,0,0,0,0,0,0,0,0,0,0,0,0,0,0,0,0,0,0,0,0,0,0,0,0,0,0,0,0,0,0,0,0,0,0,0,0,0,0,0,0,0,0,0,0,0,0,0,0,0,0,0,0,0,0,0,0,0,0,0,0,0,0,0,0,0,0,0,0,0,0,0,0,0,0,0,0,0,0,0,0,0,0,0,0,0,0,0,0,0,0,0,0],"sum_hessian":[1.43088E5,1.3131E5,1.1778E4,8.8827E4,4.2483E4,2.177E3,9.601E3,4.5405E4,4.3422E4,1.7352E4,2.5131E4,8.92E2,1.285E3,6.454E3,3.147E3,3.865E4,6.755E3,7.374E3,3.6048E4,5.987E3,1.1365E4,1.5601E4,9.53E3,6.4E1,8.28E2,7.01E2,5.84E2,3.5E1,6.419E3,2.476E3,6.71E2,5.1E3,3.355E4,3.282E3,3.473E3,3.045E3,4.329E3,2.2964E4,1.3084E4,5.35E2,5.452E3,2.04E2,1.1161E4,7.013E3,8.588E3,4.861E3,4.669E3,8E0,5.6E1,3.48E2,4.8E2,2.79E2,4.22E2,2.69E2,3.15E2,2.6E1,9E0,4.63E3,1.789E3,2.248E3,2.28E2,5.74E2,9.7E1,2.58E2,4.842E3,2.039E4,1.316E4,9.54E2,2.328E3,3.177E3,2.96E2,6.67E2,2.378E3,6.08E2,3.721E3,1.4238E4,8.726E3,2.955E3,1.0129E4,1.69E2,3.66E2,2.022E3,3.43E3,1.11E2,9.3E1,7.321E3,3.84E3,2.477E3,4.536E3,5.483E3,3.105E3,6.4E1,4.797E3,3.474E3,1.195E3,2.8E1,2.8E1,2.68E2,8E1,1.47E2,3.33E2,1.83E2,9.6E1,3.74E2,4.8E1,2.39E2,3E1,2.29E2,8.6E1,3.039E3,1.591E3,1.255E3,5.34E2,1.194E3,1.054E3,1.53E2,7.5E1,3.12E2,2.62E2,8E0,8.9E1],"tree_param":{"num_deleted":"0","num_feature":"13","num_nodes":"121","size_leaf_vector":"1"}},{"base_weights":[-9.455394E-3,1.892952E0,-4.2730022E1,-6.3810277E0,7.073338E0,-7.025687E1,-2.6355028E1,1.1215686E1,-8.158724E0,2.3472574E1,5.263936E0,-2.5497744E1,-7.917635E1,-3.5762048E0,-2.9819372E1,1.850747E1,4.8857894E0,-6.322193E0,-2.4476147E1,3.15357E1,1.8923834E1,-2.5630709E1,6.367637E0,-1.2253578E1,-4.7361473E1,-6.742919E1,-9.458466E1,-1.1622124E0,-7.308173E1,-3.307261E1,-3.7389848E0,3.4747746E1,1.5139846E1,1.2972925E1,7.166373E-1,-5.0962596E0,-2.409725E1,-1.8487946E1,-3.7657684E1,4.5452305E1,2.9636553E1,1.4683922E1,2.6635328E1,2.187393E-2,-3.3082775E1,8.320689E0,-5.450386E0,-2.0377972E1,-3.8179421E0,-3.7922092E1,-2.9713583E0,-4.9407097E1,-7.836742E1,-8.7948235E1,-1.22006775E2,5.0116024E0,-8.9812765E0,-4.51559E0,-1.3212318E0,-2.5448956E1,-4.520123E1,-1.0887777E1,4.7348166E0,2.249506E0,1.229443E0,4.1322884E-1,8.463065E-1,-7.7234703E-1,7.0996046E-1,-1.0046605E0,9.682937E-2,-1.1058598E0,-1.8682979E-1,-1.683575E0,-3.2980135E-1,-2.3305404E0,-6.5108126E-1,-1.630102E0,-3.9695492E0,3.002935E0,2.0437503E0,1.209696E0,1.640942E0,8.6608326E-1,2.5368115E-1,1.2144635E0,1.8804499E0,2.9971242E0,-8.74778E-2,-2.008934E0,-6.951103E-1,2.5411057E-1,8.243805E-1,-2.577827E-2,-9.013955E-1,-5.3575534E-1,-1.3631779E0,-6.234019E-2,-1.7403821E0,-6.208011E-1,-1.9873517E0,-2.0501485E0,-4.1312423E0,-4.0977645E0,-2.598056E0,-4.2101502E0,-5.690883E0,-6.6627955E0,-5.025321E0,1.4465418E0,1.5614726E-1,-1.6235338E0,-2.2957443E-1,-2.9099405E-1,-1.4251244E0,-3.841912E0,-2.0183434E0,-4.8352155E-1,-2.1614935E0,-3.966113E-1,4.4115207E-1],"categories":[],"categories_nodes":[],"categories_segments":[],"categories_sizes":[],"default_left":[0,0,0,0,0,0,0,0,0,0,0,0,0,0,0,0,0,0,0,0,0,0,0,0,0,0,0,0,0,0,0,0,0,0,0,0,0,0,0,0,0,0,0,0,0,0,0,0,0,0,0,0,0,0,0,0,0,0,0,0,0,0,0,0,0,0,0,0,0,0,0,0,0,0,0,0,0,0,0,0,0,0,0,0,0,0,0,0,0,0,0,0,0,0,0,0,0,0,0,0,0,0,0,0,0,0,0,0,0,0,0,0,0,0,0,0,0,0,0,0,0],"id":10,"left_children":[1,3,5,7,9,11,13,15,17,19,21,23,25,27,29,31,33,35,37,39,41,43,45,47,49,51,53,55,57,59,61,63,65,67,69,71,73,75,77,79,81,83,85,87,89,91,93,95,97,99,-1,101,103,105,107,109,111,-1,-1,113,115,117,119,-1,-1,-1,-1,-1,-1,-1,-1,-1,-1,-1,-1,-1,-1,-1,-1,-1,-1,-1,-1,-1,-1,-1,-1,-1,-1,-1,-1,-1,-1,-1,-1,-1,-1,-1,-1,-1,-1,-1,-1,-1,-1,-1,-1,-1,-1,-1,-1,-1,-1,-1,-1,-1,-1,-1,-1,-1,-1],"loss_changes":[1.1645701E7,5.880081E6,2.751782E6,1.6524175E6,2.5031905E6,9.07412E5,3.0228725E5,2.2362644E5,1.4375302E6,3.06862E5,2.5910295E6,1.0944911E5,3.37334E5,8.497504E4,2.820695E5,1.22633375E5,8.751736E4,9.395696E5,3.823635E5,7.8516E4,1.7492088E5,5.0104675E5,1.69333E6,1.6230969E4,1.40233125E4,2.092125E5,1.382945E5,2.374767E4,1.1268258E4,2.7225975E5,2.246582E4,3.90505E4,2.2786594E4,3.0992484E4,4.355037E4,9.335395E5,4.65929E5,5.1268675E5,3.1704825E5,2.1670688E4,4.530625E4,8.766981E4,4.80215E4,6.284248E4,2.7586225E5,1.665052E6,6.4580456E5,7.754742E3,9.355093E3,3.3646719E3,0E0,1.11337125E5,5.930025E4,5.46325E4,2.45555E4,1.2329633E4,2.2222834E4,0E0,0E0,1.08798E5,1.712435E5,7.490332E3,8.873646E3,0E0,0E0,0E0,0E0,0E0,0E0,0E0,0E0,0E0,0E0,0E0,0E0,0E0,0E0,0E0,0E0,0E0,0E0,0E0,0E0,0E0,0E0,0E0,0E0,0E0,0E0,0E0,0E0,0E0,0E0,0E0,0E0,0E0,0E0,0E0,0E0,0E0,0E0,0E0,0E0,0E0,0E0,0E0,0E0,0E0,0E0,0E0,0E0,0E0,0E0,0E0,0E0,0E0,0E0,0E0,0E0,0E0,0E0],"parents":[2147483647,0,0,1,1,2,2,3,3,4,4,5,5,6,6,7,7,8,8,9,9,10,10,11,11,12,12,13,13,14,14,15,15,16,16,17,17,18,18,19,19,20,20,21,21,22,22,23,23,24,24,25,25,26,26,27,27,28,28,29,29,30,30,31,31,32,32,33,33,34,34,35,35,36,36,37,37,38,38,39,39,40,40,41,41,42,42,43,43,44,44,45,45,46,46,47,47,48,48,49,49,51,51,52,52,53,53,54,54,55,55,56,56,59,59,60,60,61,61,62,62],"right_children":[2,4,6,8,10,12,14,16,18,20,22,24,26,28,30,32,34,36,38,40,42,44,46,48,50,52,54,56,58,60,62,64,66,68,70,72,74,76,78,80,82,84,86,88,90,92,94,96,98,100,-1,102,104,106,108,110,112,-1,-1,114,116,118,120,-1,-1,-1,-1,-1,-1,-1,-1,-1,-1,-1,-1,-1,-1,-1,-1,-1,-1,-1,-1,-1,-1,-1,-1,-1,-1,-1,-1,-1,-1,-1,-1,-1,-1,-1,-1,-1,-1,-1,-1,-1,-1,-1,-1,-1,-1,-1,-1,-1,-1,-1,-1,-1,-1,-1,-1,-1,-1],"split_conditions":[-5.523408E0,3.9164902E2,-7.8260815E-1,-6.818505E0,-6.8112054E0,4.975133E-1,-6.341174E-1,-7.3905435E0,6.750107E-1,-7.5065236E0,-8.703557E-1,-5.2312474E0,-8.606997E-3,-5.0395594E0,9.999167E-1,-8.3388585E-1,-2.1632576E-1,7.933533E-1,6.4944804E-1,4.3035382E-3,4.0883005E2,8.5207754E-1,6.8795395E-1,3.9022238E2,-5.0395594E0,-5.2312474E0,-5.130311E0,-7.99942E-3,-2.2888453E-1,1.91082E-1,3.991797E2,-4.9377555E-1,-5.160624E-1,-8.870108E-1,-9.0258527E-1,-7.489557E-1,-4.9002868E-1,-6.2251467E-1,1.4072622E-1,-8.146873E0,3.9998544E2,3.9255142E-1,8.5207754E-1,-8.5876393E-1,4.0952954E2,4.1222406E2,6.4944804E-1,-5.400788E0,4.897599E-1,-4.1015625E-1,-2.9713583E0,7.741432E-1,4.0822375E2,1.0625854E0,4.0035083E2,3.7536337E2,9.7499466E-1,-4.51559E0,-1.3212318E0,-6.672831E-1,-6.179962E-1,2.0383824E-1,-5.080619E-1,2.249506E0,1.229443E0,4.1322884E-1,8.463065E-1,-7.7234703E-1,7.0996046E-1,-1.0046605E0,9.682937E-2,-1.1058598E0,-1.8682979E-1,-1.683575E0,-3.2980135E-1,-2.3305404E0,-6.5108126E-1,-1.630102E0,-3.9695492E0,3.002935E0,2.0437503E0,1.209696E0,1.640942E0,8.6608326E-1,2.5368115E-1,1.2144635E0,1.8804499E0,2.9971242E0,-8.74778E-2,-2.008934E0,-6.951103E-1,2.5411057E-1,8.243805E-1,-2.577827E-2,-9.013955E-1,-5.3575534E-1,-1.3631779E0,-6.234019E-2,-1.7403821E0,-6.208011E-1,-1.9873517E0,-2.0501485E0,-4.1312423E0,-4.0977645E0,-2.598056E0,-4.2101502E0,-5.690883E0,-6.6627955E0,-5.025321E0,1.4465418E0,1.5614726E-1,-1.6235338E0,-2.2957443E-1,-2.9099405E-1,-1.4251244E0,-3.841912E0,-2.0183434E0,-4.8352155E-1,-2.1614935E0,-3.966113E-1,4.4115207E-1],"split_indices":[5,7,8,5,5,11,9,5,1,5,8,5,12,5,12,8,1,8,8,11,7,11,1,7,5,5,5,1,10,1,7,12,12,8,8,8,11,8,9,5,7,1,11,12,7,7,8,5,9,1,0,1,7,1,7,7,3,0,0,10,3,9,10,0,0,0,0,0,0,0,0,0,0,0,0,0,0,0,0,0,0,0,0,0,0,0,0,0,0,0,0,0,0,0,0,0,0,0,0,0,0,0,0,0,0,0,0,0,0,0,0,0,0,0,0,0,0,0,0,0,0],"split_type":[0,0,0,0,0,0,0,0,0,0,0,0,0,0,0,0,0,0,0,0,0,0,0,0,0,0,0,0,0,0,0,0,0,0,0,0,0,0,0,0,0,0,0,0,0,0,0,0,0,0,0,0,0,0,0,0,0,0,0,0,0,0,0,0,0,0,0,0,0,0,0,0,0,0,0,0,0,0,0,0,0,0,0,0,0,0,0,0,0,0,0,0,0,0,0,0,0,0,0,0,0,0,0,0,0,0,0,0,0,0,0,0,0,0,0,0,0,0,0,0,0],"sum_hessian":[1.43291E5,1.37183E5,6.108E3,5.282E4,8.4363E4,2.277E3,3.831E3,4.846E3,4.7974E4,8.382E3,7.5981E4,3.79E2,1.898E3,5.06E2,3.325E3,2.251E3,2.595E3,4.3122E4,4.852E3,3.021E3,5.361E3,2.62E3,7.3361E4,2.37E2,1.42E2,1.08E3,8.18E2,4.9E2,1.6E1,2.956E3,3.69E2,3.85E2,1.866E3,8.82E2,1.713E3,4.0341E4,2.781E3,3.338E3,1.514E3,3.6E2,2.661E3,3.461E3,1.9E3,5.9E2,2.03E3,6.2957E4,1.0404E4,1.2E2,1.17E2,8.2E1,6E1,4.1E2,6.7E2,6.62E2,1.56E2,2.74E2,2.16E2,1.1E1,5E0,1.817E3,1.139E3,2E2,1.69E2,1.9E2,1.95E2,3.86E2,1.48E3,3.6E1,8.46E2,9.4E1,1.619E3,2.983E3,3.7358E4,1.797E3,9.84E2,5.42E2,2.796E3,1.352E3,1.62E2,8.3E1,2.77E2,9.85E2,1.676E3,2.715E3,7.46E2,1.568E3,3.32E2,1.6E1,5.74E2,1.481E3,5.49E2,4.5082E4,1.7875E4,7.473E3,2.931E3,5.1E1,6.9E1,1.09E2,8E0,6E0,7.6E1,3.29E2,8.1E1,5.88E2,8.2E1,5.82E2,8E1,9.9E1,5.7E1,1.9E1,2.55E2,3.3E1,1.83E2,2.45E2,1.572E3,1.49E2,9.9E2,1.94E2,6E0,4.1E1,1.28E2],"tree_param":{"num_deleted":"0","num_feature":"13","num_nodes":"121","size_leaf_vector":"1"}},{"base_weights":[5.818399E-2,2.8854039E0,-2.6025595E1,-1.5911838E0,1.1922459E1,-6.642575E1,-1.798357E1,1.5345311E1,-3.3484325E0,2.6937159E1,1.0387162E1,-5.3335625E1,-8.4010796E1,-1.232302E1,-3.3215023E1,4.7500023E1,1.3972835E1,3.434927E0,-6.635321E0,2.3628004E1,3.4042824E1,1.1868017E1,-5.415589E0,-9.196269E0,-5.8516327E1,-7.372573E1,-1.0612937E2,-2.7711985E1,-5.61898E0,-2.7557705E1,-5.7399445E1,2.965022E1,5.3941685E1,1.9512424E1,8.866848E0,-4.259695E0,7.3024693E0,-4.3961754E0,-1.6339268E1,2.9432024E1,2.0240328E1,3.852927E1,2.5314545E1,-9.172768E-1,1.3678613E1,-2.1996881E1,9.1942203E-1,2.9583874E0,-4.753764E1,-4.545272E1,-7.007685E1,-8.673287E1,-6.455664E1,-9.720011E1,-1.26327286E2,1.318259E0,-3.7150528E1,-2.2921106E1,6.4355695E-1,-3.0246588E1,-3.9785056E0,-6.43246E1,-8.341326E0,-6.902985E-1,1.7628034E0,2.1355388E0,2.987472E0,7.0363826E-1,1.2237595E0,8.036623E-1,2.1992905E-1,1.0519984E0,-4.803748E-1,-3.389007E-1,5.6956106E-1,-9.3150234E-1,-1.14143364E-1,-1.400144E0,2.1765964E-1,3.99205E-1,1.5255873E0,1.0411774E0,-7.767336E-1,2.5519824E0,1.7908386E0,1.3696754E0,3.4815544E-1,8.395037E-1,-3.4529012E-1,3.2913074E-1,8.443536E-1,-2.4819963E-1,-2.2147105E0,-1.2054877E0,3.1574866E-1,1.1599175E0,-1.5497196E-1,-1.6335659E0,-2.7078469E0,-1.9371761E0,-4.1323085E0,-2.4164808E0,-3.9300427E0,-4.7099113E0,-3.5474374E0,-2.778179E0,-3.8286386E0,-4.1502337E0,-5.2359095E0,-4.6154795E0,-6.61365E0,7.557091E-1,-3.350432E-1,-8.028425E0,-1.7664217E0,-3.6471787E-1,-2.2893147E0,-2.240691E-1,4.5981652E-1,-1.2733546E0,-2.07483E0,-6.934022E-2,-1.4296016E0,-2.586407E0,-3.9312885E0,-7.605793E-1,3.0278573E0],"categories":[],"categories_nodes":[],"categories_segments":[],"categories_sizes":[],"default_left":[0,0,0,0,0,0,0,0,0,0,0,0,0,0,0,0,0,0,0,0,0,0,0,0,0,0,0,0,0,0,0,0,0,0,0,0,0,0,0,0,0,0,0,0,0,0,0,0,0,0,0,0,0,0,0,0,0,0,0,0,0,0,0,0,0,0,0,0,0,0,0,0,0,0,0,0,0,0,0,0,0,0,0,0,0,0,0,0,0,0,0,0,0,0,0,0,0,0,0,0,0,0,0,0,0,0,0,0,0,0,0,0,0,0,0,0,0,0,0,0,0,0,0,0,0,0,0],"id":11,"left_children":[1,3,5,7,9,11,13,15,17,19,21,23,25,27,29,31,33,35,37,39,41,43,45,47,49,51,53,55,57,59,61,63,65,67,69,71,73,75,77,79,81,83,85,87,89,91,93,95,97,99,101,103,105,107,109,111,113,115,117,119,121,123,125,-1,-1,-1,-1,-1,-1,-1,-1,-1,-1,-1,-1,-1,-1,-1,-1,-1,-1,-1,-1,-1,-1,-1,-1,-1,-1,-1,-1,-1,-1,-1,-1,-1,-1,-1,-1,-1,-1,-1,-1,-1,-1,-1,-1,-1,-1,-1,-1,-1,-1,-1,-1,-1,-1,-1,-1,-1,-1,-1,-1,-1,-1,-1,-1],"loss_changes":[1.0526596E7,5.210039E6,4.534063E6,2.5632415E6,9.831615E5,5.28857E5,1.003427E6,3.5661938E5,1.7397692E6,9.223375E4,9.058465E5,3.0381825E5,2.166915E5,8.757391E5,4.2993625E5,3.6451438E4,2.1948612E5,7.579704E5,1.1420002E6,5.2546E4,4.816275E4,8.19257E5,3.4844888E5,6.585478E4,1.76671E5,7.5127E4,4.37885E4,7.05885E5,6.40938E5,1.6205788E5,2.0227825E5,2.241368E4,1.32225625E4,1.00183875E5,1.3011231E5,1.1529362E6,9.759163E5,1.2846356E6,2.3783755E6,2.2771375E4,3.6002625E4,2.6226875E4,1.6173E4,4.6574062E5,7.056695E5,3.480407E5,3.243964E5,1.33158125E4,1.5676953E3,1.3702625E5,1.1297375E5,2.594025E4,3.9065E4,1.4768E4,6.375375E3,7.013167E4,4.31473E5,5.613497E5,1.904498E5,1.22391E5,1.6734355E4,9.0135E4,3.6417918E4,0E0,0E0,0E0,0E0,0E0,0E0,0E0,0E0,0E0,0E0,0E0,0E0,0E0,0E0,0E0,0E0,0E0,0E0,0E0,0E0,0E0,0E0,0E0,0E0,0E0,0E0,0E0,0E0,0E0,0E0,0E0,0E0,0E0,0E0,0E0,0E0,0E0,0E0,0E0,0E0,0E0,0E0,0E0,0E0,0E0,0E0,0E0,0E0,0E0,0E0,0E0,0E0,0E0,0E0,0E0,0E0,0E0,0E0,0E0,0E0,0E0,0E0,0E0,0E0],"parents":[2147483647,0,0,1,1,2,2,3,3,4,4,5,5,6,6,7,7,8,8,9,9,10,10,11,11,12,12,13,13,14,14,15,15,16,16,17,17,18,18,19,19,20,20,21,21,22,22,23,23,24,24,25,25,26,26,27,27,28,28,29,29,30,30,31,31,32,32,33,33,34,34,35,35,36,36,37,37,38,38,39,39,40,40,41,41,42,42,43,43,44,44,45,45,46,46,47,47,48,48,49,49,50,50,51,51,52,52,53,53,54,54,55,55,56,56,57,57,58,58,59,59,60,60,61,61,62,62],"right_children":[2,4,6,8,10,12,14,16,18,20,22,24,26,28,30,32,34,36,38,40,42,44,46,48,50,52,54,56,58,60,62,64,66,68,70,72,74,76,78,80,82,84,86,88,90,92,94,96,98,100,102,104,106,108,110,112,114,116,118,120,122,124,126,-1,-1,-1,-1,-1,-1,-1,-1,-1,-1,-1,-1,-1,-1,-1,-1,-1,-1,-1,-1,-1,-1,-1,-1,-1,-1,-1,-1,-1,-1,-1,-1,-1,-1,-1,-1,-1,-1,-1,-1,-1,-1,-1,-1,-1,-1,-1,-1,-1,-1,-1,-1,-1,-1,-1,-1,-1,-1,-1,-1,-1,-1,-1,-1],"split_conditions":[-5.8343925E0,4.040797E2,-8.616292E-1,-6.840427E0,-6.818505E0,9.998518E-1,-5.400788E0,-1.8212223E0,-2.895851E-1,8.5207754E-1,9.4780064E-1,4.975133E-1,-5.276094E0,-5.049611E-1,4.2849302E-1,-8.9493436E-1,-7.3905435E0,-4.9377555E-1,6.2251467E-1,-7.1967196E0,9.897226E0,-5.9482276E-1,-4.9377555E-1,-5.2312474E0,-5.320156E0,-9.238795E-1,-5.0395594E0,6.755902E-1,-6.2251467E-1,2.0254171E1,3.4273075E1,-3.303604E-1,3.897839E2,3.881023E2,-1.8040144E-1,8.726535E-3,-2.1643962E-1,-6.3607824E-1,1.7213356E-2,-9.304176E-1,9.426415E-1,3.265845E1,1.277523E0,1.7213356E-2,-4.9377555E-1,6.3607824E-1,-5.51937E-1,-5.56053E0,3.174634E-1,8.60548E-1,-8.030146E-1,4.0035083E2,3.8847575E0,-1.1230278E-1,-8.030146E-1,-3.9488602E-1,3.7457556E2,-8.606997E-3,4.0388007E2,-5.185451E0,3.665012E-1,4.073658E-1,5.2707773E-1,-6.902985E-1,1.7628034E0,2.1355388E0,2.987472E0,7.0363826E-1,1.2237595E0,8.036623E-1,2.1992905E-1,1.0519984E0,-4.803748E-1,-3.389007E-1,5.6956106E-1,-9.3150234E-1,-1.14143364E-1,-1.400144E0,2.1765964E-1,3.99205E-1,1.5255873E0,1.0411774E0,-7.767336E-1,2.5519824E0,1.7908386E0,1.3696754E0,3.4815544E-1,8.395037E-1,-3.4529012E-1,3.2913074E-1,8.443536E-1,-2.4819963E-1,-2.2147105E0,-1.2054877E0,3.1574866E-1,1.1599175E0,-1.5497196E-1,-1.6335659E0,-2.7078469E0,-1.9371761E0,-4.1323085E0,-2.4164808E0,-3.9300427E0,-4.7099113E0,-3.5474374E0,-2.778179E0,-3.8286386E0,-4.1502337E0,-5.2359095E0,-4.6154795E0,-6.61365E0,7.557091E-1,-3.350432E-1,-8.028425E0,-1.7664217E0,-3.6471787E-1,-2.2893147E0,-2.240691E-1,4.5981652E-1,-1.2733546E0,-2.07483E0,-6.934022E-2,-1.4296016E0,-2.586407E0,-3.9312885E0,-7.605793E-1,3.0278573E0],"split_indices":[5,7,8,5,5,11,5,0,1,11,1,11,5,11,6,8,5,12,8,5,0,8,12,5,5,8,5,8,8,0,2,1,7,7,1,8,8,8,12,8,8,2,1,12,12,8,8,5,6,1,0,7,0,1,0,1,7,12,7,5,8,1,11,0,0,0,0,0,0,0,0,0,0,0,0,0,0,0,0,0,0,0,0,0,0,0,0,0,0,0,0,0,0,0,0,0,0,0,0,0,0,0,0,0,0,0,0,0,0,0,0,0,0,0,0,0,0,0,0,0,0,0,0,0,0,0,0],"split_type":[0,0,0,0,0,0,0,0,0,0,0,0,0,0,0,0,0,0,0,0,0,0,0,0,0,0,0,0,0,0,0,0,0,0,0,0,0,0,0,0,0,0,0,0,0,0,0,0,0,0,0,0,0,0,0,0,0,0,0,0,0,0,0,0,0,0,0,0,0,0,0,0,0,0,0,0,0,0,0,0,0,0,0,0,0,0,0,0,0,0,0,0,0,0,0,0,0,0,0,0,0,0,0,0,0,0,0,0,0,0,0,0,0,0,0,0,0,0,0,0,0,0,0,0,0,0,0],"sum_hessian":[1.42742E5,1.28784E5,1.3958E4,8.6123E4,4.2661E4,2.316E3,1.1642E4,8.095E3,7.8028E4,3.956E3,3.8705E4,1.33E3,9.86E2,8.489E3,3.153E3,3.3E2,7.765E3,2.5468E4,5.256E4,2.702E3,1.254E3,3.5389E4,3.316E3,1.4E2,1.19E3,6.76E2,3.1E2,2.575E3,5.914E3,2.557E3,5.96E2,8.9E1,2.41E2,3.723E3,4.042E3,8.519E3,1.6949E4,4.2707E4,9.853E3,9.93E2,1.709E3,8.26E2,4.28E2,4.39E3,3.0999E4,9.16E2,2.4E3,1.07E2,3.3E1,5.61E2,6.29E2,2.76E2,4E2,2.19E2,9.1E1,6.32E2,1.943E3,1.571E3,4.343E3,2.295E3,2.62E2,5.22E2,7.4E1,1E1,7.9E1,8.5E1,1.56E2,1.778E3,1.945E3,1.546E3,2.496E3,1.486E3,7.033E3,3.814E3,1.3135E4,5.52E3,3.7187E4,6.301E3,3.552E3,4.8E1,9.45E2,1.682E3,2.7E1,1.44E2,6.82E2,3.84E2,4.4E1,1.109E3,3.281E3,9.653E3,2.1346E4,5.2E2,3.96E2,4.25E2,1.975E3,2.4E1,8.3E1,1.2E1,2.1E1,4.77E2,8.4E1,1.79E2,4.5E2,1.84E2,9.2E1,2.32E2,1.68E2,8E1,1.39E2,1.6E1,7.5E1,2.32E2,4E2,2.7E1,1.916E3,9.34E2,6.37E2,2.716E3,1.627E3,1.613E3,6.82E2,2.38E2,2.4E1,2.8E2,2.42E2,6.8E1,6E0],"tree_param":{"num_deleted":"0","num_feature":"13","num_nodes":"127","size_leaf_vector":"1"}},{"base_weights":[2.678513E-2,-6.8395667E0,8.076084E0,-2.716444E1,-3.0399709E0,1.267212E0,1.3121715E1,-4.9769253E1,-1.9244316E1,2.149619E0,-1.4330891E1,-2.2341022E0,8.164562E0,2.5676317E1,1.1324542E1,-7.449875E1,-3.963838E1,-1.3830238E1,-4.7368523E1,-2.5992022E0,1.1779959E1,1.7912287E0,-1.9129381E1,1.8750486E0,-7.0622854E0,1.3971359E1,3.8881762E0,4.495355E1,2.2150896E1,9.511558E0,2.2707712E1,-3.25287E1,-8.129206E1,-3.0093948E1,-5.8892807E1,-1.9004477E1,-1.1299179E0,1.8791628E1,-5.04849E1,-7.794383E0,-1.8408406E-1,9.385771E0,1.9425257E1,-1.1351357E1,8.336804E0,-2.5135946E1,-6.6082225E0,3.7645535E1,1.1841577E0,-6.6110415E0,-7.0688644E1,1.8535154E1,7.451026E0,1.0703971E0,1.1293482E1,3.9307106E1,6.237205E1,1.96266E1,3.2510147E1,2.1893595E1,8.222809E0,2.5271933E1,1.4708704E1,1.4402813E0,-2.0123422E0,-2.2978098E0,-4.4080024E0,-1.9005489E0,-9.6580786E-1,-3.1536653E0,-1.4745479E0,1.0171877E0,-1.0646476E0,1.4747256E-1,-1.0345422E0,-8.5595286E-1,1.4395512E0,-2.255719E0,-3.7655818E0,2.5593316E-2,-4.7822008E-1,-2.549566E-1,6.887714E-2,8.528323E-1,4.197112E-1,8.3394355E-1,1.3923044E0,8.364316E-1,-6.7153853E-1,9.0158266E-1,-2.6966628E-1,-1.6427094E0,-8.4379274E-1,-4.5703053E-1,1.5230223E0,2.0885475E0,-8.3820425E-2,1.0273451E0,1.12949265E-2,-4.989781E-1,-1.6992675E-1,-2.0923403E-1,-3.8328278E0,1.0108312E0,-2.1496141E-1,1.870397E0,3.3886644E-1,1.5775805E0,1.2528797E-2,6.156321E-1,-2.5759336E-1,1.5798117E0,2.5262687E0,3.355375E0,1.2187002E-1,2.8749347E0,9.3275577E-1,1.6983756E0,7.6684755E-1,1.4730839E0,6.8281096E-1,9.813518E-1,3.456452E-1,1.079279E0,1.4147605E0,4.7741976E-1,9.259476E-1],"categories":[],"categories_nodes":[],"categories_segments":[],"categories_sizes":[],"default_left":[0,0,0,0,0,0,0,0,0,0,0,0,0,0,0,0,0,0,0,0,0,0,0,0,0,0,0,0,0,0,0,0,0,0,0,0,0,0,0,0,0,0,0,0,0,0,0,0,0,0,0,0,0,0,0,0,0,0,0,0,0,0,0,0,0,0,0,0,0,0,0,0,0,0,0,0,0,0,0,0,0,0,0,0,0,0,0,0,0,0,0,0,0,0,0,0,0,0,0,0,0,0,0,0,0,0,0,0,0,0,0,0,0,0,0,0,0,0,0,0,0,0,0,0,0,0,0],"id":12,"left_children":[1,3,5,7,9,11,13,15,17,19,21,23,25,27,29,31,33,35,37,39,41,43,45,47,49,51,53,55,57,59,61,63,65,67,69,71,73,75,77,79,81,83,85,87,89,91,93,95,97,99,101,103,105,107,109,111,113,115,117,119,121,123,125,-1,-1,-1,-1,-1,-1,-1,-1,-1,-1,-1,-1,-1,-1,-1,-1,-1,-1,-1,-1,-1,-1,-1,-1,-1,-1,-1,-1,-1,-1,-1,-1,-1,-1,-1,-1,-1,-1,-1,-1,-1,-1,-1,-1,-1,-1,-1,-1,-1,-1,-1,-1,-1,-1,-1,-1,-1,-1,-1,-1,-1,-1,-1,-1],"loss_changes":[7.8936195E6,5.9520545E6,2.2587235E6,2.172316E6,3.8049725E6,6.7585075E5,8.51744E5,7.859595E5,1.3683685E6,2.0346362E6,1.581931E6,3.6829875E5,2.3393681E5,3.2031425E5,6.81562E5,2.57939E5,4.09134E5,4.955295E5,3.0011925E5,3.7385994E5,2.6875975E5,4.036413E5,1.1849765E6,2.4780331E5,2.445734E5,1.1877019E5,1.1325012E5,6.93355E4,1.0392975E5,4.54585E5,9.270425E4,6.222739E4,1.86687E5,1.2699625E5,8.908725E4,4.8290688E5,1.7433778E5,2.4193664E4,1.81389E5,1.3902994E5,1.5614181E5,8.4973375E4,8.0544375E4,9.131261E4,4.1700384E5,6.78351E5,4.7996356E5,3.0895719E4,1.825698E5,9.1686875E4,2.34845E4,9.031744E4,3.2981625E4,9.827122E4,2.5137766E4,4.6317812E4,5.0065188E4,1.17317125E5,1.9045688E4,1.6704162E5,3.8548275E5,3.766675E4,2.1527266E4,0E0,0E0,0E0,0E0,0E0,0E0,0E0,0E0,0E0,0E0,0E0,0E0,0E0,0E0,0E0,0E0,0E0,0E0,0E0,0E0,0E0,0E0,0E0,0E0,0E0,0E0,0E0,0E0,0E0,0E0,0E0,0E0,0E0,0E0,0E0,0E0,0E0,0E0,0E0,0E0,0E0,0E0,0E0,0E0,0E0,0E0,0E0,0E0,0E0,0E0,0E0,0E0,0E0,0E0,0E0,0E0,0E0,0E0,0E0,0E0,0E0,0E0,0E0,0E0],"parents":[2147483647,0,0,1,1,2,2,3,3,4,4,5,5,6,6,7,7,8,8,9,9,10,10,11,11,12,12,13,13,14,14,15,15,16,16,17,17,18,18,19,19,20,20,21,21,22,22,23,23,24,24,25,25,26,26,27,27,28,28,29,29,30,30,31,31,32,32,33,33,34,34,35,35,36,36,37,37,38,38,39,39,40,40,41,41,42,42,43,43,44,44,45,45,46,46,47,47,48,48,49,49,50,50,51,51,52,52,53,53,54,54,55,55,56,56,57,57,58,58,59,59,60,60,61,61,62,62],"right_children":[2,4,6,8,10,12,14,16,18,20,22,24,26,28,30,32,34,36,38,40,42,44,46,48,50,52,54,56,58,60,62,64,66,68,70,72,74,76,78,80,82,84,86,88,90,92,94,96,98,100,102,104,106,108,110,112,114,116,118,120,122,124,126,-1,-1,-1,-1,-1,-1,-1,-1,-1,-1,-1,-1,-1,-1,-1,-1,-1,-1,-1,-1,-1,-1,-1,-1,-1,-1,-1,-1,-1,-1,-1,-1,-1,-1,-1,-1,-1,-1,-1,-1,-1,-1,-1,-1,-1,-1,-1,-1,-1,-1,-1,-1,-1,-1,-1,-1,-1,-1,-1,-1,-1,-1,-1,-1],"split_conditions":[1.5208813E0,-5.9482276E-1,3.9412207E2,1.2462862E0,6.2251467E-1,1.9006104E0,-5.8966637E-1,-9.238795E-1,2.5909996E-1,4.0388007E2,-6.351242E-1,1.754418E-2,-1.5682602E-1,-5.1452637E-1,2.1964605E0,-2.8537655E-1,1.2543917E-1,4.0675653E2,5.123714E-1,3.8401797E2,4.1816013E2,3.9083017E2,1.259051E0,-8.030146E-1,6.8754625E-1,1.6086021E1,2.2892518E0,1.1881761E-1,2.055317E0,-3.9915466E-1,1.6535109E1,9.5255655E-1,-8.030146E-1,4.0076596E2,-7.1325046E-1,4.975133E-1,3.9978313E-1,-4.167675E-1,7.585926E-1,-5.5897903E-1,-2.2773743E-2,-5.690479E-1,8.2033205E-1,-2.6351852E0,7.8260815E-1,3.9758936E2,4.975133E-1,-6.6357097E-3,-1.355093E0,1.6896609E0,1.343134E0,9.238795E-1,-8.459573E-1,1.343134E0,3.61763E-1,4.1404633E2,1.1398229E1,-8.2008845E-1,9.170601E-1,1.1529616E1,-5.049611E-1,4.0546274E2,4.0423502E2,1.4402813E0,-2.0123422E0,-2.2978098E0,-4.4080024E0,-1.9005489E0,-9.6580786E-1,-3.1536653E0,-1.4745479E0,1.0171877E0,-1.0646476E0,1.4747256E-1,-1.0345422E0,-8.5595286E-1,1.4395512E0,-2.255719E0,-3.7655818E0,2.5593316E-2,-4.7822008E-1,-2.549566E-1,6.887714E-2,8.528323E-1,4.197112E-1,8.3394355E-1,1.3923044E0,8.364316E-1,-6.7153853E-1,9.0158266E-1,-2.6966628E-1,-1.6427094E0,-8.4379274E-1,-4.5703053E-1,1.5230223E0,2.0885475E0,-8.3820425E-2,1.0273451E0,1.12949265E-2,-4.989781E-1,-1.6992675E-1,-2.0923403E-1,-3.8328278E0,1.0108312E0,-2.1496141E-1,1.870397E0,3.3886644E-1,1.5775805E0,1.2528797E-2,6.156321E-1,-2.5759336E-1,1.5798117E0,2.5262687E0,3.355375E0,1.2187002E-1,2.8749347E0,9.3275577E-1,1.6983756E0,7.6684755E-1,1.4730839E0,6.8281096E-1,9.813518E-1,3.456452E-1,1.079279E0,1.4147605E0,4.7741976E-1,9.259476E-1],"split_indices":[4,8,7,4,8,4,1,8,6,7,1,1,1,3,4,6,6,7,11,7,7,7,4,0,6,0,4,9,4,3,0,4,0,7,8,11,1,9,1,1,3,1,10,1,8,7,11,9,1,4,0,8,10,0,6,7,0,10,8,0,11,7,7,0,0,0,0,0,0,0,0,0,0,0,0,0,0,0,0,0,0,0,0,0,0,0,0,0,0,0,0,0,0,0,0,0,0,0,0,0,0,0,0,0,0,0,0,0,0,0,0,0,0,0,0,0,0,0,0,0,0,0,0,0,0,0,0],"split_type":[0,0,0,0,0,0,0,0,0,0,0,0,0,0,0,0,0,0,0,0,0,0,0,0,0,0,0,0,0,0,0,0,0,0,0,0,0,0,0,0,0,0,0,0,0,0,0,0,0,0,0,0,0,0,0,0,0,0,0,0,0,0,0,0,0,0,0,0,0,0,0,0,0,0,0,0,0,0,0,0,0,0,0,0,0,0,0,0,0,0,0,0,0,0,0,0,0,0,0,0,0,0,0,0,0,0,0,0,0,0,0,0,0,0,0,0,0,0,0,0,0,0,0,0,0,0,0],"sum_hessian":[1.42819E5,7.7073E4,6.5746E4,1.2138E4,6.4935E4,2.7984E4,3.7762E4,3.148E3,8.99E3,4.4488E4,2.0447E4,1.8562E4,9.422E3,4.727E3,3.3035E4,9.13E2,2.235E3,7.54E3,1.45E3,2.9796E4,1.4692E4,4.69E3,1.5757E4,1.0028E4,8.534E3,3.995E3,5.427E3,7.29E2,3.998E3,2.8498E4,4.537E3,1.28E2,7.85E2,1.496E3,7.39E2,5.357E3,2.183E3,6.5E1,1.385E3,9.455E3,2.0341E4,1.119E4,3.502E3,1.559E3,3.131E3,1.0648E4,5.109E3,1.89E2,9.839E3,8.475E3,5.9E1,2.349E3,1.646E3,3.932E3,1.495E3,5.53E2,1.76E2,3.217E3,7.81E2,2.685E3,2.5813E4,3.434E3,1.103E3,1.4E1,1.14E2,1.29E2,6.56E2,8.61E2,6.35E2,6.46E2,9.3E1,2.94E2,5.063E3,1.807E3,3.76E2,1.4E1,5.1E1,1.141E3,2.44E2,1.661E3,7.794E3,4.904E3,1.5437E4,1.279E3,9.911E3,2.643E3,8.59E2,1.07E2,1.452E3,1.835E3,1.296E3,5.503E3,5.145E3,4.783E3,3.26E2,1.71E2,1.8E1,4.63E2,9.376E3,4.136E3,4.339E3,5E0,5.4E1,2.188E3,1.61E2,3.5E1,1.611E3,1.02E2,3.83E3,1.408E3,8.7E1,3.3E2,2.23E2,1.63E2,1.3E1,7.9E1,3.138E3,7.19E2,6.2E1,1.398E3,1.287E3,2.658E3,2.3155E4,1.551E3,1.883E3,4.7E2,6.33E2],"tree_param":{"num_deleted":"0","num_feature":"13","num_nodes":"127","size_leaf_vector":"1"}},{"base_weights":[2.3640618E-2,2.6511333E0,-2.4204475E1,-1.5568732E0,1.1874312E1,-6.0391926E1,-1.7045628E1,-7.847462E0,4.977654E0,8.730694E0,2.0944191E1,-4.8221546E1,-7.639499E1,-1.170132E1,-3.1266542E1,-5.319677E0,-1.6680548E1,2.355545E0,1.3358166E1,6.1486855E0,1.7223207E1,1.1105911E1,2.6043776E1,-9.349537E0,-5.319358E1,-9.886638E1,-6.667768E1,-2.5793081E1,-5.513681E0,-4.5775913E1,-2.3268997E1,-9.785663E0,-2.574185E0,-1.2553689E1,-2.5532799E1,3.2458928E0,-1.9099087E1,1.652603E1,4.1826434E0,1.4806167E1,3.0532153E0,2.7023642E1,1.5576526E1,1.3629527E0,1.3178664E1,3.801761E1,2.3543634E1,8.114874E-1,-4.404337E1,-4.4963337E1,-7.003364E1,-6.711341E1,-1.0625996E2,-4.175229E1,-7.199861E1,-1.05323605E-1,-3.414051E1,-2.1508595E1,2.803638E-1,-3.2856804E1,-5.9533794E1,-8.594061E0,-2.8237885E1,-3.2459107E-1,-8.2623196E-1,-5.958788E-1,-3.2671083E-2,-1.4219179E0,-3.9413464E-1,-1.6848878E0,-6.8568677E-1,-8.949546E-1,2.0564012E-1,-3.541249E-1,-1.5589E0,2.7449673E-1,9.2195E-1,3.0244648E-1,-1.4807214E0,1.4739635E0,4.5482692E-1,5.724109E-2,5.584639E-1,1.6971213E0,9.135727E-1,1.0547962E0,6.3998586E-1,-8.531045E-2,4.9465743E-1,9.75863E-1,5.5124456E-1,2.248237E0,1.1841892E0,7.317136E-1,1.2776024E0,9.946845E-1,-2.4290419E-1,-2.6879392E0,-1.4073299E0,-1.8791027E0,-3.5503938E0,-1.8533325E0,-3.7631626E0,2.5078753E-2,-3.66926E0,-5.528482E0,-2.8023088E0,-2.152929E0,-1.2927412E0,-3.3986185E0,-4.6564646E0,1.0060648E0,-2.5019738E-1,-7.6359725E0,-1.6135914E0,3.626276E-1,-1.5641179E0,2.60043E-1,-3.560927E-1,-1.3865418E0,-2.5118678E0,-2.434405E0,-3.6043174E0,-7.203383E-1,1.2554575E0,-1.1540664E0,-2.0150898E0],"categories":[],"categories_nodes":[],"categories_segments":[],"categories_sizes":[],"default_left":[0,0,0,0,0,0,0,0,0,0,0,0,0,0,0,0,0,0,0,0,0,0,0,0,0,0,0,0,0,0,0,0,0,0,0,0,0,0,0,0,0,0,0,0,0,0,0,0,0,0,0,0,0,0,0,0,0,0,0,0,0,0,0,0,0,0,0,0,0,0,0,0,0,0,0,0,0,0,0,0,0,0,0,0,0,0,0,0,0,0,0,0,0,0,0,0,0,0,0,0,0,0,0,0,0,0,0,0,0,0,0,0,0,0,0,0,0,0,0,0,0,0,0,0,0,0,0],"id":13,"left_children":[1,3,5,7,9,11,13,15,17,19,21,23,25,27,29,31,33,35,37,39,41,43,45,47,49,51,53,55,57,59,61,63,65,67,69,71,73,75,77,79,81,83,85,87,89,91,93,95,97,99,101,103,105,107,109,111,113,115,117,119,121,123,125,-1,-1,-1,-1,-1,-1,-1,-1,-1,-1,-1,-1,-1,-1,-1,-1,-1,-1,-1,-1,-1,-1,-1,-1,-1,-1,-1,-1,-1,-1,-1,-1,-1,-1,-1,-1,-1,-1,-1,-1,-1,-1,-1,-1,-1,-1,-1,-1,-1,-1,-1,-1,-1,-1,-1,-1,-1,-1,-1,-1,-1,-1,-1,-1],"loss_changes":[9.082574E6,4.9956415E6,3.615188E6,3.6334008E6,1.1496275E6,4.45233E5,8.85421E5,1.0054795E6,