{"learner":{"attributes":{"best_iteration":"499","best_score":"6.043438389516138","scikit_learn":"{\"_estimator_type\": \"regressor\"}"},"feature_names":[],"feature_types":[],"gradient_booster":{"model":{"gbtree_model_param":{"num_parallel_tree":"1","num_trees":"500"},"iteration_indptr":[0,1,2,3,4,5,6,7,8,9,10,11,12,13,14,15,16,17,18,19,20,21,22,23,24,25,26,27,28,29,30,31,32,33,34,35,36,37,38,39,40,41,42,43,44,45,46,47,48,49,50,51,52,53,54,55,56,57,58,59,60,61,62,63,64,65,66,67,68,69,70,71,72,73,74,75,76,77,78,79,80,81,82,83,84,85,86,87,88,89,90,91,92,93,94,95,96,97,98,99,100,101,102,103,104,105,106,107,108,109,110,111,112,113,114,115,116,117,118,119,120,121,122,123,124,125,126,127,128,129,130,131,132,133,134,135,136,137,138,139,140,141,142,143,144,145,146,147,148,149,150,151,152,153,154,155,156,157,158,159,160,161,162,163,164,165,166,167,168,169,170,171,172,173,174,175,176,177,178,179,180,181,182,183,184,185,186,187,188,189,190,191,192,193,194,195,196,197,198,199,200,201,202,203,204,205,206,207,208,209,210,211,212,213,214,215,216,217,218,219,220,221,222,223,224,225,226,227,228,229,230,231,232,233,234,235,236,237,238,239,240,241,242,243,244,245,246,247,248,249,250,251,252,253,254,255,256,257,258,259,260,261,262,263,264,265,266,267,268,269,270,271,272,273,274,275,276,277,278,279,280,281,282,283,284,285,286,287,288,289,290,291,292,293,294,295,296,297,298,299,300,301,302,303,304,305,306,307,308,309,310,311,312,313,314,315,316,317,318,319,320,321,322,323,324,325,326,327,328,329,330,331,332,333,334,335,336,337,338,339,340,341,342,343,344,345,346,347,348,349,350,351,352,353,354,355,356,357,358,359,360,361,362,363,364,365,366,367,368,369,370,371,372,373,374,375,376,377,378,379,380,381,382,383,384,385,386,387,388,389,390,391,392,393,394,395,396,397,398,399,400,401,402,403,404,405,406,407,408,409,410,411,412,413,414,415,416,417,418,419,420,421,422,423,424,425,426,427,428,429,430,431,432,433,434,435,436,437,438,439,440,441,442,443,444,445,446,447,448,449,450,451,452,453,454,455,456,457,458,459,460,461,462,463,464,465,466,467,468,469,470,471,472,473,474,475,476,477,478,479,480,481,482,483,484,485,486,487,488,489,490,491,492,493,494,495,496,497,498,499,500],"tree_info":[0,0,0,0,0,0,0,0,0,0,0,0,0,0,0,0,0,0,0,0,0,0,0,0,0,0,0,0,0,0,0,0,0,0,0,0,0,0,0,0,0,0,0,0,0,0,0,0,0,0,0,0,0,0,0,0,0,0,0,0,0,0,0,0,0,0,0,0,0,0,0,0,0,0,0,0,0,0,0,0,0,0,0,0,0,0,0,0,0,0,0,0,0,0,0,0,0,0,0,0,0,0,0,0,0,0,0,0,0,0,0,0,0,0,0,0,0,0,0,0,0,0,0,0,0,0,0,0,0,0,0,0,0,0,0,0,0,0,0,0,0,0,0,0,0,0,0,0,0,0,0,0,0,0,0,0,0,0,0,0,0,0,0,0,0,0,0,0,0,0,0,0,0,0,0,0,0,0,0,0,0,0,0,0,0,0,0,0,0,0,0,0,0,0,0,0,0,0,0,0,0,0,0,0,0,0,0,0,0,0,0,0,0,0,0,0,0,0,0,0,0,0,0,0,0,0,0,0,0,0,0,0,0,0,0,0,0,0,0,0,0,0,0,0,0,0,0,0,0,0,0,0,0,0,0,0,0,0,0,0,0,0,0,0,0,0,0,0,0,0,0,0,0,0,0,0,0,0,0,0,0,0,0,0,0,0,0,0,0,0,0,0,0,0,0,0,0,0,0,0,0,0,0,0,0,0,0,0,0,0,0,0,0,0,0,0,0,0,0,0,0,0,0,0,0,0,0,0,0,0,0,0,0,0,0,0,0,0,0,0,0,0,0,0,0,0,0,0,0,0,0,0,0,0,0,0,0,0,0,0,0,0,0,0,0,0,0,0,0,0,0,0,0,0,0,0,0,0,0,0,0,0,0,0,0,0,0,0,0,0,0,0,0,0,0,0,0,0,0,0,0,0,0,0,0,0,0,0,0,0,0,0,0,0,0,0,0,0,0,0,0,0,0,0,0,0,0,0,0,0,0,0,0,0,0,0,0,0,0,0,0,0,0,0,0,0,0,0,0,0,0,0,0,0,0,0,0,0,0,0,0,0,0,0,0,0,0,0,0,0,0,0,0,0,0,0,0,0,0,0,0,0,0,0,0,0,0,0,0,0,0,0,0,0,0,0,0,0,0,0],"trees":[{"base_weights":[3.214166E-2,-7.6668196E0,8.077504E0,-1.1410349E1,-3.887556E0,8.595857E0,-3.1850822E1,-1.1199755E1,-6.452396E1,-3.6445756E0,-4.688403E1,5.645327E0,1.3716654E1,-5.495143E1,-2.1663671E1,-1.0646601E1,-2.7262669E1,-4.3804028E1,-8.4642456E1,4.696535E-1,-5.255844E0,-3.7223434E1,-1.0021566E2,1.1368255E1,3.9567533E0,7.186574E0,1.5873735E1,-2.6127031E1,-7.8989075E1,-2.9428324E1,-1.4538946E1,-6.64986E0,-1.1982035E1,-1.4800535E1,-3.500707E1,-4.72367E1,-8.550634E-1,-2.2645125E0,-9.08922E1,7.0402975E0,-2.2411158E0,-8.399341E0,-3.1269119E0,-4.5892895E1,-3.0330341E1,-5.5015377E1,-6.1160026E0,2.1653538E1,6.8030777E0,1.1473099E0,5.8806295E0,-6.369109E0,9.756586E0,1.871438E1,1.2464234E1,-2.9983434E-1,-2.7610731E1,-5.914368E1,-8.641065E1,-1.8640944E1,-3.548635E1,-2.1315958E1,-1.0665817E1,-1.0827508E-1,-4.272773E-1,-1.0461434E0,-5.6703967E-1,-5.496444E-1,-1.0323786E0,-2.2254465E0,-1.1656202E0,-2.487804E0,-1.7248911E0,-4.9453764E0,-3.7037976E0,5.6862324E-1,1.644159E-1,2.7945474E-2,-1.7964934E-1,-1.0805017E0,-3.717718E-1,-1.336616E-1,-9.3893784E-1,-2.5221336E0,-1.2836168E0,-1.6615155E0,-1.0990552E0,-1.7318039E0,-3.230486E0,1.4551626E0,5.8455247E-1,2.4999583E-1,8.421135E-1,-6.96097E-2,3.483831E-1,9.850347E-2,3.980616E-1,4.9485946E-1,-7.5182945E-1,3.6771095E-1,8.101077E-1,7.543012E-1,1.0919727E0,6.5578717E-1,-1.0346135E-1,-1.1422111E0,-1.6511768E0,-1.6474133E0,-3.1603186E0,-3.2862408E0,-4.8653293E0,5.7777744E-2,-1.020871E0,-2.211724E0,-1.4249225E0,-6.378962E-1,-1.3266279E0,8.586257E-2,-5.912065E-1],"categories":[],"categories_nodes":[],"categories_segments":[],"categories_sizes":[],"default_left":[0,0,0,0,0,0,0,0,0,0,0,0,0,0,0,0,0,0,0,0,0,0,0,0,0,0,0,0,0,0,0,0,0,0,0,0,0,0,0,0,0,0,0,0,0,0,0,0,0,0,0,0,0,0,0,0,0,0,0,0,0,0,0,0,0,0,0,0,0,0,0,0,0,0,0,0,0,0,0,0,0,0,0,0,0,0,0,0,0,0,0,0,0,0,0,0,0,0,0,0,0,0,0,0,0,0,0,0,0,0,0,0,0,0,0,0,0,0,0],"id":0,"left_children":[1,3,5,7,9,11,13,15,17,19,21,23,25,27,29,31,33,35,37,39,41,43,45,47,49,51,53,55,57,59,61,63,65,67,69,71,-1,-1,73,75,77,79,81,83,85,87,-1,89,91,93,95,97,99,101,103,-1,105,107,109,111,113,115,117,-1,-1,-1,-1,-1,-1,-1,-1,-1,-1,-1,-1,-1,-1,-1,-1,-1,-1,-1,-1,-1,-1,-1,-1,-1,-1,-1,-1,-1,-1,-1,-1,-1,-1,-1,-1,-1,-1,-1,-1,-1,-1,-1,-1,-1,-1,-1,-1,-1,-1,-1,-1,-1,-1,-1,-1],"loss_changes":[8.932935E6,1.042575E6,1.4598635E6,4.133775E5,3.8296875E5,1.051799E6,2.1153969E5,3.27368E5,5.7140062E4,2.417606E5,1.0239022E5,4.2680375E5,3.583565E5,1.8915806E5,3.4364656E4,1.902015E5,1.1789681E5,5.9687344E3,1.3823594E4,1.8283352E5,1.7535075E5,9.118094E3,2.4225625E4,4.7234938E5,1.8435244E5,2.2027512E5,1.850315E5,3.6242188E3,1.6967375E4,1.893814E4,8.431367E3,7.590225E4,1.529575E5,1.0278203E4,8.296306E4,3.6121875E2,0E0,0E0,1.012875E3,4.869122E4,2.7509883E4,1.3457312E5,1.1090675E5,5.689328E3,1.7095E3,9.855859E1,0E0,2.2921088E5,1.2610459E5,2.0494614E5,1.6470312E5,1.4226503E5,8.216375E4,1.1796525E5,8.237725E4,0E0,2.2844453E3,2.5905E3,1.7705062E4,3.894E3,1.0408156E4,4.9701914E3,3.062127E3,0E0,0E0,0E0,0E0,0E0,0E0,0E0,0E0,0E0,0E0,0E0,0E0,0E0,0E0,0E0,0E0,0E0,0E0,0E0,0E0,0E0,0E0,0E0,0E0,0E0,0E0,0E0,0E0,0E0,0E0,0E0,0E0,0E0,0E0,0E0,0E0,0E0,0E0,0E0,0E0,0E0,0E0,0E0,0E0,0E0,0E0,0E0,0E0,0E0,0E0,0E0,0E0,0E0,0E0,0E0,0E0],"parents":[2147483647,0,0,1,1,2,2,3,3,4,4,5,5,6,6,7,7,8,8,9,9,10,10,11,11,12,12,13,13,14,14,15,15,16,16,17,17,18,18,19,19,20,20,21,21,22,22,23,23,24,24,25,25,26,26,27,27,28,28,29,29,30,30,31,31,32,32,33,33,34,34,35,35,38,38,39,39,40,40,41,41,42,42,43,43,44,44,45,45,47,47,48,48,49,49,50,50,51,51,52,52,53,53,54,54,56,56,57,57,58,58,59,59,60,60,61,61,62,62],"right_children":[2,4,6,8,10,12,14,16,18,20,22,24,26,28,30,32,34,36,38,40,42,44,46,48,50,52,54,56,58,60,62,64,66,68,70,72,-1,-1,74,76,78,80,82,84,86,88,-1,90,92,94,96,98,100,102,104,-1,106,108,110,112,114,116,118,-1,-1,-1,-1,-1,-1,-1,-1,-1,-1,-1,-1,-1,-1,-1,-1,-1,-1,-1,-1,-1,-1,-1,-1,-1,-1,-1,-1,-1,-1,-1,-1,-1,-1,-1,-1,-1,-1,-1,-1,-1,-1,-1,-1,-1,-1,-1,-1,-1,-1,-1,-1,-1,-1,-1,-1],"split_conditions":[3.967617E2,3.8634903E2,-5.845048E0,-5.513451E0,-5.691414E0,4.1222406E2,2.8509545E0,3.8389063E-1,-2.1070436E-1,-7.3439026E0,3.9633243E2,-4.4550326E-1,-4.9377555E-1,-5.513451E0,4.0960068E2,-7.3533974E0,3.4728416E1,1.2890146E-2,-1.2646961E-1,-4.7495106E-1,8.606997E-3,-1.7352101E-1,-7.5190375E-3,-8.099127E-2,-4.7873384E-1,3.3111008E1,-6.851071E0,-4.502E-1,-1.1848248E-1,-5.691414E0,1.9912977E0,-1.2646961E-1,3.2691624E1,3.417308E1,1.5362404E1,-2.5651438E-2,-8.550634E-1,-2.2645125E0,2.44445E-1,1.791118E1,-8.575201E-2,3.2804043E1,-6.1361847E0,8.695894E-1,1.9912977E0,3.358557E1,-6.1160026E0,3.4375103E1,4.0701752E2,7.6098466E-1,3.1057978E-1,-7.136932E0,7.6098466E-1,4.1689185E2,-6.1361847E0,-2.9983434E-1,-5.691414E0,-3.641453E-1,-9.093285E-3,-5.160624E-1,1.8894849E0,-5.691414E0,4.7708483E0,-1.0827508E-1,-4.272773E-1,-1.0461434E0,-5.6703967E-1,-5.496444E-1,-1.0323786E0,-2.2254465E0,-1.1656202E0,-2.487804E0,-1.7248911E0,-4.9453764E0,-3.7037976E0,5.6862324E-1,1.644159E-1,2.7945474E-2,-1.7964934E-1,-1.0805017E0,-3.717718E-1,-1.336616E-1,-9.3893784E-1,-2.5221336E0,-1.2836168E0,-1.6615155E0,-1.0990552E0,-1.7318039E0,-3.230486E0,1.4551626E0,5.8455247E-1,2.4999583E-1,8.421135E-1,-6.96097E-2,3.483831E-1,9.850347E-2,3.980616E-1,4.9485946E-1,-7.5182945E-1,3.6771095E-1,8.101077E-1,7.543012E-1,1.0919727E0,6.5578717E-1,-1.0346135E-1,-1.1422111E0,-1.6511768E0,-1.6474133E0,-3.1603186E0,-3.2862408E0,-4.8653293E0,5.7777744E-2,-1.020871E0,-2.211724E0,-1.4249225E0,-6.378962E-1,-1.3266279E0,8.586257E-2,-5.912065E-1],"split_indices":[7,7,5,5,5,7,0,6,10,5,7,10,12,5,7,5,2,9,6,11,12,9,9,6,12,2,5,10,9,5,4,6,2,2,0,9,0,0,10,0,6,2,5,11,4,2,0,2,7,10,10,5,10,7,5,0,5,10,6,12,4,5,0,0,0,0,0,0,0,0,0,0,0,0,0,0,0,0,0,0,0,0,0,0,0,0,0,0,0,0,0,0,0,0,0,0,0,0,0,0,0,0,0,0,0,0,0,0,0,0,0,0,0,0,0,0,0,0,0],"split_type":[0,0,0,0,0,0,0,0,0,0,0,0,0,0,0,0,0,0,0,0,0,0,0,0,0,0,0,0,0,0,0,0,0,0,0,0,0,0,0,0,0,0,0,0,0,0,0,0,0,0,0,0,0,0,0,0,0,0,0,0,0,0,0,0,0,0,0,0,0,0,0,0,0,0,0,0,0,0,0,0,0,0,0,0,0,0,0,0,0,0,0,0,0,0,0,0,0,0,0,0,0,0,0,0,0,0,0,0,0,0,0,0,0,0,0,0,0,0,0],"sum_hessian":[1.44215E5,7.3694E4,7.0521E4,3.7021E4,3.6673E4,6.9618E4,9.03E2,3.6876E4,1.45E2,3.6468E4,2.05E2,4.417E4,2.5448E4,2.75E2,6.28E2,3.565E4,1.226E3,7.3E1,7.2E1,1.0263E4,2.6205E4,1.75E2,3E1,1.0062E4,3.4108E4,6.32E3,1.9128E4,1.26E2,1.49E2,2.99E2,3.29E2,8.93E3,2.672E4,4.71E2,7.55E2,6.4E1,9E0,1.1E1,6.1E1,2.997E3,7.266E3,1.058E4,1.5625E4,7.5E1,1E2,1.1E1,1.9E1,3.092E3,6.97E3,1.3864E4,2.0244E4,1.007E3,5.313E3,1.0432E4,8.696E3,9E0,1.17E2,4.3E1,1.06E2,1.09E2,1.9E2,1.18E2,2.11E2,2.654E3,6.276E3,1.786E3,2.4934E4,2.87E2,1.84E2,4.15E2,3.4E2,5.1E1,1.3E1,3.8E1,2.3E1,1.39E3,1.607E3,2.366E3,4.9E3,7.18E2,9.862E3,1.5186E4,4.39E2,6E1,1.5E1,7.2E1,2.8E1,5E0,6E0,1.768E3,1.324E3,5.91E3,1.06E3,9.653E3,4.211E3,7.031E3,1.3213E4,3.5E2,6.57E2,3.872E3,1.441E3,4.83E3,5.602E3,8.323E3,3.73E2,6.5E1,5.2E1,7E0,3.6E1,3.9E1,6.7E1,9E0,1E2,8.2E1,1.08E2,4.6E1,7.2E1,1.8E1,1.93E2],"tree_param":{"num_deleted":"0","num_feature":"13","num_nodes":"119","size_leaf_vector":"1"}},{"base_weights":[4.0807936E-2,-3.6316211E0,1.7812403E0,1.0081624E1,-7.9530654E0,-3.493663E0,4.200365E0,3.1108416E1,9.384088E0,4.892812E0,-9.596906E0,-5.266346E1,-2.9549947E0,5.7149076E0,-6.3518686E0,6.1498524E1,1.8662E1,5.6367974E0,1.1728891E1,1.3669294E1,-2.4877825E0,-5.274121E0,-1.1923475E1,-1.8843132E1,-6.8155525E1,2.0736287E0,-7.656366E0,6.814674E-1,8.449243E0,2.0109332E0,-1.5064309E1,6.9848857E0,7.071011E1,6.422482E0,2.0588305E1,6.8578176E0,-1.0709331E1,2.3223166E1,1.0889294E1,2.4475482E0,2.361321E1,-5.232523E-1,-2.027481E1,-1.812241E1,-2.3358572E0,-8.320263E0,-1.9009142E1,5.2823013E-1,-2.168163E1,-9.468196E1,-4.3914948E1,-5.377013E-1,5.9547143E0,-5.1009773E1,-7.2745743E0,-2.8866248E0,2.7835822E0,1.3115247E1,6.8527665E0,1.742937E1,-3.873294E0,-2.349802E1,-5.042348E0,-6.209333E-1,8.4713715E-1,6.655586E0,3.1402402E0,4.6432042E-1,1.5185441E-1,1.3046916E0,6.9483805E-1,1.795552E-1,4.356942E-1,-1.829624E0,-2.9457492E-1,1.9936155E0,5.9669393E-1,7.778996E-1,4.8059064E-1,2.3587726E-1,-6.4454836E-1,1.4969982E0,6.024724E-1,-2.4549139E0,-4.874652E-3,-3.802832E-1,-2.1073909E0,-1.4299812E0,-7.215033E-1,1.8206496E-2,-2.3194502E-1,-2.2549601E-1,-6.0746086E-1,-1.4449124E0,-6.64777E-1,-1.4391758E-1,-1.3111866E0,-3.6089954E0,-5.5417347E0,-1.7509604E0,-4.2301636E0,-2.5456023E-1,1.3612556E-1,2.698516E0,2.6849133E-1,-3.1335075E0,-5.393796E-1,-6.375322E-1,-2.63317E-1,-1.9383755E0,-1.3345863E-1,5.5866694E-1,9.680192E-2,3.0556878E-1,7.3846316E-1,4.1679187E0,3.3626208E-1,1.5573643E0,5.6341946E-1,-3.9866794E-2,-4.0113592E-1,-8.878264E-1,-1.6718034E0,-6.111332E-1,1.1603323E-1],"categories":[],"categories_nodes":[],"categories_segments":[],"categories_sizes":[],"default_left":[0,0,0,0,0,0,0,0,0,0,0,0,0,0,0,0,0,0,0,0,0,0,0,0,0,0,0,0,0,0,0,0,0,0,0,0,0,0,0,0,0,0,0,0,0,0,0,0,0,0,0,0,0,0,0,0,0,0,0,0,0,0,0,0,0,0,0,0,0,0,0,0,0,0,0,0,0,0,0,0,0,0,0,0,0,0,0,0,0,0,0,0,0,0,0,0,0,0,0,0,0,0,0,0,0,0,0,0,0,0,0,0,0,0,0,0,0,0,0,0,0,0,0,0,0],"id":1,"left_children":[1,3,5,7,9,11,13,15,17,19,21,23,25,27,29,31,33,35,37,39,41,43,45,47,49,51,53,55,57,59,61,63,65,67,69,71,73,75,77,79,81,83,85,87,89,91,93,-1,95,97,99,101,103,105,107,109,111,113,115,117,119,121,123,-1,-1,-1,-1,-1,-1,-1,-1,-1,-1,-1,-1,-1,-1,-1,-1,-1,-1,-1,-1,-1,-1,-1,-1,-1,-1,-1,-1,-1,-1,-1,-1,-1,-1,-1,-1,-1,-1,-1,-1,-1,-1,-1,-1,-1,-1,-1,-1,-1,-1,-1,-1,-1,-1,-1,-1,-1,-1,-1,-1,-1,-1],"loss_changes":[9.2088456E5,2.7454065E6,1.247381E6,1.6252162E5,7.4389925E5,8.1389275E5,1.0710891E6,1.335006E5,9.435356E4,2.5894347E5,3.140235E5,1.7318131E5,7.1878675E5,8.065941E5,6.129334E5,5.122047E4,5.853633E3,8.266319E4,6.3524312E4,2.036994E5,7.588385E4,4.1254356E5,5.1817275E5,9.078395E3,1.4243588E5,1.4889403E5,2.5970438E5,1.5475166E5,2.8279775E5,3.895538E5,3.4811062E5,3.3023433E3,3.5031094E4,3.1960266E2,7.7014453E3,2.3317E4,3.569396E4,8.391166E4,3.6593188E4,2.9968988E4,7.0455E4,4.0463535E4,5.9530727E4,7.826919E4,5.5319117E4,1.9631994E5,3.8625775E5,0E0,8.206023E3,3.1236375E4,4.082158E4,1.3040115E5,1.6565117E5,6.3570406E4,1.7123488E5,5.957279E4,9.229511E4,1.1204575E5,2.75507E5,9.988053E4,3.9661535E4,1.27042625E5,9.96341E4,0E0,0E0,0E0,0E0,0E0,0E0,0E0,0E0,0E0,0E0,0E0,0E0,0E0,0E0,0E0,0E0,0E0,0E0,0E0,0E0,0E0,0E0,0E0,0E0,0E0,0E0,0E0,0E0,0E0,0E0,0E0,0E0,0E0,0E0,0E0,0E0,0E0,0E0,0E0,0E0,0E0,0E0,0E0,0E0,0E0,0E0,0E0,0E0,0E0,0E0,0E0,0E0,0E0,0E0,0E0,0E0,0E0,0E0,0E0,0E0,0E0,0E0],"parents":[2147483647,0,0,1,1,2,2,3,3,4,4,5,5,6,6,7,7,8,8,9,9,10,10,11,11,12,12,13,13,14,14,15,15,16,16,17,17,18,18,19,19,20,20,21,21,22,22,23,23,24,24,25,25,26,26,27,27,28,28,29,29,30,30,31,31,32,32,33,33,34,34,35,35,36,36,37,37,38,38,39,39,40,40,41,41,42,42,43,43,44,44,45,45,46,46,48,48,49,49,50,50,51,51,52,52,53,53,54,54,55,55,56,56,57,57,58,58,59,59,60,60,61,61,62,62],"right_children":[2,4,6,8,10,12,14,16,18,20,22,24,26,28,30,32,34,36,38,40,42,44,46,48,50,52,54,56,58,60,62,64,66,68,70,72,74,76,78,80,82,84,86,88,90,92,94,-1,96,98,100,102,104,106,108,110,112,114,116,118,120,122,124,-1,-1,-1,-1,-1,-1,-1,-1,-1,-1,-1,-1,-1,-1,-1,-1,-1,-1,-1,-1,-1,-1,-1,-1,-1,-1,-1,-1,-1,-1,-1,-1,-1,-1,-1,-1,-1,-1,-1,-1,-1,-1,-1,-1,-1,-1,-1,-1,-1,-1,-1,-1,-1,-1,-1,-1,-1,-1,-1,-1,-1,-1],"split_conditions":[-4.9377555E-1,8.726535E-3,8.726535E-3,-8.68407E-1,-1.4521503E-1,-9.6363044E-1,8.616292E-1,-8.143556E-1,5.662613E-1,-4.327476E-1,4.461978E-1,-1.07960224E-1,5.234156E-1,4.862727E-1,3.458893E1,3.4510933E1,-7.253744E-1,-1.650476E-1,-7.9079366E-1,-2.0603122E-1,1.6998911E-1,3.567505E-2,-1.8088665E-2,-8.606997E-3,8.695894E-1,7.028656E-1,-9.4021064E-1,8.606997E-3,3.417308E1,-4.417389E-1,-4.7495106E-1,3.402153E1,-1.5926127E-1,-2.8446674E-2,8.6159635E-1,-8.3388585E-1,-9.862481E-1,-8.717063E-1,-5.8070296E-1,5.48666E-1,3.4082317E1,-9.6351576E-1,6.3607824E-1,1.4780942E-1,-4.7495106E-1,3.459818E1,4.0636826E-1,5.2823013E-1,-4.1656065E-1,-4.4290517E-3,2.342665E-2,1.5298666E0,-9.8231906E-1,3.473776E1,-3.657245E-1,3.0312836E1,-1.5067244E-1,4.1469324E-1,-9.753668E-1,-1.6130924E-1,5.449152E-2,1.1794567E-1,-6.825079E-2,-6.209333E-1,8.4713715E-1,6.655586E0,3.1402402E0,4.6432042E-1,1.5185441E-1,1.3046916E0,6.9483805E-1,1.795552E-1,4.356942E-1,-1.829624E0,-2.9457492E-1,1.9936155E0,5.9669393E-1,7.778996E-1,4.8059064E-1,2.3587726E-1,-6.4454836E-1,1.4969982E0,6.024724E-1,-2.4549139E0,-4.874652E-3,-3.802832E-1,-2.1073909E0,-1.4299812E0,-7.215033E-1,1.8206496E-2,-2.3194502E-1,-2.2549601E-1,-6.0746086E-1,-1.4449124E0,-6.64777E-1,-1.4391758E-1,-1.3111866E0,-3.6089954E0,-5.5417347E0,-1.7509604E0,-4.2301636E0,-2.5456023E-1,1.3612556E-1,2.698516E0,2.6849133E-1,-3.1335075E0,-5.393796E-1,-6.375322E-1,-2.63317E-1,-1.9383755E0,-1.3345863E-1,5.5866694E-1,9.680192E-2,3.0556878E-1,7.3846316E-1,4.1679187E0,3.3626208E-1,1.5573643E0,5.6341946E-1,-3.9866794E-2,-4.0113592E-1,-8.878264E-1,-1.6718034E0,-6.111332E-1,1.1603323E-1],"split_indices":[12,8,8,1,6,8,8,9,3,10,8,6,12,12,2,2,8,8,9,9,9,3,9,12,11,3,9,12,2,10,11,2,10,6,10,8,9,12,8,1,2,9,8,8,11,2,3,0,6,9,9,4,9,2,9,2,6,8,9,6,6,6,9,0,0,0,0,0,0,0,0,0,0,0,0,0,0,0,0,0,0,0,0,0,0,0,0,0,0,0,0,0,0,0,0,0,0,0,0,0,0,0,0,0,0,0,0,0,0,0,0,0,0,0,0,0,0,0,0,0,0,0,0,0,0],"split_type":[0,0,0,0,0,0,0,0,0,0,0,0,0,0,0,0,0,0,0,0,0,0,0,0,0,0,0,0,0,0,0,0,0,0,0,0,0,0,0,0,0,0,0,0,0,0,0,0,0,0,0,0,0,0,0,0,0,0,0,0,0,0,0,0,0,0,0,0,0,0,0,0,0,0,0,0,0,0,0,0,0,0,0,0,0,0,0,0,0,0,0,0,0,0,0,0,0,0,0,0,0,0,0,0,0,0,0,0,0,0,0,0,0,0,0,0,0,0,0,0,0,0,0,0,0],"sum_hessian":[1.44075E5,4.6325E4,9.775E4,1.11E4,3.5225E4,3.0734E4,6.7016E4,3.55E2,1.0745E4,3.996E3,3.1229E4,3.32E2,3.0402E4,5.8605E4,8.411E3,1.02E2,2.53E2,4.137E3,6.608E3,1.825E3,2.171E3,1.0928E4,2.0301E4,1.05E2,2.27E2,1.469E4,1.5712E4,2.063E4,3.7975E4,4.292E3,4.119E3,1.5E1,8.7E1,3.5E1,2.18E2,3.85E3,2.87E2,4.48E2,6.16E3,8.58E2,9.67E2,1.956E3,2.15E2,2.033E3,8.895E3,1.3459E4,6.842E3,9E0,9.6E1,1.07E2,1.2E2,8.782E3,5.908E3,1.36E2,1.5576E4,7.648E3,1.2982E4,9.679E3,2.8296E4,1.185E3,3.107E3,2.236E3,1.883E3,5E0,1E1,8E0,7.9E1,1.8E1,1.7E1,1.18E2,1E2,1.396E3,2.454E3,4.4E1,2.43E2,1.8E2,2.68E2,1.321E3,4.839E3,7.48E2,1.1E2,6.24E2,3.43E2,1.6E1,1.94E3,1.37E2,7.8E1,5.28E2,1.505E3,4.095E3,4.8E3,6.747E3,6.712E3,2.504E3,4.338E3,1.9E1,7.7E1,4.7E1,6E1,1E2,2E1,3.664E3,5.118E3,7E1,5.838E3,1.05E2,3.1E1,4.178E3,1.1398E4,4.5E1,7.603E3,1.19E3,1.1792E4,1.85E3,7.829E3,4.6E1,2.825E4,3.66E2,8.19E2,1.785E3,1.322E3,1.419E3,8.17E2,9.53E2,9.3E2],"tree_param":{"num_deleted":"0","num_feature":"13","num_nodes":"125","size_leaf_vector":"1"}},{"base_weights":[2.168676E-2,-7.229985E0,7.62309E0,-1.012397E1,-2.780649E0,1.4158601E1,4.651972E0,-7.1953473E0,-1.6482895E1,-3.0568442E-1,-7.481408E0,-4.8252654E-1,1.5730252E1,8.7995994E-1,1.0163383E1,-7.0252113E0,-5.889991E1,-1.4990615E1,-3.526757E1,-3.0405976E-2,-4.3259422E1,-5.09318E0,-1.44166155E1,1.476565E0,-7.4351135E1,1.0426988E1,1.9764378E1,1.3978271E0,-3.61764E1,1.1896216E1,1.435805E0,-1.9377602E0,-8.360409E0,-2.824329E1,-7.163355E1,-1.0168949E1,-1.728044E1,-1.8322218E1,-3.8841644E1,4.176977E0,-1.5227206E0,-3.0953009E1,-8.495386E1,-1.0456779E1,-3.02207E0,-1.1361328E1,-2.5998379E1,2.9546232E0,-1.8806704E1,-4.482173E0,-4.917297E1,1.5659873E1,6.875833E0,2.6965693E1,1.7288784E1,3.1433654E0,-5.536647E0,-2.566336E1,-5.4124653E1,1.2440288E1,-9.356718E0,6.6587567E0,-1.1103954E1,1.0454797E0,-1.4896162E-1,-8.2663006E-1,-3.980187E-1,-1.6370481E0,-7.757041E-1,-2.6373098E0,-4.3074007E0,-3.1755954E-1,-5.991468E-1,-1.080647E0,-7.1112937E-1,-7.843443E-1,-1.4469777E0,-1.7859459E0,-2.5970166E0,-4.0327573E-1,2.6873854E-1,-1.21467665E-1,1.6671932E-1,-2.268631E0,-1.3250738E0,-2.5635726E0,-5.24499E0,-4.4699273E-1,-1.2348176E0,1.1064192E-1,-2.0006533E-1,-5.50829E-1,-3.1984422E0,-1.1456634E0,-1.9830016E0,1.40658235E-2,4.1544732E-1,-1.0330011E0,-2.0336084E-1,-1.8580647E0,-2.9444616E0,1.2453732E0,6.676149E-1,9.1966915E-1,3.1180573E-1,1.9615568E0,1.2388273E0,1.3494769E0,8.1091654E-1,5.3671546E-2,2.9862937E-1,7.4063115E-2,-6.7577475E-1,-1.5115725E0,-8.5772705E-1,-3.518463E0,-1.9011716E0,3.6627418E-1,7.163655E-1,-1.7546296E-1,-9.5585555E-1,6.25169E-1,9.1967486E-2,-1.6234435E0,-3.9550662E-1],"categories":[],"categories_nodes":[],"categories_segments":[],"categories_sizes":[],"default_left":[0,0,0,0,0,0,0,0,0,0,0,0,0,0,0,0,0,0,0,0,0,0,0,0,0,0,0,0,0,0,0,0,0,0,0,0,0,0,0,0,0,0,0,0,0,0,0,0,0,0,0,0,0,0,0,0,0,0,0,0,0,0,0,0,0,0,0,0,0,0,0,0,0,0,0,0,0,0,0,0,0,0,0,0,0,0,0,0,0,0,0,0,0,0,0,0,0,0,0,0,0,0,0,0,0,0,0,0,0,0,0,0,0,0,0,0,0,0,0,0,0,0,0,0,0],"id":2,"left_children":[1,3,5,7,9,11,13,15,17,19,21,23,25,27,29,31,33,35,37,39,41,43,45,47,49,51,53,55,57,59,61,63,65,67,69,71,73,75,77,79,81,83,85,87,89,91,93,95,97,-1,99,101,103,105,107,109,111,113,115,117,119,121,123,-1,-1,-1,-1,-1,-1,-1,-1,-1,-1,-1,-1,-1,-1,-1,-1,-1,-1,-1,-1,-1,-1,-1,-1,-1,-1,-1,-1,-1,-1,-1,-1,-1,-1,-1,-1,-1,-1,-1,-1,-1,-1,-1,-1,-1,-1,-1,-1,-1,-1,-1,-1,-1,-1,-1,-1,-1,-1,-1,-1,-1,-1],"loss_changes":[7.926891E6,9.476025E5,1.3632345E6,8.30293E5,3.3744728E5,5.04911E5,1.0034385E6,2.6816375E5,3.9359625E5,2.2467852E5,1.6561944E5,3.0807138E5,4.237135E5,5.499828E5,2.9658262E5,2.0670662E5,3.7003938E4,1.436495E5,6.190575E4,1.18561266E5,5.9445016E4,8.2648375E4,9.0358875E4,6.2232188E4,1.6754875E4,1.590145E5,2.001425E5,3.4212353E5,7.313578E4,1.89324E5,2.1293078E5,1.5063452E5,7.8672375E4,1.2620352E3,1.4631906E4,2.898775E4,1.166835E5,4.633965E3,3.302675E4,7.254177E4,6.138995E4,4.8883594E3,1.2745344E4,4.4553375E4,2.7541922E4,3.608653E4,2.1591906E4,2.7679594E4,3.7651836E3,0E0,4.8629297E2,7.351969E4,3.7481688E4,7.6271375E4,8.65465E4,1.3222822E5,3.1829588E5,9.232781E3,3.5239406E4,1.538865E5,2.327371E4,6.4620234E4,6.4972477E4,0E0,0E0,0E0,0E0,0E0,0E0,0E0,0E0,0E0,0E0,0E0,0E0,0E0,0E0,0E0,0E0,0E0,0E0,0E0,0E0,0E0,0E0,0E0,0E0,0E0,0E0,0E0,0E0,0E0,0E0,0E0,0E0,0E0,0E0,0E0,0E0,0E0,0E0,0E0,0E0,0E0,0E0,0E0,0E0,0E0,0E0,0E0,0E0,0E0,0E0,0E0,0E0,0E0,0E0,0E0,0E0,0E0,0E0,0E0,0E0,0E0,0E0],"parents":[2147483647,0,0,1,1,2,2,3,3,4,4,5,5,6,6,7,7,8,8,9,9,10,10,11,11,12,12,13,13,14,14,15,15,16,16,17,17,18,18,19,19,20,20,21,21,22,22,23,23,24,24,25,25,26,26,27,27,28,28,29,29,30,30,31,31,32,32,33,33,34,34,35,35,36,36,37,37,38,38,39,39,40,40,41,41,42,42,43,43,44,44,45,45,46,46,47,47,48,48,50,50,51,51,52,52,53,53,54,54,55,55,56,56,57,57,58,58,59,59,60,60,61,61,62,62],"right_children":[2,4,6,8,10,12,14,16,18,20,22,24,26,28,30,32,34,36,38,40,42,44,46,48,50,52,54,56,58,60,62,64,66,68,70,72,74,76,78,80,82,84,86,88,90,92,94,96,98,-1,100,102,104,106,108,110,112,114,116,118,120,122,124,-1,-1,-1,-1,-1,-1,-1,-1,-1,-1,-1,-1,-1,-1,-1,-1,-1,-1,-1,-1,-1,-1,-1,-1,-1,-1,-1,-1,-1,-1,-1,-1,-1,-1,-1,-1,-1,-1,-1,-1,-1,-1,-1,-1,-1,-1,-1,-1,-1,-1,-1,-1,-1,-1,-1,-1,-1,-1,-1,-1,-1,-1],"split_conditions":[3.967617E2,3.8868414E2,-8.397102E-2,-4.108429E-3,8.670616E-2,9.3724304E-1,4.1222406E2,-5.513451E0,2.5021887E-1,-5.691414E0,-6.7068763E0,-5.513451E0,4.0440912E2,-5.845048E0,1.1197357E0,-9.289417E-1,-4.7495106E-1,-7.1497645E0,3.443927E1,-5.9762955E-1,3.9633243E2,3.9083017E2,8.5238075E-1,-6.188927E0,1.3349007E0,-4.94483E-1,-6.675854E-1,7.610645E-1,-5.513451E0,-6.066906E0,-6.638467E0,-9.1261613E-1,3.259845E1,4.2971517E-3,3.8331992E2,-6.022358E-2,3.4510933E1,-6.1361847E0,1.4688046E0,-4.3563858E-1,1.9321225E0,-3.657245E-1,-4.4290517E-3,9.4044495E-1,4.2622623E0,-5.513451E0,1.7710571E0,4.0952954E2,4.1091318E2,-4.482173E0,3.427793E1,-7.5532117E0,-2.1584272E-1,-1.4048595E0,-1.2221527E-1,4.0440912E2,-7.012352E0,1.2890146E-2,2.8509545E0,-4.9377555E-1,-5.691414E0,-7.1855397E0,-8.5876393E-1,1.0454797E0,-1.4896162E-1,-8.2663006E-1,-3.980187E-1,-1.6370481E0,-7.757041E-1,-2.6373098E0,-4.3074007E0,-3.1755954E-1,-5.991468E-1,-1.080647E0,-7.1112937E-1,-7.843443E-1,-1.4469777E0,-1.7859459E0,-2.5970166E0,-4.0327573E-1,2.6873854E-1,-1.21467665E-1,1.6671932E-1,-2.268631E0,-1.3250738E0,-2.5635726E0,-5.24499E0,-4.4699273E-1,-1.2348176E0,1.1064192E-1,-2.0006533E-1,-5.50829E-1,-3.1984422E0,-1.1456634E0,-1.9830016E0,1.40658235E-2,4.1544732E-1,-1.0330011E0,-2.0336084E-1,-1.8580647E0,-2.9444616E0,1.2453732E0,6.676149E-1,9.1966915E-1,3.1180573E-1,1.9615568E0,1.2388273E0,1.3494769E0,8.1091654E-1,5.3671546E-2,2.9862937E-1,7.4063115E-2,-6.7577475E-1,-1.5115725E0,-8.5772705E-1,-3.518463E0,-1.9011716E0,3.6627418E-1,7.163655E-1,-1.7546296E-1,-9.5585555E-1,6.25169E-1,9.1967486E-2,-1.6234435E0,-3.9550662E-1],"split_indices":[7,7,1,1,1,0,7,5,6,5,5,5,7,5,1,1,11,5,2,1,7,7,1,5,4,1,1,1,5,5,5,9,2,9,7,6,2,5,1,0,4,9,9,1,0,5,1,7,7,0,2,5,6,1,6,7,5,9,0,12,5,5,12,0,0,0,0,0,0,0,0,0,0,0,0,0,0,0,0,0,0,0,0,0,0,0,0,0,0,0,0,0,0,0,0,0,0,0,0,0,0,0,0,0,0,0,0,0,0,0,0,0,0,0,0,0,0,0,0,0,0,0,0,0,0],"split_type":[0,0,0,0,0,0,0,0,0,0,0,0,0,0,0,0,0,0,0,0,0,0,0,0,0,0,0,0,0,0,0,0,0,0,0,0,0,0,0,0,0,0,0,0,0,0,0,0,0,0,0,0,0,0,0,0,0,0,0,0,0,0,0,0,0,0,0,0,0,0,0,0,0,0,0,0,0,0,0,0,0,0,0,0,0,0,0,0,0,0,0,0,0,0,0,0,0,0,0,0,0,0,0,0,0,0,0,0,0,0,0,0,0,0,0,0,0,0,0,0,0,0,0,0,0],"sum_hessian":[1.43802E5,7.3594E4,7.0208E4,4.459E4,2.9004E4,2.1941E4,4.8267E4,3.0531E4,1.4059E4,1.9001E4,1.0003E4,2.127E3,1.9814E4,2.8656E4,1.9611E4,3.0432E4,9.9E1,1.3026E4,1.033E3,1.8881E4,1.2E2,7.442E3,2.561E3,2.073E3,5.4E1,8.562E3,1.1252E4,2.8262E4,3.94E2,1.6362E4,3.249E3,6.327E3,2.4105E4,3E1,6.9E1,4.196E3,8.83E3,1.81E2,8.52E2,4.943E3,1.3938E4,9.4E1,2.6E1,2.072E3,5.37E3,2.028E3,5.33E2,1.933E3,1.4E2,3.2E1,2.2E1,3.46E3,5.102E3,2.876E3,8.376E3,2.2579E4,5.683E3,2.5E2,1.44E2,1.5954E4,4.08E2,2.294E3,9.55E2,2.75E2,6.052E3,1.123E3,2.2982E4,2.1E1,9E0,3.2E1,3.7E1,1.353E3,2.843E3,3.651E3,5.179E3,1.47E2,3.4E1,6.91E2,1.61E2,4.4E2,4.503E3,1.1746E4,2.192E3,2E1,7.4E1,1.1E1,1.5E1,1.874E3,1.98E2,8.46E2,4.524E3,2.016E3,1.2E1,4.37E2,9.6E1,1.29E3,6.43E2,1.24E2,1.6E1,1.2E1,1E1,6.89E2,2.771E3,2.67E2,4.835E3,4.33E2,2.443E3,8.3E2,7.546E3,1.304E4,9.539E3,3.024E3,2.659E3,1.61E2,8.9E1,7E1,7.4E1,4.301E3,1.1653E4,2.56E2,1.52E2,1.036E3,1.258E3,1.23E2,8.32E2],"tree_param":{"num_deleted":"0","num_feature":"13","num_nodes":"125","size_leaf_vector":"1"}},{"base_weights":[7.0420424E-3,-6.9346466E0,7.234217E0,-1.0289963E1,-3.441405E0,7.7614675E0,-2.3212196E1,-1.0108386E1,-5.508502E1,-3.2209423E0,-4.097984E1,5.55454E0,1.3637604E1,-6.163831E1,-1.7374422E1,-6.136248E0,-1.1394205E1,-4.619716E0,-4.5458267E1,5.611573E-1,-4.690064E0,-3.2714947E1,-8.947535E1,1.0451291E1,4.176804E0,1.4310122E1,3.1393516E0,-2.7748623E1,-7.447425E1,-1.1361648E1,-2.4415552E1,-2.9631054E0,-7.951053E0,-9.077309E0,-1.4603354E1,-5.0314644E1,-2.352744E1,6.690245E0,-2.0134902E0,-7.400436E0,-2.6571434E0,-4.172179E1,-2.6658184E1,-2.3998597E0,-5.390478E0,6.653808E0,2.0067083E1,5.409432E0,-6.3334686E-1,1.1434002E1,1.7180746E1,1.6128906E1,-2.991082E0,-2.2316591E1,-1.8096571E0,-9.9180275E1,-6.678286E1,-1.8092022E1,-7.1752977E0,-3.3101482E1,-1.5807459E1,6.7342944E-2,-3.784587E-1,-4.3614808E-1,-6.012204E-2,-7.5594634E-1,-2.8275222E-1,-4.8862687E-1,-8.790636E-1,-2.7762399E0,-2.0436378E0,-1.36686E0,-7.0646304E-1,5.497447E-1,1.5985595E-1,-3.2981834E-1,-6.579323E-2,-4.2409316E-1,-1.4092498E-1,-7.517955E-2,-5.996793E-1,-1.6281471E0,-2.5104547E0,-1.4659235E0,-9.585638E-1,3.8603798E-1,-2.9413444E-1,1.145774E0,-4.396563E-2,1.16374396E-1,4.1568223E-1,2.0970133E-1,-4.1286922E-1,8.7680465E-1,5.1241285E-1,5.559316E0,8.5418385E-1,1.367534E0,5.8446205E-1,-8.042266E-1,8.377528E-2,-6.845616E-1,-1.2413106E0,-3.2415898E0,-5.446535E0,-3.080438E0,-4.6341333E0,-1.0674393E0,-4.531091E-1,-6.1807173E-1,-2.3250018E-1,-1.743136E0,-8.6979467E-1,-1.2544545E0,-5.042488E-1],"categories":[],"categories_nodes":[],"categories_segments":[],"categories_sizes":[],"default_left":[0,0,0,0,0,0,0,0,0,0,0,0,0,0,0,0,0,0,0,0,0,0,0,0,0,0,0,0,0,0,0,0,0,0,0,0,0,0,0,0,0,0,0,0,0,0,0,0,0,0,0,0,0,0,0,0,0,0,0,0,0,0,0,0,0,0,0,0,0,0,0,0,0,0,0,0,0,0,0,0,0,0,0,0,0,0,0,0,0,0,0,0,0,0,0,0,0,0,0,0,0,0,0,0,0,0,0,0,0,0,0,0,0,0,0],"id":3,"left_children":[1,3,5,7,9,11,13,15,17,19,21,23,25,27,29,31,33,-1,35,37,39,41,43,45,47,49,51,53,55,57,59,61,63,65,67,69,71,73,75,77,79,81,83,-1,-1,85,87,89,91,93,95,97,99,101,-1,103,105,107,109,111,113,-1,-1,-1,-1,-1,-1,-1,-1,-1,-1,-1,-1,-1,-1,-1,-1,-1,-1,-1,-1,-1,-1,-1,-1,-1,-1,-1,-1,-1,-1,-1,-1,-1,-1,-1,-1,-1,-1,-1,-1,-1,-1,-1,-1,-1,-1,-1,-1,-1,-1,-1,-1,-1,-1],"loss_changes":[7.223254E6,8.607485E5,1.132533E6,3.04118E5,2.9764434E5,8.9912425E5,2.6833306E5,1.9048225E5,5.0020438E4,1.9877084E5,8.123072E4,3.4003575E5,1.336115E5,6.665425E4,4.3918594E4,5.2528656E4,2.0942075E5,0E0,1.1802375E4,1.5795836E5,1.4194375E5,8.754906E3,1.7623938E4,4.0402075E5,2.332675E5,1.4668775E5,9.090922E4,1.2506289E3,1.50225E4,1.578693E4,3.5361125E4,6.595913E4,3.0228594E4,3.3837888E5,1.6979325E5,2.5910938E3,4.6891406E2,4.4487062E4,2.2527113E4,5.4688312E4,1.585592E5,3.875875E3,1.6438984E3,0E0,0E0,1.0619622E5,1.8694862E5,2.8028625E5,2.9542453E5,6.414125E4,7.931875E4,1.7910852E4,4.744333E4,3.0563867E2,0E0,1.2932656E3,6.33525E3,6.155633E3,4.5245996E3,5.9716875E3,1.2650141E4,0E0,0E0,0E0,0E0,0E0,0E0,0E0,0E0,0E0,0E0,0E0,0E0,0E0,0E0,0E0,0E0,0E0,0E0,0E0,0E0,0E0,0E0,0E0,0E0,0E0,0E0,0E0,0E0,0E0,0E0,0E0,0E0,0E0,0E0,0E0,0E0,0E0,0E0,0E0,0E0,0E0,0E0,0E0,0E0,0E0,0E0,0E0,0E0,0E0,0E0,0E0,0E0,0E0,0E0],"parents":[2147483647,0,0,1,1,2,2,3,3,4,4,5,5,6,6,7,7,8,8,9,9,10,10,11,11,12,12,13,13,14,14,15,15,16,16,18,18,19,19,20,20,21,21,22,22,23,23,24,24,25,25,26,26,27,27,28,28,29,29,30,30,31,31,32,32,33,33,34,34,35,35,36,36,37,37,38,38,39,39,40,40,41,41,42,42,45,45,46,46,47,47,48,48,49,49,50,50,51,51,52,52,53,53,55,55,56,56,57,57,58,58,59,59,60,60],"right_children":[2,4,6,8,10,12,14,16,18,20,22,24,26,28,30,32,34,-1,36,38,40,42,44,46,48,50,52,54,56,58,60,62,64,66,68,70,72,74,76,78,80,82,84,-1,-1,86,88,90,92,94,96,98,100,102,-1,104,106,108,110,112,114,-1,-1,-1,-1,-1,-1,-1,-1,-1,-1,-1,-1,-1,-1,-1,-1,-1,-1,-1,-1,-1,-1,-1,-1,-1,-1,-1,-1,-1,-1,-1,-1,-1,-1,-1,-1,-1,-1,-1,-1,-1,-1,-1,-1,-1,-1,-1,-1,-1,-1,-1,-1,-1,-1],"split_conditions":[3.967617E2,3.8717242E2,-5.9718227E0,-5.513451E0,-5.691414E0,4.146289E2,-9.170601E-1,-7.3533974E0,-9.6814764E-1,-7.3439026E0,3.9633243E2,-4.502E-1,8.7881714E-1,-5.513451E0,-5.691414E0,-4.7495106E-1,4.305111E-1,-4.619716E0,9.366722E-1,-4.7495106E-1,3.9083017E2,-1.8395476E-1,-4.4290517E-3,7.253744E-1,6.3607824E-1,3.4641552E1,-6.9817553E0,-5.691414E0,3.344093E1,4.0693936E2,2.0216534E0,1.867637E1,8.141155E-1,3.9271164E-1,-2.522828E-1,8.870108E-1,4.2971517E-3,1.7667627E1,-8.870108E-1,7.9199E-1,8.433914E-1,-5.513451E0,1.9912977E0,-2.3998597E0,-5.390478E0,2.8627995E1,3.4620384E1,4.0546274E2,-3.8879395E-2,-4.7214544E-1,-9.753668E-1,-4.3758324E-1,-1.6710451E-1,4.009158E2,-1.8096571E0,1.0236193E0,4.093001E2,5.123714E-1,5.6152396E0,8.695894E-1,4.0960068E2,6.7342944E-2,-3.784587E-1,-4.3614808E-1,-6.012204E-2,-7.5594634E-1,-2.8275222E-1,-4.8862687E-1,-8.790636E-1,-2.7762399E0,-2.0436378E0,-1.36686E0,-7.0646304E-1,5.497447E-1,1.5985595E-1,-3.2981834E-1,-6.579323E-2,-4.2409316E-1,-1.4092498E-1,-7.517955E-2,-5.996793E-1,-1.6281471E0,-2.5104547E0,-1.4659235E0,-9.585638E-1,3.8603798E-1,-2.9413444E-1,1.145774E0,-4.396563E-2,1.16374396E-1,4.1568223E-1,2.0970133E-1,-4.1286922E-1,8.7680465E-1,5.1241285E-1,5.559316E0,8.5418385E-1,1.367534E0,5.8446205E-1,-8.042266E-1,8.377528E-2,-6.845616E-1,-1.2413106E0,-3.2415898E0,-5.446535E0,-3.080438E0,-4.6341333E0,-1.0674393E0,-4.531091E-1,-6.1807173E-1,-2.3250018E-1,-1.743136E0,-8.6979467E-1,-1.2544545E0,-5.042488E-1],"split_indices":[7,7,5,5,5,7,8,5,8,5,7,10,8,5,5,11,8,0,8,11,7,9,9,8,8,2,5,5,2,7,4,0,8,3,9,8,9,0,8,10,8,5,4,0,0,0,2,7,3,10,9,10,9,7,0,4,7,11,0,11,7,0,0,0,0,0,0,0,0,0,0,0,0,0,0,0,0,0,0,0,0,0,0,0,0,0,0,0,0,0,0,0,0,0,0,0,0,0,0,0,0,0,0,0,0,0,0,0,0,0,0,0,0,0,0],"split_type":[0,0,0,0,0,0,0,0,0,0,0,0,0,0,0,0,0,0,0,0,0,0,0,0,0,0,0,0,0,0,0,0,0,0,0,0,0,0,0,0,0,0,0,0,0,0,0,0,0,0,0,0,0,0,0,0,0,0,0,0,0,0,0,0,0,0,0,0,0,0,0,0,0,0,0,0,0,0,0,0,0,0,0,0,0,0,0,0,0,0,0,0,0,0,0,0,0,0,0,0,0,0,0,0,0,0,0,0,0,0,0,0,0,0,0],"sum_hessian":[1.43977E5,7.3439E4,7.0538E4,3.7458E4,3.5981E4,6.9338E4,1.2E3,3.7308E4,1.5E2,3.5772E4,2.09E2,5.0408E4,1.893E4,1.57E2,1.043E3,9.125E3,2.8183E4,2.9E1,1.21E2,1.0008E4,2.5764E4,1.8E2,2.9E1,1.1067E4,3.9341E4,1.779E4,1.14E3,4.4E1,1.13E2,5.64E2,4.79E2,3.321E3,5.804E3,1.6369E4,1.1814E4,9.8E1,2.3E1,2.96E3,7.048E3,1.1041E4,1.4723E4,7E1,1.1E2,1E1,1.9E1,7.935E3,3.132E3,3.1316E4,8.025E3,8.889E3,8.901E3,3.65E2,7.75E2,2.9E1,1.5E1,2.4E1,8.9E1,2.15E2,3.49E2,2.37E2,2.42E2,1.716E3,1.605E3,5.208E3,5.96E2,5.918E3,1.0451E4,4.507E3,7.307E3,6E1,3.8E1,1.5E1,8E0,1.325E3,1.635E3,9.3E2,6.118E3,8.932E3,2.109E3,1.3105E4,1.618E3,3.6E1,3.4E1,7.9E1,3.1E1,7.313E3,6.22E2,2.757E3,3.75E2,1.5194E4,1.6122E4,4.914E3,3.111E3,1.444E3,7.445E3,8E0,8.893E3,1.02E2,2.63E2,2.03E2,5.72E2,8E0,2.1E1,7E0,1.7E1,7.7E1,1.2E1,1.57E2,5.8E1,1.13E2,2.36E2,2.12E2,2.5E1,9.1E1,1.51E2],"tree_param":{"num_deleted":"0","num_feature":"13","num_nodes":"115","size_leaf_vector":"1"}},{"base_weights":[-2.199742E-2,3.343543E-1,-2.993242E1,-2.6529143E0,2.4899302E0,-6.6863365E1,-2.4767727E1,8.404469E0,-6.507071E0,-3.8646324E0,5.327857E0,-2.5834797E1,-7.875341E1,-3.0060335E1,-1.5330899E1,4.2711954E0,1.1843256E1,1.6276529E0,-8.833122E0,7.015246E-1,-6.8103733E0,6.592853E0,-2.9298732E0,-1.8644772E0,-2.2232687E1,-5.9186463E0,-7.2896904E1,-2.4800611E1,-4.3098763E1,-1.017994E1,-1.9504124E1,-4.1741676E0,5.9404516E0,4.8331577E1,1.1384337E1,-5.511173E-1,1.1775949E1,-4.711759E0,-1.214243E1,-5.7485065E0,2.0553646E0,-2.5079508E0,-1.0032035E1,1.437061E1,5.728935E0,3.5384479E0,-1.0556357E1,-1.2799467E0,-7.566717E-1,-8.043134E1,-6.1257652E1,-1.5089998E1,-2.6688637E1,-5.3535633E1,-3.4630634E1,-8.459928E0,-2.251797E1,-2.618361E1,-1.6490736E1,-5.4254632E-2,-3.4257242E-1,3.5978726E-1,-3.6625138E-1,2.9555676E0,9.2055434E-1,7.3547214E-1,4.563807E-1,1.9017121E-1,-1.6687188E-1,3.5314915E-1,1.1096152E0,-7.8516185E-1,-1.2886496E-1,-3.5753426E-1,-8.080633E-1,2.068348E-1,-3.4413925E-1,2.735542E0,8.929479E-2,-3.5387196E-2,-2.5174984E-1,-5.982977E-1,-2.2588217E-1,2.2955863E-2,8.010046E-1,9.417277E-2,3.5411516E-1,8.349773E-1,-8.707776E-2,-9.291216E-1,-1.8918137E-1,-1.8450917E0,-4.1976886E0,-1.5769006E0,-3.2940972E0,-8.043359E-1,2.674639E-1,-1.1509697E0,-1.525699E0,-2.7537954E0,-1.2537383E0,-1.7771095E0,-9.8115414E-1,3.4131953E-1,-4.6611848E-1,-1.2703896E0,-4.89585E-1,-1.5732133E0,-1.0560468E0,-6.3420844E-1,-1.2098569E0],"categories":[],"categories_nodes":[],"categories_segments":[],"categories_sizes":[],"default_left":[0,0,0,0,0,0,0,0,0,0,0,0,0,0,0,0,0,0,0,0,0,0,0,0,0,0,0,0,0,0,0,0,0,0,0,0,0,0,0,0,0,0,0,0,0,0,0,0,0,0,0,0,0,0,0,0,0,0,0,0,0,0,0,0,0,0,0,0,0,0,0,0,0,0,0,0,0,0,0,0,0,0,0,0,0,0,0,0,0,0,0,0,0,0,0,0,0,0,0,0,0,0,0,0,0,0,0,0,0,0,0],"id":4,"left_children":[1,3,5,7,9,11,13,15,17,19,21,23,25,27,29,31,33,35,37,39,41,43,45,-1,47,-1,49,51,53,55,57,59,61,63,65,67,69,71,73,75,77,79,81,83,85,87,89,-1,-1,91,93,95,97,99,101,103,105,107,109,-1,-1,-1,-1,-1,-1,-1,-1,-1,-1,-1,-1,-1,-1,-1,-1,-1,-1,-1,-1,-1,-1,-1,-1,-1,-1,-1,-1,-1,-1,-1,-1,-1,-1,-1,-1,-1,-1,-1,-1,-1,-1,-1,-1,-1,-1,-1,-1,-1,-1,-1,-1],"loss_changes":[1.5317542E6,9.145009E5,3.2106188E5,2.5368672E6,1.4876816E6,9.8936125E4,7.37535E4,2.1863588E5,8.3524175E5,3.4256816E5,5.957131E5,1.145541E3,2.8476938E4,6.41425E4,1.1320398E4,9.855222E4,1.4006962E5,2.1704727E5,4.681085E5,8.722976E4,2.1455494E5,3.3219425E5,3.737663E5,0E0,5.4054297E2,0E0,7.5115625E3,1.2060156E4,2.217675E4,4.9420215E3,5.5016797E3,9.535721E3,9.723417E4,3.2447688E4,6.210775E4,9.8072734E4,8.501481E4,3.586509E5,3.818035E5,1.9460133E4,1.1704105E5,3.0157098E4,9.43455E4,1.1341669E5,2.3162612E5,2.8494225E5,1.8893178E5,0E0,0E0,9.6161875E3,6.1584062E3,2.3891875E3,7.2647188E3,3.8715E3,1.3901094E3,2.8851719E3,8.142178E2,1.7362656E3,5.7323867E3,0E0,0E0,0E0,0E0,0E0,0E0,0E0,0E0,0E0,0E0,0E0,0E0,0E0,0E0,0E0,0E0,0E0,0E0,0E0,0E0,0E0,0E0,0E0,0E0,0E0,0E0,0E0,0E0,0E0,0E0,0E0,0E0,0E0,0E0,0E0,0E0,0E0,0E0,0E0,0E0,0E0,0E0,0E0,0E0,0E0,0E0,0E0,0E0,0E0,0E0,0E0,0E0],"parents":[2147483647,0,0,1,1,2,2,3,3,4,4,5,5,6,6,7,7,8,8,9,9,10,10,11,11,12,12,13,13,14,14,15,15,16,16,17,17,18,18,19,19,20,20,21,21,22,22,24,24,26,26,27,27,28,28,29,29,30,30,31,31,32,32,33,33,34,34,35,35,36,36,37,37,38,38,39,39,40,40,41,41,42,42,43,43,44,44,45,45,46,46,49,49,50,50,51,51,52,52,53,53,54,54,55,55,56,56,57,57,58,58],"right_children":[2,4,6,8,10,12,14,16,18,20,22,24,26,28,30,32,34,36,38,40,42,44,46,-1,48,-1,50,52,54,56,58,60,62,64,66,68,70,72,74,76,78,80,82,84,86,88,90,-1,-1,92,94,96,98,100,102,104,106,108,110,-1,-1,-1,-1,-1,-1,-1,-1,-1,-1,-1,-1,-1,-1,-1,-1,-1,-1,-1,-1,-1,-1,-1,-1,-1,-1,-1,-1,-1,-1,-1,-1,-1,-1,-1,-1,-1,-1,-1,-1,-1,-1,-1,-1,-1,-1,-1,-1,-1,-1,-1,-1],"split_conditions":[-5.845048E0,8.606997E-3,-9.6363044E-1,-8.726535E-3,8.726535E-3,-5.513451E0,2.050633E0,5.662613E-1,-7.4839067E0,5.234156E-1,8.5264015E-1,-3.0010223E-1,3.315361E1,-5.513451E0,1.9241047E-1,-1.7294054E0,-1.2577782E0,8.141155E-1,4.617486E-1,2.1790905E-1,-6.8734374E0,1.0455404E1,3.449804E1,-1.8644772E0,8.695894E-1,-5.9186463E0,8.695894E-1,4.862727E-1,-8.703557E-1,3.49908E1,8.9493436E-1,-4.9377555E-1,-1.8223552E-1,6.120906E-1,-9.995651E-2,-5.533385E-1,8.795625E0,2.1900177E-2,-7.0389147E0,-8.56551E-1,-1.6522264E0,-7.256873E0,7.6741904E-1,1.1907827E0,4.862727E-1,-4.502E-1,-4.7495106E-1,-1.2799467E0,-7.566717E-1,5.2707773E-1,-5.7571054E-1,3.434883E1,-5.691414E0,8.695894E-1,-2.9098743E-1,-7.1325046E-1,-3.8092163E-1,2.2184305E0,-5.513451E0,-5.4254632E-2,-3.4257242E-1,3.5978726E-1,-3.6625138E-1,2.9555676E0,9.2055434E-1,7.3547214E-1,4.563807E-1,1.9017121E-1,-1.6687188E-1,3.5314915E-1,1.1096152E0,-7.8516185E-1,-1.2886496E-1,-3.5753426E-1,-8.080633E-1,2.068348E-1,-3.4413925E-1,2.735542E0,8.929479E-2,-3.5387196E-2,-2.5174984E-1,-5.982977E-1,-2.2588217E-1,2.2955863E-2,8.010046E-1,9.417277E-2,3.5411516E-1,8.349773E-1,-8.707776E-2,-9.291216E-1,-1.8918137E-1,-1.8450917E0,-4.1976886E0,-1.5769006E0,-3.2940972E0,-8.043359E-1,2.674639E-1,-1.1509697E0,-1.525699E0,-2.7537954E0,-1.2537383E0,-1.7771095E0,-9.8115414E-1,3.4131953E-1,-4.6611848E-1,-1.2703896E0,-4.89585E-1,-1.5732133E0,-1.0560468E0,-6.3420844E-1,-1.2098569E0],"split_indices":[5,12,8,8,8,5,4,3,5,12,8,3,2,5,1,0,1,8,8,0,5,0,2,0,11,0,11,12,8,2,8,12,8,10,1,10,0,3,5,11,1,5,10,0,12,10,11,0,0,11,1,2,5,11,10,8,10,4,5,0,0,0,0,0,0,0,0,0,0,0,0,0,0,0,0,0,0,0,0,0,0,0,0,0,0,0,0,0,0,0,0,0,0,0,0,0,0,0,0,0,0,0,0,0,0,0,0,0,0,0,0],"split_type":[0,0,0,0,0,0,0,0,0,0,0,0,0,0,0,0,0,0,0,0,0,0,0,0,0,0,0,0,0,0,0,0,0,0,0,0,0,0,0,0,0,0,0,0,0,0,0,0,0,0,0,0,0,0,0,0,0,0,0,0,0,0,0,0,0,0,0,0,0,0,0,0,0,0,0,0,0,0,0,0,0,0,0,0,0,0,0,0,0,0,0,0,0,0,0,0,0,0,0,0,0,0,0,0,0,0,0,0,0,0,0],"sum_hessian":[1.43708E5,1.42017E5,1.691E3,5.9525E4,8.2492E4,2.06E2,1.485E3,1.5385E4,4.414E4,2.5467E4,5.7025E4,4.7E1,1.59E2,9.5E2,5.35E2,6.988E3,8.397E3,9.815E3,3.4325E4,9.987E3,1.548E4,4.945E4,7.575E3,9E0,3.8E1,1.8E1,1.41E2,6.79E2,2.71E2,2.41E2,2.94E2,1.153E3,5.835E3,1.03E2,8.294E3,8.081E3,1.734E3,1.5288E4,1.9037E4,1.732E3,8.255E3,6.629E3,8.851E3,4.942E3,4.4508E4,4.099E3,3.476E3,2.4E1,1.4E1,8.2E1,5.9E1,1.12E2,5.67E2,1.19E2,1.52E2,2.13E2,2.8E1,8.9E1,2.05E2,5.36E2,6.17E2,5.331E3,5.04E2,7.5E1,2.8E1,3.351E3,4.943E3,3.153E3,4.928E3,1.195E3,5.39E2,2.485E3,1.2803E4,8.492E3,1.0545E4,1.78E2,1.554E3,4.1E1,8.214E3,3.872E3,2.757E3,6.552E3,2.299E3,5.24E2,4.418E3,1.1587E4,3.2921E4,1.173E3,2.926E3,1.59E3,1.886E3,7E0,7.5E1,9E0,5E1,1.07E2,5E0,2.93E2,2.74E2,1.12E2,7E0,1.42E2,1E1,1.1E1,2.02E2,2.2E1,6E0,4.1E1,4.8E1,1.39E2,6.6E1],"tree_param":{"num_deleted":"0","num_feature":"13","num_nodes":"111","size_leaf_vector":"1"}},{"base_weights":[-4.1350238E-2,-6.555711E0,6.7646956E0,-4.687802E0,-1.2781571E1,1.3008149E1,4.028513E0,-7.7070236E0,-1.2335712E0,-1.6355927E1,-5.926467E0,-3.754015E-1,1.4471416E1,6.148574E-1,9.11219E0,-7.5279956E0,-5.180709E1,-1.0157921E0,-3.7881695E1,-1.4987932E1,-3.5199768E1,-3.6151876E0,-1.219757E1,1.1681508E0,-6.5545494E1,8.901221E0,1.7731937E1,1.0525085E0,-3.1592228E1,1.0784158E1,1.3600091E0,-3.9499087E0,-9.534498E0,-6.821988E1,-3.2518497E1,3.3751779E0,-2.7798195E0,-2.74657E1,-7.586962E1,-1.347878E1,-2.3045942E1,-2.1394129E1,-3.9205368E1,-4.1611924E0,1.3086239E1,-1.0241081E1,-2.732171E1,2.514442E0,-1.5826945E1,-7.370594E1,-1.532261E0,1.5401736E1,6.1369996E0,2.7190235E1,1.6078455E1,2.3126647E0,-7.710969E0,-5.7549248E1,-2.498176E1,1.125386E1,-7.737756E0,5.719797E0,-9.793807E0,6.088601E-1,-2.3705153E-1,-1.9607365E0,-4.6927473E-1,-1.7123908E0,-3.7631798E0,-1.9423714E0,-9.7564423E-1,-3.8859406E-1,2.0602421E-1,-2.5983462E-1,-4.7189873E-2,-1.1536907E0,-1.627709E0,-2.1768034E0,-4.6134014E0,-4.9329433E-1,-7.8889364E-1,-8.794778E-1,-1.5853422E0,-1.1648219E0,3.1559863E-3,-1.1787407E0,-2.0983942E0,-1.4141051E-1,-3.6325854E-1,-3.1515762E-1,7.018854E-1,-4.2941448E-1,-9.54344E-1,2.68868E-1,-1.454253E0,1.4432817E-2,3.6375102E-1,-8.702335E-1,-1.9307944E-1,-4.289439E0,-3.023258E0,1.1839905E0,6.030361E-1,-1.567808E0,3.21094E-1,2.9838724E0,1.3146397E0,1.2666384E0,7.430425E-1,2.1307103E-1,-3.4994842E-3,8.764631E-3,-8.7190866E-1,-1.3551449E0,-3.3043735E0,-1.4382946E0,-7.957329E-1,4.7729945E-1,7.4452436E-1,-1.9336262E0,-2.7004138E-1,3.6419922E-1,-4.0764838E-1,-8.1464857E-1,-2.4639168E-1],"categories":[],"categories_nodes":[],"categories_segments":[],"categories_sizes":[],"default_left":[0,0,0,0,0,0,0,0,0,0,0,0,0,0,0,0,0,0,0,0,0,0,0,0,0,0,0,0,0,0,0,0,0,0,0,0,0,0,0,0,0,0,0,0,0,0,0,0,0,0,0,0,0,0,0,0,0,0,0,0,0,0,0,0,0,0,0,0,0,0,0,0,0,0,0,0,0,0,0,0,0,0,0,0,0,0,0,0,0,0,0,0,0,0,0,0,0,0,0,0,0,0,0,0,0,0,0,0,0,0,0,0,0,0,0,0,0,0,0,0,0,0,0,0,0],"id":5,"left_children":[1,3,5,7,9,11,13,15,17,19,21,23,25,27,29,31,33,35,37,39,41,43,45,47,49,51,53,55,57,59,61,63,65,67,69,71,73,75,77,79,81,83,85,87,89,91,93,95,97,99,-1,101,103,105,107,109,111,113,115,117,119,121,123,-1,-1,-1,-1,-1,-1,-1,-1,-1,-1,-1,-1,-1,-1,-1,-1,-1,-1,-1,-1,-1,-1,-1,-1,-1,-1,-1,-1,-1,-1,-1,-1,-1,-1,-1,-1,-1,-1,-1,-1,-1,-1,-1,-1,-1,-1,-1,-1,-1,-1,-1,-1,-1,-1,-1,-1,-1,-1,-1,-1,-1,-1],"loss_changes":[6.388036E6,8.560555E5,1.2036645E6,5.905785E5,4.161755E5,4.2046875E5,8.502142E5,2.3817112E5,2.1076481E5,2.873075E5,8.436892E4,2.1303931E5,3.5134175E5,4.131965E5,2.5509025E5,2.160335E5,3.639425E4,2.033983E5,5.963228E4,1.263035E5,4.0906562E4,3.887339E4,4.611389E4,4.7377906E4,1.1686125E4,1.2834481E5,1.904655E5,3.1939103E5,6.5988125E4,1.4093712E5,1.6991417E5,1.3804028E5,8.490125E4,1.296525E4,4.010211E3,6.2557477E4,8.312089E4,2.0144453E3,1.3466656E4,7.2705375E4,7.69865E4,7.024547E3,2.4220938E4,1.7037555E4,2.579789E3,2.01555E4,1.0479859E4,2.032032E4,2.800121E3,1.0376094E3,0E0,5.8675906E4,5.378572E4,5.1339375E4,1.1672875E5,1.1740434E5,2.7892697E5,1.8736203E4,1.0345734E4,9.792525E4,2.8775957E4,5.4568695E4,3.097311E4,0E0,0E0,0E0,0E0,0E0,0E0,0E0,0E0,0E0,0E0,0E0,0E0,0E0,0E0,0E0,0E0,0E0,0E0,0E0,0E0,0E0,0E0,0E0,0E0,0E0,0E0,0E0,0E0,0E0,0E0,0E0,0E0,0E0,0E0,0E0,0E0,0E0,0E0,0E0,0E0,0E0,0E0,0E0,0E0,0E0,0E0,0E0,0E0,0E0,0E0,0E0,0E0,0E0,0E0,0E0,0E0,0E0,0E0,0E0,0E0,0E0,0E0],"parents":[2147483647,0,0,1,1,2,2,3,3,4,4,5,5,6,6,7,7,8,8,9,9,10,10,11,11,12,12,13,13,14,14,15,15,16,16,17,17,18,18,19,19,20,20,21,21,22,22,23,23,24,24,25,25,26,26,27,27,28,28,29,29,30,30,31,31,32,32,33,33,34,34,35,35,36,36,37,37,38,38,39,39,40,40,41,41,42,42,43,43,44,44,45,45,46,46,47,47,48,48,49,49,51,51,52,52,53,53,54,54,55,55,56,56,57,57,58,58,59,59,60,60,61,61,62,62],"right_children":[2,4,6,8,10,12,14,16,18,20,22,24,26,28,30,32,34,36,38,40,42,44,46,48,50,52,54,56,58,60,62,64,66,68,70,72,74,76,78,80,82,84,86,88,90,92,94,96,98,100,-1,102,104,106,108,110,112,114,116,118,120,122,124,-1,-1,-1,-1,-1,-1,-1,-1,-1,-1,-1,-1,-1,-1,-1,-1,-1,-1,-1,-1,-1,-1,-1,-1,-1,-1,-1,-1,-1,-1,-1,-1,-1,-1,-1,-1,-1,-1,-1,-1,-1,-1,-1,-1,-1,-1,-1,-1,-1,-1,-1,-1,-1,-1,-1,-1,-1,-1,-1,-1,-1,-1],"split_conditions":[3.967617E2,1.8659973E-1,-9.472275E-2,3.8717242E2,3.9083017E2,9.3724304E-1,4.1222406E2,-5.513451E0,-5.691414E0,2.8268623E-1,-6.7127314E0,-5.513451E0,4.0388007E2,-5.845048E0,1.084425E0,-6.0850525E-1,-9.5881975E-1,-5.136261E-1,3.9633243E2,9.4044495E-1,7.0090926E-1,9.238795E-1,1.2858435E0,-6.188927E0,-9.6363044E-1,-6.5468407E-1,-8.872185E-1,9.6383667E-1,-9.238795E-1,-6.066906E0,-6.6333914E0,-9.2103153E-1,3.0312836E1,-1.308217E-1,9.304176E-1,-8.893951E-1,3.9083017E2,-5.513451E0,-2.442789E-2,-7.060508E0,-6.741931E0,3.879968E2,3.4661736E1,5.2249855E-1,-3.687654E-1,8.703557E-1,3.1588988E0,4.0952954E2,4.1091318E2,3.344093E1,-1.532261E0,-7.3533974E0,-9.6351576E-1,-9.753668E-1,-1.2221527E-1,-6.899493E0,-6.976901E0,-5.513451E0,1.8088665E-2,4.1981293E2,-8.703557E-1,2.4845905E0,4.1816013E2,6.088601E-1,-2.3705153E-1,-1.9607365E0,-4.6927473E-1,-1.7123908E0,-3.7631798E0,-1.9423714E0,-9.7564423E-1,-3.8859406E-1,2.0602421E-1,-2.5983462E-1,-4.7189873E-2,-1.1536907E0,-1.627709E0,-2.1768034E0,-4.6134014E0,-4.9329433E-1,-7.8889364E-1,-8.794778E-1,-1.5853422E0,-1.1648219E0,3.1559863E-3,-1.1787407E0,-2.0983942E0,-1.4141051E-1,-3.6325854E-1,-3.1515762E-1,7.018854E-1,-4.2941448E-1,-9.54344E-1,2.68868E-1,-1.454253E0,1.4432817E-2,3.6375102E-1,-8.702335E-1,-1.9307944E-1,-4.289439E0,-3.023258E0,1.1839905E0,6.030361E-1,-1.567808E0,3.21094E-1,2.9838724E0,1.3146397E0,1.2666384E0,7.430425E-1,2.1307103E-1,-3.4994842E-3,8.764631E-3,-8.7190866E-1,-1.3551449E0,-3.3043735E0,-1.4382946E0,-7.957329E-1,4.7729945E-1,7.4452436E-1,-1.9336262E0,-2.7004138E-1,3.6419922E-1,-4.0764838E-1,-8.1464857E-1,-2.4639168E-1],"split_indices":[7,1,1,7,7,0,7,5,5,6,5,5,7,5,1,1,8,1,7,1,8,8,1,5,8,1,1,1,8,5,5,9,2,6,8,0,7,5,6,5,5,7,2,8,10,8,0,7,7,2,0,5,9,9,6,5,5,5,9,7,8,1,7,0,0,0,0,0,0,0,0,0,0,0,0,0,0,0,0,0,0,0,0,0,0,0,0,0,0,0,0,0,0,0,0,0,0,0,0,0,0,0,0,0,0,0,0,0,0,0,0,0,0,0,0,0,0,0,0,0,0,0,0,0,0],"split_type":[0,0,0,0,0,0,0,0,0,0,0,0,0,0,0,0,0,0,0,0,0,0,0,0,0,0,0,0,0,0,0,0,0,0,0,0,0,0,0,0,0,0,0,0,0,0,0,0,0,0,0,0,0,0,0,0,0,0,0,0,0,0,0,0,0,0,0,0,0,0,0,0,0,0,0,0,0,0,0,0,0,0,0,0,0,0,0,0,0,0,0,0,0,0,0,0,0,0,0,0,0,0,0,0,0,0,0,0,0,0,0,0,0,0,0,0,0,0,0,0,0,0,0,0,0],"sum_hessian":[1.44077E5,7.3616E4,7.0461E4,5.6628E4,1.6988E4,2.1469E4,4.8992E4,3.0216E4,2.6412E4,1.1165E4,5.823E3,2.116E3,1.9353E4,2.9311E4,1.9681E4,3.0095E4,1.21E2,2.6257E4,1.55E2,1.0411E4,7.54E2,4.256E3,1.567E3,2.068E3,4.8E1,7.147E3,1.2206E4,2.8919E4,3.92E2,1.6189E4,3.492E3,1.0814E4,1.9281E4,6.4E1,5.7E1,7.525E3,1.8732E4,1.23E2,3.2E1,8.771E3,1.64E3,1.71E2,5.83E2,4.122E3,1.34E2,1.389E3,1.78E2,1.917E3,1.51E2,3.8E1,1E1,2.131E3,5.016E3,1.814E3,1.0392E4,2.5284E4,3.635E3,7.8E1,3.14E2,1.5789E4,4E2,2.511E3,9.81E2,5.05E2,1.0309E4,9.5E1,1.9186E4,1.2E1,5.2E1,3.7E1,2E1,4.71E2,7.054E3,8.086E3,1.0646E4,6.9E1,5.4E1,1.2E1,2E1,3.413E3,5.358E3,1.008E3,6.32E2,1.57E2,1.4E1,8.9E1,4.94E2,2.885E3,1.237E3,6E0,1.28E2,1.172E3,2.17E2,9E0,1.69E2,1.307E3,6.1E2,1.33E2,1.8E1,1.7E1,2.1E1,6.11E2,1.52E3,3.7E1,4.979E3,4.7E1,1.767E3,1.206E3,9.186E3,1.3908E4,1.1376E4,2.008E3,1.627E3,1.8E1,6E1,2.2E2,9.4E1,1.0746E4,5.043E3,2.7E1,3.73E2,2.257E3,2.54E2,4.19E2,5.62E2],"tree_param":{"num_deleted":"0","num_feature":"13","num_nodes":"125","size_leaf_vector":"1"}},{"base_weights":[-2.2193426E-2,-6.222363E0,6.434555E0,-9.22351E0,-3.1045976E0,4.503731E0,1.2273092E1,-8.662407E0,-2.1336548E1,-5.449129E0,-1.364999E0,8.768854E0,2.7470527E0,7.300848E0,1.3890666E1,-7.5197167E0,-1.242568E1,-1.1973673E1,-2.9399485E1,-8.208431E0,-4.1895585E0,1.2971773E0,-3.2400596E0,1.5584074E1,5.7626405E0,1.6309126E-1,4.651018E0,-9.4946176E-1,1.1172593E1,1.0609411E1,1.5358378E1,1.456606E1,-8.244393E0,-1.90098E1,-9.617889E0,-8.329047E0,-1.7808636E1,-3.4551037E1,-1.1845475E1,-9.208916E0,5.7396307E0,-5.275749E1,-4.1198335E0,5.292753E0,-2.283186E-2,-4.7360935E0,-6.493957E-1,5.528486E0,1.969155E1,4.259219E0,9.61777E0,-1.5885222E0,2.7405682E0,2.5429647E0,7.572365E0,1.8869589E1,-2.7405183E0,9.035628E0,1.6203966E1,1.4273185E1,-2.8671927E0,1.8237133E1,1.3903159E1,1.4042536E0,8.1019886E-2,-2.8961614E-1,-5.2544254E-1,-2.6473322E0,-8.900458E-1,-6.903984E-1,-3.0388093E-1,-6.633203E-1,-2.710412E-1,-1.2091461E0,-2.4061382E-1,-1.2850717E0,-2.0783823E0,-1.157807E0,-3.1133947E-1,-2.1296015E-1,-5.7901007E-1,6.0539216E-2,4.4395444E-1,-1.542854E0,-3.4025357E0,1.4075999E-1,-2.3315053E-1,4.182077E-1,-1.2239212E-1,-4.6347514E-1,1.6194357E-2,-8.696775E-2,-3.839505E-1,7.941675E-1,-8.642176E-2,1.7308961E-1,7.510368E-1,1.2836977E0,7.140622E-1,3.3055657E-1,1.1215675E-1,1.6831265E-1,5.4665726E-1,1.3148032E-1,-2.1026483E-1,1.5193928E0,9.837987E-2,-1.17174365E-1,2.4587917E-1,-4.995235E-1,4.1823244E-1,4.530703E-1,1.4090803E0,-2.219814E0,-1.0847216E-1,7.008653E-1,2.51809E-1,3.7946752E-1,9.8007977E-1,8.9567614E-1,5.832221E-1,4.1405183E-1,-3.9725712E-1,9.889377E-1,5.6138927E-1,1.7377539E0,6.8163425E-1],"categories":[],"categories_nodes":[],"categories_segments":[],"categories_sizes":[],"default_left":[0,0,0,0,0,0,0,0,0,0,0,0,0,0,0,0,0,0,0,0,0,0,0,0,0,0,0,0,0,0,0,0,0,0,0,0,0,0,0,0,0,0,0,0,0,0,0,0,0,0,0,0,0,0,0,0,0,0,0,0,0,0,0,0,0,0,0,0,0,0,0,0,0,0,0,0,0,0,0,0,0,0,0,0,0,0,0,0,0,0,0,0,0,0,0,0,0,0,0,0,0,0,0,0,0,0,0,0,0,0,0,0,0,0,0,0,0,0,0,0,0,0,0,0,0,0,0],"id":6,"left_children":[1,3,5,7,9,11,13,15,17,19,21,23,25,27,29,31,33,35,37,39,41,43,45,47,49,51,53,55,57,59,61,63,65,67,69,71,73,75,77,79,81,83,85,87,89,91,93,95,97,99,101,103,105,107,109,111,113,115,117,119,121,123,125,-1,-1,-1,-1,-1,-1,-1,-1,-1,-1,-1,-1,-1,-1,-1,-1,-1,-1,-1,-1,-1,-1,-1,-1,-1,-1,-1,-1,-1,-1,-1,-1,-1,-1,-1,-1,-1,-1,-1,-1,-1,-1,-1,-1,-1,-1,-1,-1,-1,-1,-1,-1,-1,-1,-1,-1,-1,-1,-1,-1,-1,-1,-1,-1],"loss_changes":[5.756536E6,6.863435E5,7.940265E5,2.538445E5,1.4673788E5,3.9659512E5,1.40689E5,1.5352275E5,1.24508E5,5.3227E4,1.0311383E5,3.1628375E5,1.8446566E5,1.3733498E5,6.34385E4,4.3873775E5,1.5360625E5,1.6160273E4,7.988825E4,6.706416E4,3.541536E4,4.502646E4,4.6970117E4,1.95087E5,6.2072125E4,7.182501E4,1.3292628E5,4.8823035E4,3.1311E4,2.0173994E5,3.79615E4,1.5238748E5,1.47276E5,1.01040375E5,8.645575E4,6.7323555E3,2.423643E4,4.1521562E4,1.275374E4,5.2543438E4,4.5664756E3,2.9141797E3,3.9603953E4,5.0422953E4,2.057998E4,6.774322E4,7.919768E4,2.686146E4,1.082195E5,3.6551906E4,2.4680375E4,1.04562125E5,1.3749919E5,1.4553078E5,1.25984125E5,1.015298E4,2.9896416E4,4.0891156E4,2.5342031E4,3.02915E4,4.9543027E4,3.2840438E4,3.372175E4,0E0,0E0,0E0,0E0,0E0,0E0,0E0,0E0,0E0,0E0,0E0,0E0,0E0,0E0,0E0,0E0,0E0,0E0,0E0,0E0,0E0,0E0,0E0,0E0,0E0,0E0,0E0,0E0,0E0,0E0,0E0,0E0,0E0,0E0,0E0,0E0,0E0,0E0,0E0,0E0,0E0,0E0,0E0,0E0,0E0,0E0,0E0,0E0,0E0,0E0,0E0,0E0,0E0,0E0,0E0,0E0,0E0,0E0,0E0,0E0,0E0,0E0,0E0,0E0],"parents":[2147483647,0,0,1,1,2,2,3,3,4,4,5,5,6,6,7,7,8,8,9,9,10,10,11,11,12,12,13,13,14,14,15,15,16,16,17,17,18,18,19,19,20,20,21,21,22,22,23,23,24,24,25,25,26,26,27,27,28,28,29,29,30,30,31,31,32,32,33,33,34,34,35,35,36,36,37,37,38,38,39,39,40,40,41,41,42,42,43,43,44,44,45,45,46,46,47,47,48,48,49,49,50,50,51,51,52,52,53,53,54,54,55,55,56,56,57,57,58,58,59,59,60,60,61,61,62,62],"right_children":[2,4,6,8,10,12,14,16,18,20,22,24,26,28,30,32,34,36,38,40,42,44,46,48,50,52,54,56,58,60,62,64,66,68,70,72,74,76,78,80,82,84,86,88,90,92,94,96,98,100,102,104,106,108,110,112,114,116,118,120,122,124,126,-1,-1,-1,-1,-1,-1,-1,-1,-1,-1,-1,-1,-1,-1,-1,-1,-1,-1,-1,-1,-1,-1,-1,-1,-1,-1,-1,-1,-1,-1,-1,-1,-1,-1,-1,-1,-1,-1,-1,-1,-1,-1,-1,-1,-1,-1,-1,-1,-1,-1,-1,-1,-1,-1,-1,-1,-1,-1,-1,-1,-1,-1,-1,-1],"split_conditions":[3.967617E2,3.8717242E2,4.1511423E2,3.2689047E-1,3.9083017E2,-3.1130314E-2,-4.9377555E-1,2.7127502E1,9.152603E-1,-5.012418E-1,-1.6645432E-2,-4.417389E-1,4.040797E2,3.3491135E-1,1.3120022E1,-9.1261613E-1,3.412738E1,3.3491135E-1,1.7667627E1,1.9321225E0,3.0312836E1,-8.56551E-1,5.5958337E-1,-3.5605538E-1,4.0952954E2,5.6497645E-1,8.8827515E-1,-3.1415367E-1,7.5774884E-1,6.146126E-1,-2.145338E-2,2.4186172E1,-2.522828E-1,-3.5734367E0,7.026831E-1,5.993602E0,-2.9703832E-1,-6.452733E-1,4.862727E-1,-4.1529784E-1,2.0810153E0,-4.7873384E-1,3.306462E1,2.7978416E1,-1.7902856E0,-3.4919804E-1,7.9176807E0,4.0683145E2,-1.2910296E-2,4.3035382E-3,-2.46669E-1,-4.6130913E-1,8.063917E0,-4.9377555E-1,1.2037014E1,-1.6362402E-1,3.0312836E1,-4.2030627E-1,8.540506E-2,-3.896637E-1,-4.55416E-1,2.8055626E1,-9.753668E-1,1.4042536E0,8.1019886E-2,-2.8961614E-1,-5.2544254E-1,-2.6473322E0,-8.900458E-1,-6.903984E-1,-3.0388093E-1,-6.633203E-1,-2.710412E-1,-1.2091461E0,-2.4061382E-1,-1.2850717E0,-2.0783823E0,-1.157807E0,-3.1133947E-1,-2.1296015E-1,-5.7901007E-1,6.0539216E-2,4.4395444E-1,-1.542854E0,-3.4025357E0,1.4075999E-1,-2.3315053E-1,4.182077E-1,-1.2239212E-1,-4.6347514E-1,1.6194357E-2,-8.696775E-2,-3.839505E-1,7.941675E-1,-8.642176E-2,1.7308961E-1,7.510368E-1,1.2836977E0,7.140622E-1,3.3055657E-1,1.1215675E-1,1.6831265E-1,5.4665726E-1,1.3148032E-1,-2.1026483E-1,1.5193928E0,9.837987E-2,-1.17174365E-1,2.4587917E-1,-4.995235E-1,4.1823244E-1,4.530703E-1,1.4090803E0,-2.219814E0,-1.0847216E-1,7.008653E-1,2.51809E-1,3.7946752E-1,9.8007977E-1,8.9567614E-1,5.832221E-1,4.1405183E-1,-3.9725712E-1,9.889377E-1,5.6138927E-1,1.7377539E0,6.8163425E-1],"split_indices":[7,7,7,6,7,6,12,0,3,12,6,10,7,3,0,9,2,3,0,4,2,11,10,9,7,10,3,6,10,3,6,0,9,3,10,0,10,10,12,10,4,12,2,0,0,9,0,7,11,11,10,10,0,12,0,9,2,10,9,3,10,0,9,0,0,0,0,0,0,0,0,0,0,0,0,0,0,0,0,0,0,0,0,0,0,0,0,0,0,0,0,0,0,0,0,0,0,0,0,0,0,0,0,0,0,0,0,0,0,0,0,0,0,0,0,0,0,0,0,0,0,0,0,0,0,0,0],"split_type":[0,0,0,0,0,0,0,0,0,0,0,0,0,0,0,0,0,0,0,0,0,0,0,0,0,0,0,0,0,0,0,0,0,0,0,0,0,0,0,0,0,0,0,0,0,0,0,0,0,0,0,0,0,0,0,0,0,0,0,0,0,0,0,0,0,0,0,0,0,0,0,0,0,0,0,0,0,0,0,0,0,0,0,0,0,0,0,0,0,0,0,0,0,0,0,0,0,0,0,0,0,0,0,0,0,0,0,0,0,0,0,0,0,0,0,0,0,0,0,0,0,0,0,0,0,0,0],"sum_hessian":[1.43793E5,7.3354E4,7.0439E4,3.7375E4,3.5979E4,5.2935E4,1.7504E4,3.5722E4,1.653E3,1.5324E4,2.0655E4,1.5441E4,3.7494E4,4.298E3,1.3206E4,2.7404E4,8.318E3,7.66E2,8.87E2,4.801E3,1.0523E4,8.536E3,1.2119E4,4.725E3,1.0716E4,1.5907E4,2.1587E4,1.373E3,2.925E3,4.084E3,9.122E3,8.7E2,2.6534E4,2.485E3,5.833E3,4.73E2,2.93E2,6.85E2,2.02E2,4.48E3,3.21E2,1.4E1,1.0509E4,2.119E3,6.417E3,7.682E3,4.437E3,1.371E3,3.354E3,7.711E3,3.005E3,9.471E3,6.436E3,1.254E4,9.047E3,1.13E2,1.26E3,2.055E3,8.7E2,3.211E3,8.73E2,3.059E3,6.063E3,4.25E2,4.45E2,1.2741E4,1.3793E4,8.4E1,2.401E3,2.67E3,3.163E3,1.74E2,2.99E2,1.96E2,9.7E1,3.05E2,3.8E2,6.6E1,1.36E2,1.452E3,3.028E3,1.32E2,1.89E2,7E0,7E0,7.63E2,9.746E3,1.517E3,6.02E2,2.31E2,6.186E3,3.807E3,3.875E3,2.71E2,4.166E3,1.127E3,2.44E2,1.591E3,1.763E3,3.558E3,4.153E3,5.23E2,2.482E3,3.626E3,5.845E3,1.74E2,6.262E3,4.101E3,8.439E3,3.9E2,8.657E3,5.6E1,5.7E1,1.6E1,1.244E3,9.14E2,1.141E3,2.47E2,6.23E2,1.338E3,1.873E3,2.73E2,6E2,2.506E3,5.53E2,7.6E1,5.987E3],"tree_param":{"num_deleted":"0","num_feature":"13","num_nodes":"127","size_leaf_vector":"1"}},{"base_weights":[-2.5908792E-2,-5.9395013E0,6.1410923E0,-8.855986E0,-2.9863617E0,6.644461E0,-1.7362993E1,-8.3881645E0,-2.1943153E1,-2.7982247E0,-3.6562435E1,4.2738967E0,1.0753278E1,-1.1321731E1,-4.1185627E1,-8.243407E0,-4.816212E1,-1.1097611E1,-2.7859673E1,7.737543E-1,-4.0152984E0,-2.906531E1,-7.721857E1,1.1263035E1,3.4416935E0,1.3748007E1,8.835243E0,-1.6557392E1,-7.409068E0,-6.1818012E1,-2.4179413E1,-7.17618E0,-1.1810692E1,-6.837635E1,-3.4067226E1,-7.6674027E0,-1.5561027E1,-1.1413222E1,-3.622775E1,6.3061323E0,-1.5246363E0,-6.246932E0,-2.2727306E0,-3.8314575E1,-2.3142931E1,-2.2870097E0,-9.223967E1,1.860878E1,5.052988E0,1.6058388E0,5.3212566E0,1.7186094E1,1.09723835E1,5.9188538E0,1.164937E1,-2.0687122E1,-8.766434E0,-2.8808568E0,-1.21198E1,-4.189326E0,-5.6009766E1,-3.2310978E1,-1.4694062E1,9.341906E-1,-3.8436535E-1,-8.875432E-1,-4.5624492E-1,-1.2924203E0,-3.8942115E0,-1.9792598E0,-1.0752462E0,-2.2463265E-1,-1.0359507E0,-2.4281876E-1,-1.0437613E0,-7.404315E-1,-9.8946705E-2,-1.4830736E0,-1.9665693E0,4.8623452E-1,1.5313138E-1,5.0007332E-2,-1.4176528E-1,-3.5378525E-1,-1.02748E-1,-8.0185466E-2,-6.782642E-1,-2.5094702E0,-1.6029179E0,-1.2761E0,-8.0516404E-1,-5.054892E0,-2.7352142E0,1.2390213E0,4.5579848E-1,4.229749E-1,-4.356354E-3,-1.0772341E0,8.885186E-2,3.64773E-1,1.536028E-1,1.0865633E0,7.349322E-1,6.6115105E-1,3.6896923E-1,4.9559852E-1,1.6942886E-1,6.7314464E-1,-1.02996126E-1,-8.8288987E-1,-1.4779271E0,3.2520083E-1,-5.9747154E-1,-1.9556159E-1,7.052409E-1,-8.2390875E-1,-4.045983E-1,-2.3907197E0,-3.421672E0,-1.8028526E0,-1.2802649E0,-1.402638E-1,-9.962083E-1],"categories":[],"categories_nodes":[],"categories_segments":[],"categories_sizes":[],"default_left":[0,0,0,0,0,0,0,0,0,0,0,0,0,0,0,0,0,0,0,0,0,0,0,0,0,0,0,0,0,0,0,0,0,0,0,0,0,0,0,0,0,0,0,0,0,0,0,0,0,0,0,0,0,0,0,0,0,0,0,0,0,0,0,0,0,0,0,0,0,0,0,0,0,0,0,0,0,0,0,0,0,0,0,0,0,0,0,0,0,0,0,0,0,0,0,0,0,0,0,0,0,0,0,0,0,0,0,0,0,0,0,0,0,0,0,0,0,0,0,0,0,0,0],"id":7,"left_children":[1,3,5,7,9,11,13,15,17,19,21,23,25,27,29,31,33,35,37,39,41,43,45,47,49,51,53,55,57,59,61,63,65,67,69,71,73,75,77,79,81,83,85,87,89,-1,91,93,95,97,99,101,103,105,107,109,111,113,115,-1,117,119,121,-1,-1,-1,-1,-1,-1,-1,-1,-1,-1,-1,-1,-1,-1,-1,-1,-1,-1,-1,-1,-1,-1,-1,-1,-1,-1,-1,-1,-1,-1,-1,-1,-1,-1,-1,-1,-1,-1,-1,-1,-1,-1,-1,-1,-1,-1,-1,-1,-1,-1,-1,-1,-1,-1,-1,-1,-1,-1,-1,-1],"loss_changes":[5.2400305E6,6.3171125E5,8.322635E5,2.2574975E5,2.3012603E5,6.7067325E5,2.1180866E5,2.047455E5,8.137269E4,1.5757356E5,5.962025E4,2.539555E5,1.44585E5,2.4006703E4,1.0305856E5,1.35077E5,3.441472E4,6.783371E3,1.1284719E5,1.17145875E5,1.0511403E5,8.583672E3,1.0425172E4,2.1184212E5,1.3464719E5,9.3652625E4,1.25990375E5,1.5999531E4,1.4383465E4,1.2391344E4,1.2247094E4,3.6138362E5,1.30243875E5,1.9002688E4,4.549453E3,1.0553344E4,1.0988949E4,8.906293E3,9.93325E3,2.9951195E4,2.1542309E4,4.1164156E4,1.1467611E5,3.2860234E3,1.3936094E3,0E0,1.1038281E3,1.2444225E5,4.41089E4,7.828442E4,8.559594E4,4.9321125E4,4.39235E4,7.619744E4,1.9435112E5,8.288141E3,8.632884E3,6.109706E3,5.67484E3,0E0,7.8143125E3,1.2811406E3,4.7918438E3,0E0,0E0,0E0,0E0,0E0,0E0,0E0,0E0,0E0,0E0,0E0,0E0,0E0,0E0,0E0,0E0,0E0,0E0,0E0,0E0,0E0,0E0,0E0,0E0,0E0,0E0,0E0,0E0,0E0,0E0,0E0,0E0,0E0,0E0,0E0,0E0,0E0,0E0,0E0,0E0,0E0,0E0,0E0,0E0,0E0,0E0,0E0,0E0,0E0,0E0,0E0,0E0,0E0,0E0,0E0,0E0,0E0,0E0,0E0,0E0],"parents":[2147483647,0,0,1,1,2,2,3,3,4,4,5,5,6,6,7,7,8,8,9,9,10,10,11,11,12,12,13,13,14,14,15,15,16,16,17,17,18,18,19,19,20,20,21,21,22,22,23,23,24,24,25,25,26,26,27,27,28,28,29,29,30,30,31,31,32,32,33,33,34,34,35,35,36,36,37,37,38,38,39,39,40,40,41,41,42,42,43,43,44,44,46,46,47,47,48,48,49,49,50,50,51,51,52,52,53,53,54,54,55,55,56,56,57,57,58,58,60,60,61,61,62,62],"right_children":[2,4,6,8,10,12,14,16,18,20,22,24,26,28,30,32,34,36,38,40,42,44,46,48,50,52,54,56,58,60,62,64,66,68,70,72,74,76,78,80,82,84,86,88,90,-1,92,94,96,98,100,102,104,106,108,110,112,114,116,-1,118,120,122,-1,-1,-1,-1,-1,-1,-1,-1,-1,-1,-1,-1,-1,-1,-1,-1,-1,-1,-1,-1,-1,-1,-1,-1,-1,-1,-1,-1,-1,-1,-1,-1,-1,-1,-1,-1,-1,-1,-1,-1,-1,-1,-1,-1,-1,-1,-1,-1,-1,-1,-1,-1,-1,-1,-1,-1,-1,-1,-1,-1],"split_conditions":[3.967617E2,3.8634903E2,-6.066906E0,3.8389063E-1,-5.691414E0,4.1222406E2,-5.513451E0,-5.513451E0,3.46508E1,-7.402608E0,3.9633243E2,-1.5586376E-1,-7.0336237E0,4.0800095E2,-8.703557E-1,2.7204245E1,-9.6363044E-1,3.405141E1,6.8835455E-1,-4.7495106E-1,3.9083017E2,-1.9422652E-1,-4.4290517E-3,-4.3758324E-1,4.040797E2,2.1516098E-2,3.4534107E1,2.0810153E0,-5.845048E0,3.344093E1,-3.641453E-1,-9.4021064E-1,3.415784E1,-1.7407274E-1,1.9509175E0,-6.2837267E0,7.372773E-1,-5.622062E-1,-6.3858974E-1,1.791118E1,-8.575201E-2,8.2158566E-1,8.7881714E-1,3.8775726E2,1.9912977E0,-2.2870097E0,4.5722652E-2,3.434883E1,-7.3439026E0,-9.6351576E-1,-6.1295565E-2,-7.251358E-2,4.9242356E-1,9.753477E0,6.6262007E-1,-5.691414E0,-5.9482276E-1,1.3559152E1,1.9912977E0,-4.189326E0,3.0061739E-2,1.8838757E0,3.4879463E1,9.341906E-1,-3.8436535E-1,-8.875432E-1,-4.5624492E-1,-1.2924203E0,-3.8942115E0,-1.9792598E0,-1.0752462E0,-2.2463265E-1,-1.0359507E0,-2.4281876E-1,-1.0437613E0,-7.404315E-1,-9.8946705E-2,-1.4830736E0,-1.9665693E0,4.8623452E-1,1.5313138E-1,5.0007332E-2,-1.4176528E-1,-3.5378525E-1,-1.02748E-1,-8.0185466E-2,-6.782642E-1,-2.5094702E0,-1.6029179E0,-1.2761E0,-8.0516404E-1,-5.054892E0,-2.7352142E0,1.2390213E0,4.5579848E-1,4.229749E-1,-4.356354E-3,-1.0772341E0,8.885186E-2,3.64773E-1,1.536028E-1,1.0865633E0,7.349322E-1,6.6115105E-1,3.6896923E-1,4.9559852E-1,1.6942886E-1,6.7314464E-1,-1.02996126E-1,-8.8288987E-1,-1.4779271E0,3.2520083E-1,-5.9747154E-1,-1.9556159E-1,7.052409E-1,-8.2390875E-1,-4.045983E-1,-2.3907197E0,-3.421672E0,-1.8028526E0,-1.2802649E0,-1.402638E-1,-9.962083E-1],"split_indices":[7,7,5,6,5,7,5,5,2,5,7,6,5,7,8,0,8,2,8,11,7,9,9,10,7,11,2,4,5,2,10,9,2,6,4,5,8,10,10,0,6,10,8,7,4,0,9,2,5,9,9,6,8,0,8,5,8,0,4,0,9,4,2,0,0,0,0,0,0,0,0,0,0,0,0,0,0,0,0,0,0,0,0,0,0,0,0,0,0,0,0,0,0,0,0,0,0,0,0,0,0,0,0,0,0,0,0,0,0,0,0,0,0,0,0,0,0,0,0,0,0,0,0],"split_type":[0,0,0,0,0,0,0,0,0,0,0,0,0,0,0,0,0,0,0,0,0,0,0,0,0,0,0,0,0,0,0,0,0,0,0,0,0,0,0,0,0,0,0,0,0,0,0,0,0,0,0,0,0,0,0,0,0,0,0,0,0,0,0,0,0,0,0,0,0,0,0,0,0,0,0,0,0,0,0,0,0,0,0,0,0,0,0,0,0,0,0,0,0,0,0,0,0,0,0,0,0,0,0,0,0,0,0,0,0,0,0,0,0,0,0,0,0,0,0,0,0,0,0],"sum_hessian":[1.43682E5,7.3348E4,7.0334E4,3.6902E4,3.6446E4,6.886E4,1.474E3,3.563E4,1.272E3,3.6244E4,2.02E2,4.3668E4,2.5192E4,1.177E3,2.97E2,3.5502E4,1.28E2,4.5E2,8.22E2,9.211E3,2.7033E4,1.72E2,3E1,4.645E3,3.9023E4,9.833E3,1.5359E4,5.02E2,6.75E2,1.33E2,1.64E2,2.7329E4,8.173E3,5.1E1,7.7E1,2.56E2,1.94E2,2.78E2,5.44E2,2.703E3,6.508E3,1.1852E4,1.5181E4,6.5E1,1.07E2,1.1E1,1.9E1,2.127E3,2.518E3,1.9742E4,1.9281E4,4.39E3,5.443E3,7.544E3,7.815E3,3.27E2,1.75E2,3.45E2,3.3E2,2.5E1,1.08E2,8.7E1,7.7E1,5.29E2,2.68E4,2.543E3,5.63E3,1E1,4.1E1,5.2E1,2.5E1,2.07E2,4.9E1,6.5E1,1.29E2,2.04E2,7.4E1,1.78E2,3.66E2,1.315E3,1.388E3,2.224E3,4.284E3,9.895E3,1.957E3,1.4333E4,8.48E2,2E1,4.5E1,7.8E1,2.9E1,1.4E1,5E0,1.288E3,8.39E2,1.514E3,1.004E3,1.44E2,1.9598E4,1.0267E4,9.014E3,1.55E3,2.84E3,3.345E3,2.098E3,2.925E3,4.619E3,6.902E3,9.13E2,2.46E2,8.1E1,3E1,1.45E2,3.26E2,1.9E1,1.57E2,1.73E2,6.8E1,4E1,5.3E1,3.4E1,2.4E1,5.3E1],"tree_param":{"num_deleted":"0","num_feature":"13","num_nodes":"123","size_leaf_vector":"1"}},{"base_weights":[-1.3585063E-2,-5.594606E0,5.820032E0,-7.883047E0,-2.0797389E0,6.262034E0,-1.9598532E1,-7.6267138E0,-3.0003012E1,-1.8738098E0,-2.5855362E1,4.513159E0,1.15352955E1,-5.241422E1,-1.4477763E1,-7.177184E0,-1.6464123E1,-7.202879E1,-2.6849638E1,1.0146967E0,-3.23319E0,-2.0718876E1,-6.731762E1,8.062904E0,3.0167613E0,6.471755E0,1.3228648E1,-2.4951189E1,-6.181752E1,-9.111288E0,-2.0435135E1,-6.0415993E0,-1.0735557E1,-1.0126221E1,-2.4068209E1,-1.4709398E0,-3.907325E0,-3.4219227E1,-1.9081434E1,6.9308443E0,-1.2794758E0,-2.3687067E0,-9.223277E0,-2.809038E-1,-2.1982271E1,-1.9578294E0,-7.9217224E1,1.4146558E1,5.376133E0,-2.707383E-1,4.5998144E0,2.2366026E1,2.8852253E0,8.3571005E0,1.5364844E1,-2.0092396E1,-1.678676E0,-8.334846E1,-5.6132526E1,1.11767456E-1,-1.1037446E1,-2.691813E1,-1.265647E1,-6.3563906E-2,-3.338978E-1,-8.662921E-1,-4.129633E-1,-2.4230073E-1,-6.918771E-1,-5.7344043E-1,-1.7518399E0,-1.4088941E0,-2.226945E0,-6.8166375E-1,-1.3982182E0,5.5126137E-1,1.8496959E-1,-2.6881364E-1,-3.1727713E-2,8.5941285E-2,-1.7812674E-1,-2.9842665E-2,-6.697964E-1,9.835846E-2,-1.8114313E-1,-1.2693694E0,-7.756616E-1,-1.8932104E0,-4.6100955E0,9.5414394E-1,4.1929433E-1,3.4248993E-1,4.8232634E-2,3.9826062E-1,-4.0326887E-1,2.1662427E-2,3.4167182E-1,1.1504054E0,1.9761384E-1,2.2897322E-1,-4.56425E-1,6.5753067E-1,2.3617165E-1,8.3195126E-1,1.0918095E-1,-1.6095301E0,-8.190565E-1,-2.2152743E0,-4.5863376E0,-2.5207784E0,-4.3413024E0,2.1257901E-1,-1.11270666E-1,-8.485722E-1,-3.7356517E-1,-1.2763746E0,-2.515889E0,-9.3144304E-1,-3.8839176E-1],"categories":[],"categories_nodes":[],"categories_segments":[],"categories_sizes":[],"default_left":[0,0,0,0,0,0,0,0,0,0,0,0,0,0,0,0,0,0,0,0,0,0,0,0,0,0,0,0,0,0,0,0,0,0,0,0,0,0,0,0,0,0,0,0,0,0,0,0,0,0,0,0,0,0,0,0,0,0,0,0,0,0,0,0,0,0,0,0,0,0,0,0,0,0,0,0,0,0,0,0,0,0,0,0,0,0,0,0,0,0,0,0,0,0,0,0,0,0,0,0,0,0,0,0,0,0,0,0,0,0,0,0,0,0,0,0,0,0,0],"id":8,"left_children":[1,3,5,7,9,11,13,15,17,19,21,23,25,27,29,31,33,35,37,39,41,43,45,47,49,51,53,55,57,59,61,63,65,67,69,-1,-1,71,73,75,77,79,81,83,85,-1,87,89,91,93,95,97,99,101,103,105,-1,107,109,111,113,115,117,-1,-1,-1,-1,-1,-1,-1,-1,-1,-1,-1,-1,-1,-1,-1,-1,-1,-1,-1,-1,-1,-1,-1,-1,-1,-1,-1,-1,-1,-1,-1,-1,-1,-1,-1,-1,-1,-1,-1,-1,-1,-1,-1,-1,-1,-1,-1,-1,-1,-1,-1,-1,-1,-1,-1,-1],"loss_changes":[4.6859085E6,5.91635E5,7.9074275E5,2.523695E5,1.4196964E5,6.37842E5,2.013884E5,1.748405E5,6.564284E4,1.1292799E5,5.1626047E4,2.7589212E5,1.4761425E5,4.028425E4,3.312367E4,1.6928875E5,1.02454125E5,6.813922E3,2.6592E4,1.2493223E5,1.0124444E5,5.7497266E3,5.934125E3,2.5168994E5,1.9017672E5,2.4613873E5,1.3419725E5,1.1215078E3,9.995906E3,9.773109E3,2.451689E4,9.6444625E4,1.6530112E5,2.274146E4,1.3336888E5,0E0,0E0,1.3887469E4,1.0939172E4,3.3987383E4,1.752112E4,8.340714E4,8.875445E4,1.1247389E2,4.2279062E3,0E0,6.161047E3,1.3400081E5,6.946278E4,7.625874E5,2.2954194E5,9.30575E3,7.178963E4,6.8510875E4,1.50649E5,8.1481445E2,0E0,3.4460156E3,1.28053125E4,9.3851135E2,9.499234E3,7.4287656E3,6.4511406E3,0E0,0E0,0E0,0E0,0E0,0E0,0E0,0E0,0E0,0E0,0E0,0E0,0E0,0E0,0E0,0E0,0E0,0E0,0E0,0E0,0E0,0E0,0E0,0E0,0E0,0E0,0E0,0E0,0E0,0E0,0E0,0E0,0E0,0E0,0E0,0E0,0E0,0E0,0E0,0E0,0E0,0E0,0E0,0E0,0E0,0E0,0E0,0E0,0E0,0E0,0E0,0E0,0E0,0E0,0E0,0E0],"parents":[2147483647,0,0,1,1,2,2,3,3,4,4,5,5,6,6,7,7,8,8,9,9,10,10,11,11,12,12,13,13,14,14,15,15,16,16,17,17,18,18,19,19,20,20,21,21,22,22,23,23,24,24,25,25,26,26,27,27,28,28,29,29,30,30,31,31,32,32,33,33,34,34,37,37,38,38,39,39,40,40,41,41,42,42,43,43,44,44,46,46,47,47,48,48,49,49,50,50,51,51,52,52,53,53,54,54,55,55,57,57,58,58,59,59,60,60,61,61,62,62],"right_children":[2,4,6,8,10,12,14,16,18,20,22,24,26,28,30,32,34,36,38,40,42,44,46,48,50,52,54,56,58,60,62,64,66,68,70,-1,-1,72,74,76,78,80,82,84,86,-1,88,90,92,94,96,98,100,102,104,106,-1,108,110,112,114,116,118,-1,-1,-1,-1,-1,-1,-1,-1,-1,-1,-1,-1,-1,-1,-1,-1,-1,-1,-1,-1,-1,-1,-1,-1,-1,-1,-1,-1,-1,-1,-1,-1,-1,-1,-1,-1,-1,-1,-1,-1,-1,-1,-1,-1,-1,-1,-1,-1,-1,-1,-1,-1,-1,-1,-1,-1],"split_conditions":[3.967617E2,3.8868414E2,-5.9718227E0,-5.845048E0,-5.845048E0,4.1511423E2,-9.238795E-1,2.8268623E-1,-9.6814764E-1,-7.281964E0,3.9633243E2,-3.1130314E-2,-4.9377555E-1,-5.513451E0,-5.691414E0,2.7127502E1,1.0208244E0,-5.513451E0,9.0258527E-1,-4.7495106E-1,7.7162457E-1,-8.606997E-3,-3.1130314E-2,-4.417389E-1,-4.9377555E-1,-8.726535E-3,8.726535E-3,4.0675653E2,3.344093E1,4.862727E-1,4.1239484E2,-1.6130924E-1,3.4097927E1,7.372773E-1,6.8835455E-1,-1.4709398E0,-3.907325E0,-5.513451E0,8.053131E-1,1.7667627E1,-8.870108E-1,-8.56551E-1,5.6152396E0,2.0384073E-1,9.170601E-1,-1.9578294E0,-1.7294054E0,5.788574E-1,6.3607824E-1,3.9874908E-1,-9.584575E-2,3.0271978E1,-6.66711E0,5.234156E-1,8.703557E-1,3.3260746E1,-1.678676E0,-1.5372276E-2,4.093001E2,8.5207754E-1,4.0693936E2,4.1091318E2,9.304176E-1,-6.3563906E-2,-3.338978E-1,-8.662921E-1,-4.129633E-1,-2.4230073E-1,-6.918771E-1,-5.7344043E-1,-1.7518399E0,-1.4088941E0,-2.226945E0,-6.8166375E-1,-1.3982182E0,5.5126137E-1,1.8496959E-1,-2.6881364E-1,-3.1727713E-2,8.5941285E-2,-1.7812674E-1,-2.9842665E-2,-6.697964E-1,9.835846E-2,-1.8114313E-1,-1.2693694E0,-7.756616E-1,-1.8932104E0,-4.6100955E0,9.5414394E-1,4.1929433E-1,3.4248993E-1,4.8232634E-2,3.9826062E-1,-4.0326887E-1,2.1662427E-2,3.4167182E-1,1.1504054E0,1.9761384E-1,2.2897322E-1,-4.56425E-1,6.5753067E-1,2.3617165E-1,8.3195126E-1,1.0918095E-1,-1.6095301E0,-8.190565E-1,-2.2152743E0,-4.5863376E0,-2.5207784E0,-4.3413024E0,2.1257901E-1,-1.11270666E-1,-8.485722E-1,-3.7356517E-1,-1.2763746E0,-2.515889E0,-9.3144304E-1,-3.8839176E-1],"split_indices":[7,7,5,5,5,7,8,6,8,5,7,6,12,5,5,0,3,5,8,11,8,12,6,10,12,8,8,7,2,12,7,6,2,8,8,0,0,5,3,0,8,11,0,6,8,0,0,3,8,8,8,0,5,12,8,2,0,6,7,11,7,7,8,0,0,0,0,0,0,0,0,0,0,0,0,0,0,0,0,0,0,0,0,0,0,0,0,0,0,0,0,0,0,0,0,0,0,0,0,0,0,0,0,0,0,0,0,0,0,0,0,0,0,0,0,0,0,0,0],"split_type":[0,0,0,0,0,0,0,0,0,0,0,0,0,0,0,0,0,0,0,0,0,0,0,0,0,0,0,0,0,0,0,0,0,0,0,0,0,0,0,0,0,0,0,0,0,0,0,0,0,0,0,0,0,0,0,0,0,0,0,0,0,0,0,0,0,0,0,0,0,0,0,0,0,0,0,0,0,0,0,0,0,0,0,0,0,0,0,0,0,0,0,0,0,0,0,0,0,0,0,0,0,0,0,0,0,0,0,0,0,0,0,0,0,0,0,0,0,0,0],"sum_hessian":[1.43925E5,7.3555E4,7.037E4,4.4549E4,2.9006E4,6.9168E4,1.202E3,4.404E4,5.09E2,2.8758E4,2.48E2,5.1943E4,1.7225E4,1.61E2,1.041E3,4.191E4,2.13E3,3.4E1,4.75E2,9.203E3,1.9555E4,2.22E2,2.6E1,1.5402E4,3.6541E4,4.318E3,1.2907E4,4.2E1,1.19E2,5.49E2,4.92E2,3.1773E4,1.0137E4,1.163E3,9.67E2,5E0,2.9E1,2.42E2,2.33E2,2.571E3,6.632E3,1.709E4,2.465E3,1.3E1,2.09E2,9E0,1.7E1,4.717E3,1.0685E4,1.1877E4,2.4664E4,7.94E2,3.524E3,3.936E3,8.971E3,2.9E1,1.3E1,2.2E1,9.7E1,9.5E1,4.54E2,2.67E2,2.25E2,3.74E3,2.8033E4,2.767E3,7.37E3,4.81E2,6.82E2,4.51E2,5.16E2,1.55E2,8.7E1,1.46E2,8.7E1,1.133E3,1.438E3,9.01E2,5.731E3,3.863E3,1.3227E4,8.04E2,1.661E3,8E0,5E0,1.35E2,7.4E1,5E0,1.2E1,2.539E3,2.178E3,8.009E3,2.676E3,5.775E3,6.102E3,8.608E3,1.6056E4,7.67E2,2.7E1,3.089E3,4.35E2,1.696E3,2.24E3,8.18E3,7.91E2,5E0,2.4E1,5E0,1.7E1,8.4E1,1.3E1,3.4E1,6.1E1,1.69E2,2.85E2,2.54E2,1.3E1,1E2,1.25E2],"tree_param":{"num_deleted":"0","num_feature":"13","num_nodes":"119","size_leaf_vector":"1"}},{"base_weights":[-2.2359736E-2,-5.353933E0,5.5311065E0,-2.6845787E0,-9.237429E0,1.0812184E1,2.713782E0,-5.1429677E0,3.5501465E-1,-1.1921927E1,-3.810902E0,-7.972569E-1,1.2097612E1,-2.769311E-1,7.013942E0,1.9696995E0,-5.9838676E0,3.6842163E0,-1.2372535E0,-1.0506589E1,-2.1650995E1,-1.974437E0,-8.653262E0,5.119173E-1,-5.0389343E1,7.978327E0,1.5202611E1,1.659248E0,-6.325994E0,8.638509E0,-7.372494E-1,2.6850126E1,5.447437E-1,-5.8353257E0,-4.527423E1,3.8990588E0,-5.043618E1,-9.526327E-1,-1.2530113E1,-6.516324E0,-1.2273607E1,-1.49657E1,-2.8199596E1,-2.2300994E0,9.060356E0,-7.4287534E0,-2.5334578E1,1.6816716E0,-1.4561265E1,-6.260264E1,-3.5759407E1,1.30808325E1,5.2359915E0,1.9822556E1,1.2769415E1,4.5859456E0,5.058942E-2,-1.8295617E0,-1.6682838E1,9.06888E0,-5.3378196E0,3.686894E0,-1.1092706E1,-3.6390194E-1,2.2861345E0,2.3129962E-1,-2.8628275E-1,-2.2314873E-1,-3.887155E-1,-3.297115E0,-1.7706625E0,-3.8208082E-1,2.3228124E-1,-4.53537E0,-1.3071704E0,-8.152511E-2,1.4719814E-1,1.1578991E-1,-9.584269E-1,-5.455316E-1,-2.5265917E-1,-5.400332E-1,-9.111046E-1,-3.9510113E-1,-9.430873E-1,-1.0237377E0,-1.6192929E0,-8.8058597E-1,-1.0016345E-1,5.569753E-1,-1.3871411E0,-3.5116878E-1,-2.3970506E0,-1.1859389E-1,-1.3814905E0,-1.5728118E-1,2.0397918E-1,-6.342165E-1,-1.4093379E0,-3.73103E0,-2.2581763E0,-1.3721297E0,-2.2578168E0,1.0476068E0,5.5215955E-1,3.6701494E-1,1.3541625E-1,1.5681652E0,9.283603E-1,5.6004727E-1,8.456665E-1,4.8944473E-1,9.855934E-2,1.2645982E-1,-1.9869766E-1,-3.704841E-2,-1.6703755E0,-6.4374477E-1,-1.586065E0,3.8319036E-1,6.0053277E-1,-1.7276243E0,-1.8732007E-1,4.7222787E-1,-1.586019E-2,-1.0992442E0,-3.7455454E-1],"categories":[],"categories_nodes":[],"categories_segments":[],"categories_sizes":[],"default_left":[0,0,0,0,0,0,0,0,0,0,0,0,0,0,0,0,0,0,0,0,0,0,0,0,0,0,0,0,0,0,0,0,0,0,0,0,0,0,0,0,0,0,0,0,0,0,0,0,0,0,0,0,0,0,0,0,0,0,0,0,0,0,0,0,0,0,0,0,0,0,0,0,0,0,0,0,0,0,0,0,0,0,0,0,0,0,0,0,0,0,0,0,0,0,0,0,0,0,0,0,0,0,0,0,0,0,0,0,0,0,0,0,0,0,0,0,0,0,0,0,0,0,0,0,0,0,0],"id":9,"left_children":[1,3,5,7,9,11,13,15,17,19,21,23,25,27,29,31,33,35,37,39,41,43,45,47,49,51,53,55,57,59,61,63,65,67,69,71,73,75,77,79,81,83,85,87,89,91,93,95,97,99,101,103,105,107,109,111,113,115,117,119,121,123,125,-1,-1,-1,-1,-1,-1,-1,-1,-1,-1,-1,-1,-1,-1,-1,-1,-1,-1,-1,-1,-1,-1,-1,-1,-1,-1,-1,-1,-1,-1,-1,-1,-1,-1,-1,-1,-1,-1,-1,-1,-1,-1,-1,-1,-1,-1,-1,-1,-1,-1,-1,-1,-1,-1,-1,-1,-1,-1,-1,-1,-1,-1,-1,-1],"loss_changes":[4.267326E6,7.6222775E5,1.0502878E6,3.2564656E5,4.3629325E5,3.664925E5,5.920507E5,1.4411338E5,1.0330504E5,2.7570475E5,8.815422E4,1.5903133E5,2.8267175E5,3.1802878E5,2.3780062E5,9.031818E4,1.2547894E5,7.35025E4,4.2359293E4,1.2328025E5,1.10948375E5,2.0303838E4,5.5490953E4,4.211059E4,9.008359E3,1.3293112E5,1.414505E5,9.684404E4,3.0657694E5,9.3955125E4,1.4999092E5,8.922048E4,6.1726406E4,5.7084375E4,1.4163031E4,5.4151516E4,2.2074406E4,3.397285E4,3.1977395E4,3.44825E4,1.06036875E5,3.45515E4,4.0853875E4,2.4483602E4,1.2780031E4,4.1388016E4,9.734539E3,2.5664078E4,4.0371406E3,3.534125E3,1.1762617E3,5.3046625E4,3.2871734E4,6.2390625E4,5.34945E4,9.9237625E4,1.3243147E5,1.5782434E5,1.1371744E5,6.251075E4,2.157884E4,5.2890348E4,3.8277203E4,0E0,0E0,0E0,0E0,0E0,0E0,0E0,0E0,0E0,0E0,0E0,0E0,0E0,0E0,0E0,0E0,0E0,0E0,0E0,0E0,0E0,0E0,0E0,0E0,0E0,0E0,0E0,0E0,0E0,0E0,0E0,0E0,0E0,0E0,0E0,0E0,0E0,0E0,0E0,0E0,0E0,0E0,0E0,0E0,0E0,0E0,0E0,0E0,0E0,0E0,0E0,0E0,0E0,0E0,0E0,0E0,0E0,0E0,0E0,0E0,0E0,0E0,0E0,0E0],"parents":[2147483647,0,0,1,1,2,2,3,3,4,4,5,5,6,6,7,7,8,8,9,9,10,10,11,11,12,12,13,13,14,14,15,15,16,16,17,17,18,18,19,19,20,20,21,21,22,22,23,23,24,24,25,25,26,26,27,27,28,28,29,29,30,30,31,31,32,32,33,33,34,34,35,35,36,36,37,37,38,38,39,39,40,40,41,41,42,42,43,43,44,44,45,45,46,46,47,47,48,48,49,49,50,50,51,51,52,52,53,53,54,54,55,55,56,56,57,57,58,58,59,59,60,60,61,61,62,62],"right_children":[2,4,6,8,10,12,14,16,18,20,22,24,26,28,30,32,34,36,38,40,42,44,46,48,50,52,54,56,58,60,62,64,66,68,70,72,74,76,78,80,82,84,86,88,90,92,94,96,98,100,102,104,106,108,110,112,114,116,118,120,122,124,126,-1,-1,-1,-1,-1,-1,-1,-1,-1,-1,-1,-1,-1,-1,-1,-1,-1,-1,-1,-1,-1,-1,-1,-1,-1,-1,-1,-1,-1,-1,-1,-1,-1,-1,-1,-1,-1,-1,-1,-1,-1,-1,-1,-1,-1,-1,-1,-1,-1,-1,-1,-1,-1,-1,-1,-1,-1,-1,-1,-1,-1,-1,-1,-1],"split_conditions":[3.967617E2,-6.830025E-2,-3.1211853E-2,3.8634903E2,3.9083017E2,9.3724304E-1,4.1222406E2,-1.3030815E0,-5.9762955E-1,8.1278896E-1,-6.7281923E0,-5.513451E0,4.0440912E2,-6.722953E0,1.1197357E0,-9.1261613E-1,-5.513451E0,-5.513451E0,8.9493436E-1,-7.1855397E0,6.087614E-1,9.238795E-1,1.2858435E0,-6.188927E0,1.3349007E0,-5.136261E-1,-4.94483E-1,-7.3254285E0,5.9324884E-1,-6.1361847E0,-6.638467E0,8.369446E-3,-1.2329301E-1,4.7715876E-1,-9.6814764E-1,-1.365679E0,-1.5317514E0,1.9385071E0,-6.907217E0,3.8088623E2,6.087614E-1,-7.1855397E0,1.0647763E1,-2.4232426E0,3.3491135E-1,-5.513451E0,8.0473006E-1,1.4418006E0,-1.8088665E-2,-3.4872437E-1,-2.6810677E-3,-7.5532117E0,2.0475157E1,-1.4048595E0,4.1692252E2,-4.7495106E-1,4.305111E-1,-5.691414E0,1.4688046E0,4.1981293E2,-8.703557E-1,-7.281964E0,4.1511423E2,-3.6390194E-1,2.2861345E0,2.3129962E-1,-2.8628275E-1,-2.2314873E-1,-3.887155E-1,-3.297115E0,-1.7706625E0,-3.8208082E-1,2.3228124E-1,-4.53537E0,-1.3071704E0,-8.152511E-2,1.4719814E-1,1.1578991E-1,-9.584269E-1,-5.455316E-1,-2.5265917E-1,-5.400332E-1,-9.111046E-1,-3.9510113E-1,-9.430873E-1,-1.0237377E0,-1.6192929E0,-8.8058597E-1,-1.0016345E-1,5.569753E-1,-1.3871411E0,-3.5116878E-1,-2.3970506E0,-1.1859389E-1,-1.3814905E0,-1.5728118E-1,2.0397918E-1,-6.342165E-1,-1.4093379E0,-3.73103E0,-2.2581763E0,-1.3721297E0,-2.2578168E0,1.0476068E0,5.5215955E-1,3.6701494E-1,1.3541625E-1,1.5681652E0,9.283603E-1,5.6004727E-1,8.456665E-1,4.8944473E-1,9.855934E-2,1.2645982E-1,-1.9869766E-1,-3.704841E-2,-1.6703755E0,-6.4374477E-1,-1.586065E0,3.8319036E-1,6.0053277E-1,-1.7276243E0,-1.8732007E-1,4.7222787E-1,-1.586019E-2,-1.0992442E0,-3.7455454E-1],"split_indices":[7,1,1,7,7,0,7,1,1,1,5,5,7,5,1,9,5,5,8,5,8,8,1,5,4,1,1,5,1,5,5,3,9,8,8,0,0,4,5,7,8,5,0,3,3,5,4,4,9,3,0,5,0,1,7,11,8,5,1,7,8,5,7,0,0,0,0,0,0,0,0,0,0,0,0,0,0,0,0,0,0,0,0,0,0,0,0,0,0,0,0,0,0,0,0,0,0,0,0,0,0,0,0,0,0,0,0,0,0,0,0,0,0,0,0,0,0,0,0,0,0,0,0,0,0,0,0],"split_type":[0,0,0,0,0,0,0,0,0,0,0,0,0,0,0,0,0,0,0,0,0,0,0,0,0,0,0,0,0,0,0,0,0,0,0,0,0,0,0,0,0,0,0,0,0,0,0,0,0,0,0,0,0,0,0,0,0,0,0,0,0,0,0,0,0,0,0,0,0,0,0,0,0,0,0,0,0,0,0,0,0,0,0,0,0,0,0,0,0,0,0,0,0,0,0,0,0,0,0,0,0,0,0,0,0,0,0,0,0,0,0,0,0,0,0,0,0,0,0,0,0,0,0,0,0,0,0],"sum_hessian":[1.44122E5,7.353E4,7.0592E4,4.3578E4,2.9952E4,2.4557E4,4.6035E4,2.4092E4,1.9486E4,2.0038E4,9.914E3,2.448E3,2.2109E4,2.7152E4,1.8883E4,2.547E3,2.1545E4,6.304E3,1.3182E4,1.7495E4,2.543E3,7.189E3,2.725E3,2.386E3,6.2E1,9.504E3,1.2605E4,2.0569E4,6.583E3,1.5611E4,3.272E3,1.37E2,2.41E3,2.1465E4,8E1,6.28E3,2.4E1,1.2859E4,3.23E2,5.371E3,1.2124E4,1.26E3,1.283E3,7.027E3,1.62E2,2.54E3,1.85E2,2.215E3,1.71E2,3.2E1,3E1,3.321E3,6.183E3,4.346E3,8.259E3,7.295E3,1.3274E4,4.591E3,1.992E3,1.5145E4,4.66E2,2.293E3,9.79E2,4.9E1,8.8E1,1.46E3,9.5E2,1.2571E4,8.894E3,2.4E1,5.6E1,3.81E2,5.899E3,8E0,1.6E1,1.0954E4,1.905E3,1E2,2.23E2,1.34E3,4.031E3,9.72E3,2.404E3,4.49E2,8.11E2,4.53E2,8.3E2,1.01E2,6.926E3,1.54E2,8E0,2.516E3,2.4E1,1.7E1,1.68E2,7.35E2,1.48E3,1.52E2,1.9E1,1.7E1,1.5E1,1.8E1,1.2E1,6.81E2,2.64E3,3.373E3,2.81E3,4.24E2,3.922E3,5.994E3,2.265E3,2.439E3,4.856E3,8.215E3,5.059E3,4.439E3,1.52E2,1.591E3,4.01E2,1.0252E4,4.893E3,2.3E1,4.43E2,9.4E2,1.353E3,2.42E2,7.37E2],"tree_param":{"num_deleted":"0","num_feature":"13","num_nodes":"127","size_leaf_vector":"1"}},{"base_weights":[5.6835483E-3,3.3926007E-1,-2.080766E1,-2.833866E0,1.8777982E0,-1.4772685E1,-3.8897022E1,9.389872E0,-6.637052E0,-2.3856122E0,3.9183943E0,-1.9367537E0,-1.6026884E1,-5.4701252E1,-2.2445524E1,1.7246923E1,7.86947E0,3.9781216E-1,-9.342916E0,1.6335486E0,-6.1637874E0,1.0780283E-1,5.996811E0,-4.005821E0,9.442558E-1,-1.8980963E1,-1.0907898E1,-6.2153496E1,-4.3374237E1,-2.8247261E1,-1.3874796E1,4.4019882E1,1.4320593E1,6.4904118E0,1.1846755E1,-1.9371411E0,1.0835954E1,-4.5802846E0,-1.3226647E1,-5.606246E0,2.7140968E0,-2.09472E0,-8.440403E0,6.900581E0,-8.9659715E-1,7.2052927E0,-2.276544E0,6.509373E0,-6.0222926E0,-1.626316E1,-2.417374E1,-9.073016E0,-2.2738073E1,-8.243263E1,-5.7287956E1,-1.059681E0,-4.5230835E1,-1.2359612E0,-3.273115E1,-7.924433E0,-1.8831968E1,3.2898948E0,1.2914151E0,-6.5783614E-1,7.922395E-1,-1.4185435E-2,3.5360935E-1,6.9615096E-1,3.9815763E-1,8.47245E-2,-2.465707E-1,2.6978835E-1,9.315387E-1,-7.493271E-1,-1.17328405E-1,-4.4075415E-1,-8.7205535E-1,-3.352295E-1,1.9545895E-1,1.5996126E0,1.2278112E-1,4.2541485E-2,-1.6741052E-1,-9.663566E-1,-3.6332762E-1,7.17944E-1,8.479889E-2,2.855772E-1,-9.5315725E-2,7.4096465E-1,3.176853E-1,-3.535987E-4,-8.053896E-1,4.6575403E-1,-1.4879891E-1,-2.3570815E-1,-9.83434E-1,-7.338629E-1,-1.0861106E0,-1.2641876E0,-7.1092796E-1,-8.04134E-1,-3.6198518E-1,-1.3535334E0,-5.786469E-1,-2.6786242E0,-4.506868E0,-2.5555172E0,-3.7355328E0,-2.044274E0,-3.3040178E0,-1.1546293E0,-1.7363319E0,-8.45856E-1,-1.8451099E-1,-1.115522E0,-7.0504683E-1],"categories":[],"categories_nodes":[],"categories_segments":[],"categories_sizes":[],"default_left":[0,0,0,0,0,0,0,0,0,0,0,0,0,0,0,0,0,0,0,0,0,0,0,0,0,0,0,0,0,0,0,0,0,0,0,0,0,0,0,0,0,0,0,0,0,0,0,0,0,0,0,0,0,0,0,0,0,0,0,0,0,0,0,0,0,0,0,0,0,0,0,0,0,0,0,0,0,0,0,0,0,0,0,0,0,0,0,0,0,0,0,0,0,0,0,0,0,0,0,0,0,0,0,0,0,0,0,0,0,0,0,0,0,0,0,0,0],"id":10,"left_children":[1,3,5,7,9,11,13,15,17,19,21,23,25,27,29,31,33,35,37,39,41,43,45,47,-1,49,51,53,55,57,59,61,63,65,67,69,71,73,75,77,79,81,83,85,87,89,91,93,95,97,99,101,103,105,107,-1,109,-1,111,113,115,-1,-1,-1,-1,-1,-1,-1,-1,-1,-1,-1,-1,-1,-1,-1,-1,-1,-1,-1,-1,-1,-1,-1,-1,-1,-1,-1,-1,-1,-1,-1,-1,-1,-1,-1,-1,-1,-1,-1,-1,-1,-1,-1,-1,-1,-1,-1,-1,-1,-1,-1,-1,-1,-1,-1,-1],"loss_changes":[1.0004338E6,6.923817E5,2.4756088E5,2.153021E6,8.30963E5,2.7431781E4,1.4644631E5,1.3114681E5,6.723726E5,4.6950322E5,5.1159888E5,6.665686E3,2.3289344E4,2.1688562E4,1.3526891E4,1.38899E5,5.043725E4,2.3918994E5,4.717905E5,1.1721831E5,1.4761694E5,1.5555675E5,4.1792162E5,3.0076553E3,0E0,1.3489969E4,1.2185195E4,1.22346875E4,3.8940625E3,1.8111719E3,3.240246E3,6.762225E4,6.751122E4,2.6963156E4,1.8997188E4,8.721894E4,7.597216E4,2.6634656E5,2.61085E5,2.0364535E4,9.8577516E4,2.1118895E4,1.3044956E5,1.13980984E5,1.3254348E5,2.3638088E5,1.6724222E5,6.404572E2,2.0112876E3,5.2962812E3,3.3494844E3,6.255285E3,3.3592695E3,2.0498906E3,1.1452469E4,0E0,7.072203E3,0E0,5.3864844E2,1.9916667E3,7.0208203E2,0E0,0E0,0E0,0E0,0E0,0E0,0E0,0E0,0E0,0E0,0E0,0E0,0E0,0E0,0E0,0E0,0E0,0E0,0E0,0E0,0E0,0E0,0E0,0E0,0E0,0E0,0E0,0E0,0E0,0E0,0E0,0E0,0E0,0E0,0E0,0E0,0E0,0E0,0E0,0E0,0E0,0E0,0E0,0E0,0E0,0E0,0E0,0E0,0E0,0E0,0E0,0E0,0E0,0E0,0E0,0E0],"parents":[2147483647,0,0,1,1,2,2,3,3,4,4,5,5,6,6,7,7,8,8,9,9,10,10,11,11,12,12,13,13,14,14,15,15,16,16,17,17,18,18,19,19,20,20,21,21,22,22,23,23,25,25,26,26,27,27,28,28,29,29,30,30,31,31,32,32,33,33,34,34,35,35,36,36,37,37,38,38,39,39,40,40,41,41,42,42,43,43,44,44,45,45,46,46,47,47,48,48,49,49,50,50,51,51,52,52,53,53,54,54,56,56,58,58,59,59,60,60],"right_children":[2,4,6,8,10,12,14,16,18,20,22,24,26,28,30,32,34,36,38,40,42,44,46,48,-1,50,52,54,56,58,60,62,64,66,68,70,72,74,76,78,80,82,84,86,88,90,92,94,96,98,100,102,104,106,108,-1,110,-1,112,114,116,-1,-1,-1,-1,-1,-1,-1,-1,-1,-1,-1,-1,-1,-1,-1,-1,-1,-1,-1,-1,-1,-1,-1,-1,-1,-1,-1,-1,-1,-1,-1,-1,-1,-1,-1,-1,-1,-1,-1,-1,-1,-1,-1,-1,-1,-1,-1,-1,-1,-1,-1,-1,-1,-1,-1,-1],"split_conditions":[-5.9718227E0,-4.9377555E-1,-5.513451E0,8.726535E-3,2.6176948E-2,-8.606997E-3,-8.703557E-1,-4.9560213E-1,-7.3631434E0,5.234156E-1,4.862727E-1,1.1617633E1,1.9912977E0,-9.6363044E-1,-3.6073327E-1,-7.966118E-1,-6.5577765E0,8.141155E-1,4.617486E-1,-8.893951E-1,-6.976901E0,-7.6948414E0,8.5264015E-1,-8.800122E-1,9.442558E-1,-5.691414E0,1.1565437E0,3.3353806E1,1.3559041E0,4.6065712E-1,2.297554E-1,2.2544584E1,-9.862481E-1,-1.7294054E0,1.6057518E1,-7.9154763E0,-2.129072E-1,2.1900177E-2,-6.962115E0,1.6703423E0,-9.8231906E-1,3.372518E1,-5.8055234E-1,1.5447549E0,-7.966118E-1,1.01129875E1,1.1565437E0,-5.845048E0,5.9097254E-1,3.4755604E1,4.0994763E-2,-1.7352101E-1,8.9493436E-1,1.0618787E0,-4.108429E-3,-1.059681E0,6.5568733E-1,-1.2359612E0,1.6386638E0,2.1473446E0,3.5063744E-2,3.2898948E0,1.2914151E0,-6.5783614E-1,7.922395E-1,-1.4185435E-2,3.5360935E-1,6.9615096E-1,3.9815763E-1,8.47245E-2,-2.465707E-1,2.6978835E-1,9.315387E-1,-7.493271E-1,-1.17328405E-1,-4.4075415E-1,-8.7205535E-1,-3.352295E-1,1.9545895E-1,1.5996126E0,1.2278112E-1,4.2541485E-2,-1.6741052E-1,-9.663566E-1,-3.6332762E-1,7.17944E-1,8.479889E-2,2.855772E-1,-9.5315725E-2,7.4096465E-1,3.176853E-1,-3.535987E-4,-8.053896E-1,4.6575403E-1,-1.4879891E-1,-2.3570815E-1,-9.83434E-1,-7.338629E-1,-1.0861106E0,-1.2641876E0,-7.1092796E-1,-8.04134E-1,-3.6198518E-1,-1.3535334E0,-5.786469E-1,-2.6786242E0,-4.506868E0,-2.5555172E0,-3.7355328E0,-2.044274E0,-3.3040178E0,-1.1546293E0,-1.7363319E0,-8.45856E-1,-1.8451099E-1,-1.115522E0,-7.0504683E-1],"split_indices":[5,12,5,8,8,12,8,9,5,12,12,0,4,8,10,1,5,8,8,0,5,5,8,12,0,5,1,2,4,1,1,0,9,0,0,5,9,3,5,4,9,2,9,4,1,0,1,5,10,2,9,9,8,4,1,0,1,0,4,4,9,0,0,0,0,0,0,0,0,0,0,0,0,0,0,0,0,0,0,0,0,0,0,0,0,0,0,0,0,0,0,0,0,0,0,0,0,0,0,0,0,0,0,0,0,0,0,0,0,0,0,0,0,0,0,0,0],"split_type":[0,0,0,0,0,0,0,0,0,0,0,0,0,0,0,0,0,0,0,0,0,0,0,0,0,0,0,0,0,0,0,0,0,0,0,0,0,0,0,0,0,0,0,0,0,0,0,0,0,0,0,0,0,0,0,0,0,0,0,0,0,0,0,0,0,0,0,0,0,0,0,0,0,0,0,0,0,0,0,0,0,0,0,0,0,0,0,0,0,0,0,0,0,0,0,0,0,0,0,0,0,0,0,0,0,0,0,0,0,0,0,0,0,0,0,0,0],"sum_hessian":[1.44094E5,1.41822E5,2.272E3,4.631E4,9.5512E4,1.705E3,5.67E2,1.0989E4,3.5321E4,3.0917E4,6.4595E4,1.52E2,1.553E3,2.88E2,2.79E2,1.78E3,9.209E3,9.812E3,2.5509E4,1.4981E4,1.5936E4,2.2798E4,4.1797E4,1.39E2,1.3E1,9.83E2,5.7E2,1.71E2,1.17E2,1.65E2,1.14E2,1.74E2,1.606E3,6.84E3,2.369E3,8.019E3,1.793E3,1.1459E4,1.405E4,1.945E3,1.3036E4,5.718E3,1.0218E4,2.936E3,1.9862E4,3.647E4,5.327E3,2.2E1,1.17E2,6.48E2,3.35E2,4.95E2,7.5E1,3E1,1.41E2,1E1,1.07E2,9.6E1,6.9E1,5.3E1,6.1E1,7.8E1,9.6E1,8.4E1,1.522E3,5.41E2,6.299E3,1.542E3,8.27E2,3.624E3,4.395E3,1.057E3,7.36E2,2.024E3,9.435E3,6.866E3,7.184E3,1.744E3,2.01E2,1.13E2,1.2923E4,1.707E3,4.011E3,9.93E2,9.225E3,1.206E3,1.73E3,2.632E3,1.723E4,3.667E3,3.2803E4,4.577E3,7.5E2,1.7E1,5E0,1.08E2,9E0,5.05E2,1.43E2,3E2,3.5E1,1.01E2,3.94E2,5.3E1,2.2E1,8E0,2.2E1,1.07E2,3.4E1,9.1E1,1.6E1,1.4E1,5.5E1,1.6E1,3.7E1,3.3E1,2.8E1],"tree_param":{"num_deleted":"0","num_feature":"13","num_nodes":"117","size_leaf_vector":"1"}},{"base_weights":[2.8478333E-3,-5.4653378E0,4.9313836E0,-3.4936044E0,-1.0570759E1,1.0605735E1,2.853804E0,-5.7226915E0,-8.882108E-1,-9.425495E0,-2.1928408E1,5.664247E0,1.4303367E1,-7.167544E-2,6.630212E0,-3.1442568E0,-8.066997E0,2.9757097E0,-2.3099966E0,-1.1323358E1,-4.6326013E0,-8.894113E0,-2.5298367E1,5.969522E0,-5.306545E1,1.5104606E0,1.5525844E1,2.4075656E-1,-3.1844252E1,7.9150553E0,-2.6489065E0,-6.4808607E0,-3.7375757E-1,-7.8879447E0,-4.8527878E1,1.7199384E-1,5.1965413E0,1.107785E0,-3.2247357E0,-1.0202981E1,-1.8503578E1,-2.638777E0,-1.0571358E1,-1.4049078E1,3.0571744E0,-1.528967E1,-2.994145E1,1.1634845E1,4.0473595E0,-6.254099E1,-1.2461251E0,2.924688E0,-2.270812E1,2.377279E1,1.40800705E1,2.276548E0,-3.5597527E0,-5.0364662E1,-2.265408E1,8.251163E0,-6.5168886E0,7.9816837E0,-7.512758E0,6.594386E-1,-4.8749146E-1,-4.6299252E-1,6.335872E-2,-1.6785303E0,-3.8699135E-1,-3.2325883E0,-1.8532345E0,3.5136676E-1,-1.4888982E-1,-2.83188E-1,3.9663467E-1,2.7063975E-1,-2.6909817E-2,-1.4418736E-1,-7.704788E-1,-2.4057686E-1,-5.586729E-1,-7.022543E-1,-1.3281075E0,-1.5157232E-1,6.781027E-1,-4.3750682E-1,-1.2770079E0,-3.1726304E-1,-8.942729E-1,3.7396488E-1,-4.6981215E-1,-5.486265E-1,-9.75882E-1,-1.3756664E0,-2.0332558E0,9.2630845E-1,3.92096E-1,-6.914378E-3,3.8177347E-1,-3.8652914E0,-2.3793821E0,-8.74949E-2,3.1978723E-1,-1.9810075E0,-7.4751526E-1,1.6888943E0,1.085925E0,1.0947226E0,6.438445E-1,5.5651527E-2,2.6392752E-1,-6.4318664E-2,-5.9517044E-1,-1.6313667E0,-2.9115179E0,-9.669393E-1,-1.490905E0,2.6485226E-1,5.0107664E-1,-1.6514086E0,-2.31476E-1,7.2702193E-1,2.4257775E-1,-9.3136644E-1,-1.1763288E-1],"categories":[],"categories_nodes":[],"categories_segments":[],"categories_sizes":[],"default_left":[0,0,0,0,0,0,0,0,0,0,0,0,0,0,0,0,0,0,0,0,0,0,0,0,0,0,0,0,0,0,0,0,0,0,0,0,0,0,0,0,0,0,0,0,0,0,0,0,0,0,0,0,0,0,0,0,0,0,0,0,0,0,0,0,0,0,0,0,0,0,0,0,0,0,0,0,0,0,0,0,0,0,0,0,0,0,0,0,0,0,0,0,0,0,0,0,0,0,0,0,0,0,0,0,0,0,0,0,0,0,0,0,0,0,0,0,0,0,0,0,0,0,0,0,0],"id":11,"left_children":[1,3,5,7,9,11,13,15,17,19,21,23,25,27,29,31,33,35,37,39,41,43,45,47,49,51,53,55,57,59,61,63,65,67,69,71,73,75,77,79,81,83,85,87,89,91,93,95,97,99,-1,101,103,105,107,109,111,113,115,117,119,121,123,-1,-1,-1,-1,-1,-1,-1,-1,-1,-1,-1,-1,-1,-1,-1,-1,-1,-1,-1,-1,-1,-1,-1,-1,-1,-1,-1,-1,-1,-1,-1,-1,-1,-1,-1,-1,-1,-1,-1,-1,-1,-1,-1,-1,-1,-1,-1,-1,-1,-1,-1,-1,-1,-1,-1,-1,-1,-1,-1,-1,-1,-1],"loss_changes":[3.8779915E6,6.8662975E5,8.9217675E5,2.857887E5,2.4698475E5,3.7052425E5,6.120495E5,1.6027731E5,1.2466359E5,1.5699262E5,7.620119E4,1.5598712E5,1.814035E5,3.099047E5,2.8833625E5,1.1675859E5,1.0023875E5,3.800563E4,5.186417E4,9.929525E4,5.797904E4,2.2161494E4,6.3760812E4,9.402719E4,1.0432703E4,3.4760277E4,1.2591625E5,2.3919867E5,5.0594312E4,1.03092E5,1.5217781E5,3.685638E5,1.0065386E5,5.234625E4,8.868234E3,5.830054E4,1.0125593E5,2.4825541E4,5.432467E4,5.593E4,5.9552562E4,2.3380645E4,3.3331984E4,7.302332E3,6.072775E3,7.814008E3,2.3428562E4,5.7042656E4,9.690158E4,3.5945781E3,0E0,1.5555928E4,6.7494316E3,3.1694125E4,8.44465E4,7.031218E4,2.0453752E5,1.2042641E4,4.2873516E3,1.085125E5,2.4061025E4,1.8897004E4,1.1574839E5,0E0,0E0,0E0,0E0,0E0,0E0,0E0,0E0,0E0,0E0,0E0,0E0,0E0,0E0,0E0,0E0,0E0,0E0,0E0,0E0,0E0,0E0,0E0,0E0,0E0,0E0,0E0,0E0,0E0,0E0,0E0,0E0,0E0,0E0,0E0,0E0,0E0,0E0,0E0,0E0,0E0,0E0,0E0,0E0,0E0,0E0,0E0,0E0,0E0,0E0,0E0,0E0,0E0,0E0,0E0,0E0,0E0,0E0,0E0,0E0,0E0,0E0],"parents":[2147483647,0,0,1,1,2,2,3,3,4,4,5,5,6,6,7,7,8,8,9,9,10,10,11,11,12,12,13,13,14,14,15,15,16,16,17,17,18,18,19,19,20,20,21,21,22,22,23,23,24,24,25,25,26,26,27,27,28,28,29,29,30,30,31,31,32,32,33,33,34,34,35,35,36,36,37,37,38,38,39,39,40,40,41,41,42,42,43,43,44,44,45,45,46,46,47,47,48,48,49,49,51,51,52,52,53,53,54,54,55,55,56,56,57,57,58,58,59,59,60,60,61,61,62,62],"right_children":[2,4,6,8,10,12,14,16,18,20,22,24,26,28,30,32,34,36,38,40,42,44,46,48,50,52,54,56,58,60,62,64,66,68,70,72,74,76,78,80,82,84,86,88,90,92,94,96,98,100,-1,102,104,106,108,110,112,114,116,118,120,122,124,-1,-1,-1,-1,-1,-1,-1,-1,-1,-1,-1,-1,-1,-1,-1,-1,-1,-1,-1,-1,-1,-1,-1,-1,-1,-1,-1,-1,-1,-1,-1,-1,-1,-1,-1,-1,-1,-1,-1,-1,-1,-1,-1,-1,-1,-1,-1,-1,-1,-1,-1,-1,-1,-1,-1,-1,-1,-1,-1,-1,-1,-1],"split_conditions":[3.9564883E2,9.217548E-2,-1.7320585E-1,3.8585144E2,1.705637E-1,4.0353818E2,4.0960068E2,-4.7736168E-1,-5.9762955E-1,3.9083017E2,3.0350113E-1,-5.513451E0,1.1907827E0,-5.691414E0,1.2392092E0,-4.7873384E-1,-5.513451E0,8.606997E-3,-7.4839067E0,8.7296295E-1,-6.7068763E0,3.92025E2,7.0090926E-1,-4.6130913E-1,-6.55461E-1,-6.066906E0,-9.522495E-1,4.4256783E-1,-9.238795E-1,-6.066906E0,-7.1855397E0,8.726535E-3,-2.1643962E-1,-3.5734367E0,-9.6814764E-1,-4.502E-1,-2.8401536E-1,-4.7495106E-1,8.9493436E-1,-7.596757E0,-6.7372403E0,9.238795E-1,1.2858435E0,-4.9002868E-1,3.446516E0,6.087614E-1,1.5496597E0,-1.2910296E-2,5.470765E-1,-4.434967E-1,-1.2461251E0,4.0952954E2,5.234156E-1,-1.6522264E0,-1.1822748E-1,4.0546274E2,-6.722953E0,-1.1825562E-3,9.6383667E-1,-4.7873384E-1,-8.703557E-1,-8.56551E-1,-4.7873384E-1,6.594386E-1,-4.8749146E-1,-4.6299252E-1,6.335872E-2,-1.6785303E0,-3.8699135E-1,-3.2325883E0,-1.8532345E0,3.5136676E-1,-1.4888982E-1,-2.83188E-1,3.9663467E-1,2.7063975E-1,-2.6909817E-2,-1.4418736E-1,-7.704788E-1,-2.4057686E-1,-5.586729E-1,-7.022543E-1,-1.3281075E0,-1.5157232E-1,6.781027E-1,-4.3750682E-1,-1.2770079E0,-3.1726304E-1,-8.942729E-1,3.7396488E-1,-4.6981215E-1,-5.486265E-1,-9.75882E-1,-1.3756664E0,-2.0332558E0,9.2630845E-1,3.92096E-1,-6.914378E-3,3.8177347E-1,-3.8652914E0,-2.3793821E0,-8.74949E-2,3.1978723E-1,-1.9810075E0,-7.4751526E-1,1.6888943E0,1.085925E0,1.0947226E0,6.438445E-1,5.5651527E-2,2.6392752E-1,-6.4318664E-2,-5.9517044E-1,-1.6313667E0,-2.9115179E0,-9.669393E-1,-1.490905E0,2.6485226E-1,5.0107664E-1,-1.6514086E0,-2.31476E-1,7.2702193E-1,2.4257775E-1,-9.3136644E-1,-1.1763288E-1],"split_indices":[7,1,1,7,6,7,7,1,1,7,3,5,0,5,1,12,5,12,5,1,5,7,8,10,0,5,1,1,8,5,5,8,8,3,8,10,8,11,8,5,5,8,1,11,0,8,1,11,10,3,0,7,12,1,6,7,5,6,1,12,8,11,12,0,0,0,0,0,0,0,0,0,0,0,0,0,0,0,0,0,0,0,0,0,0,0,0,0,0,0,0,0,0,0,0,0,0,0,0,0,0,0,0,0,0,0,0,0,0,0,0,0,0,0,0,0,0,0,0,0,0,0,0,0,0],"split_type":[0,0,0,0,0,0,0,0,0,0,0,0,0,0,0,0,0,0,0,0,0,0,0,0,0,0,0,0,0,0,0,0,0,0,0,0,0,0,0,0,0,0,0,0,0,0,0,0,0,0,0,0,0,0,0,0,0,0,0,0,0,0,0,0,0,0,0,0,0,0,0,0,0,0,0,0,0,0,0,0,0,0,0,0,0,0,0,0,0,0,0,0,0,0,0,0,0,0,0,0,0,0,0,0,0,0,0,0,0,0,0,0,0,0,0,0,0,0,0,0,0,0,0,0,0],"sum_hessian":[1.43893E5,6.8212E4,7.5681E4,4.9209E4,1.9003E4,2.0282E4,5.5399E4,2.6519E4,2.269E4,1.7264E4,1.739E3,8.682E3,1.16E4,3.1217E4,2.4182E4,1.263E4,1.3889E4,6.103E3,1.6587E4,1.2366E4,4.898E3,3.58E2,1.381E3,8.638E3,4.4E1,1.012E3,1.0588E4,3.0914E4,3.03E2,2.1241E4,2.941E3,5.729E3,6.901E3,1.3829E4,6E1,2.698E3,3.405E3,3.502E3,1.3085E4,1.0699E4,1.667E3,3.668E3,1.23E3,2.5E2,1.08E2,4.39E2,9.42E2,2.187E3,6.451E3,3.2E1,1.2E1,9.57E2,5.5E1,1.577E3,9.011E3,2.0131E4,1.0783E4,9.9E1,2.04E2,2.0758E4,4.83E2,9.23E2,2.018E3,8.16E2,4.913E3,1.075E3,5.826E3,7.8E1,1.3751E4,2.3E1,3.7E1,8.49E2,1.849E3,6.85E2,2.72E3,9.68E2,2.534E3,1.273E4,3.55E2,1.633E3,9.066E3,1.075E3,5.92E2,3.582E3,8.6E1,1.098E3,1.32E2,8.4E1,1.66E2,8E1,2.8E1,2.19E2,2.2E2,7.71E2,1.71E2,7.75E2,1.412E3,2.978E3,3.473E3,1.4E1,1.8E1,4.08E2,5.49E2,1.6E1,3.9E1,2.66E2,1.311E3,1.2E3,7.811E3,1.4509E4,5.622E3,8.475E3,2.308E3,3.2E1,6.7E1,1.42E2,6.2E1,7.78E3,1.2978E4,3.1E1,4.52E2,2.97E2,6.26E2,6.39E2,1.379E3],"tree_param":{"num_deleted":"0","num_feature":"13","num_nodes":"125","size_leaf_vector":"1"}},{"base_weights":[-2.5612252E-2,-4.812774E0,4.980773E0,-2.5137503E0,-8.463113E0,8.070509E0,1.0167202E0,-4.7689714E0,2.545241E-1,-1.0961537E1,-3.4944937E0,5.1774445E0,1.1916886E1,-2.1173337E0,5.04854E0,-8.5310124E-2,-5.930193E0,4.096659E-1,-2.794075E1,-9.880173E0,-2.1525776E1,-1.9456618E0,-7.4045224E0,1.0697714E1,2.9968352E0,1.6334108E1,1.0287359E1,4.0553473E-2,-1.0071194E1,6.4754E0,-1.6649212E0,2.4862132E0,-4.4252E0,-5.7223687E0,-3.1760487E1,3.6129115E0,-1.0236231E0,-1.9599705E1,-5.899781E1,-6.0706286E0,-1.1623872E1,-1.3704861E1,-2.555939E1,-2.2003975E0,8.093409E0,-6.2914853E0,-2.1835123E1,1.6845165E1,7.8671403E0,3.2920525E0,-3.3215298E1,3.98626E0,1.746772E1,7.7292104E0,1.2814331E1,3.0098648E0,-2.7650332E0,-6.470782E0,-2.1277174E1,9.439248E0,4.619814E0,8.0855665E0,-6.233545E0,1.9660069E-1,-3.8577428E-1,-1.7899387E-1,-1.2423905E0,-3.065694E-1,7.591082E-2,-2.0471377E0,-8.7446326E-1,-2.5909948E-1,2.146463E-1,2.1098256E-1,-7.5156175E-2,-1.1438156E0,-6.3640517E-1,-4.0618396E0,-1.7817112E0,-1.9338338E-1,-4.036667E-1,-7.7194655E-1,-4.3826127E-1,-6.1809343E-1,-1.98591E0,-6.895729E-1,-1.45956E0,-1.0243647E0,-1.01962425E-1,5.044533E-1,-1.231822E0,-2.4381082E-1,-7.9959977E-1,1.0868787E-2,-1.219319E0,1.3298573E0,6.8301505E-1,4.236065E-1,-1.1972626E0,3.9784303E-1,1.330886E-1,-2.0644557E0,-9.1960233E-1,-2.8690178E-2,3.3066866E-1,1.3078555E0,8.241221E-1,-1.9917217E0,3.9452043E-1,6.662534E-1,-2.1306816E-1,3.5989362E-1,2.9468263E-2,3.6155704E-2,-3.3291468E-1,-2.8285816E-1,-1.8415091E0,-5.7683057E-1,-1.3655576E0,6.945269E-1,3.6644965E-1,-1.7493095E0,2.3792635E-1,6.076069E-1,1.4615272E-1,-5.6302303E-1,-2.1653086E-2],"categories":[],"categories_nodes":[],"categories_segments":[],"categories_sizes":[],"default_left":[0,0,0,0,0,0,0,0,0,0,0,0,0,0,0,0,0,0,0,0,0,0,0,0,0,0,0,0,0,0,0,0,0,0,0,0,0,0,0,0,0,0,0,0,0,0,0,0,0,0,0,0,0,0,0,0,0,0,0,0,0,0,0,0,0,0,0,0,0,0,0,0,0,0,0,0,0,0,0,0,0,0,0,0,0,0,0,0,0,0,0,0,0,0,0,0,0,0,0,0,0,0,0,0,0,0,0,0,0,0,0,0,0,0,0,0,0,0,0,0,0,0,0,0,0,0,0],"id":12,"left_children":[1,3,5,7,9,11,13,15,17,19,21,23,25,27,29,31,33,35,37,39,41,43,45,47,49,51,53,55,57,59,61,63,65,67,69,71,73,75,77,79,81,83,85,87,89,91,93,95,97,99,101,103,105,107,109,111,113,115,117,119,121,123,125,-1,-1,-1,-1,-1,-1,-1,-1,-1,-1,-1,-1,-1,-1,-1,-1,-1,-1,-1,-1,-1,-1,-1,-1,-1,-1,-1,-1,-1,-1,-1,-1,-1,-1,-1,-1,-1,-1,-1,-1,-1,-1,-1,-1,-1,-1,-1,-1,-1,-1,-1,-1,-1,-1,-1,-1,-1,-1,-1,-1,-1,-1,-1,-1],"loss_changes":[3.4518292E6,6.17863E5,8.62266E5,2.8203866E5,3.53143E5,4.4019775E5,3.8969075E5,1.35397E5,8.872756E4,2.1604775E5,5.7643617E4,2.717985E5,1.220725E5,2.9782303E5,1.2921506E5,5.5220348E4,1.06903875E5,9.261717E4,2.7590172E4,1.14016E5,5.5073062E4,1.7460635E4,4.3242734E4,1.1112581E5,1.7317392E5,6.39675E4,8.011525E4,1.1372187E5,1.4926131E5,6.1133375E4,1.05402234E5,4.585704E4,3.1690668E4,5.8621625E4,2.0113797E4,3.731754E4,3.5045816E4,1.7091523E3,9.043898E3,2.3769672E4,1.28344625E5,2.0465227E4,4.9084812E4,1.956182E4,1.1285768E4,3.436557E4,1.0866195E4,6.2215938E4,8.449947E4,4.719342E4,1.491275E4,4.628603E3,3.5437125E4,4.7609875E4,5.4486625E4,6.722402E4,9.53253E4,6.904894E4,5.2577938E4,4.011847E4,3.7758062E4,1.581323E4,4.696836E4,0E0,0E0,0E0,0E0,0E0,0E0,0E0,0E0,0E0,0E0,0E0,0E0,0E0,0E0,0E0,0E0,0E0,0E0,0E0,0E0,0E0,0E0,0E0,0E0,0E0,0E0,0E0,0E0,0E0,0E0,0E0,0E0,0E0,0E0,0E0,0E0,0E0,0E0,0E0,0E0,0E0,0E0,0E0,0E0,0E0,0E0,0E0,0E0,0E0,0E0,0E0,0E0,0E0,0E0,0E0,0E0,0E0,0E0,0E0,0E0,0E0,0E0,0E0,0E0],"parents":[2147483647,0,0,1,1,2,2,3,3,4,4,5,5,6,6,7,7,8,8,9,9,10,10,11,11,12,12,13,13,14,14,15,15,16,16,17,17,18,18,19,19,20,20,21,21,22,22,23,23,24,24,25,25,26,26,27,27,28,28,29,29,30,30,31,31,32,32,33,33,34,34,35,35,36,36,37,37,38,38,39,39,40,40,41,41,42,42,43,43,44,44,45,45,46,46,47,47,48,48,49,49,50,50,51,51,52,52,53,53,54,54,55,55,56,56,57,57,58,58,59,59,60,60,61,61,62,62],"right_children":[2,4,6,8,10,12,14,16,18,20,22,24,26,28,30,32,34,36,38,40,42,44,46,48,50,52,54,56,58,60,62,64,66,68,70,72,74,76,78,80,82,84,86,88,90,92,94,96,98,100,102,104,106,108,110,112,114,116,118,120,122,124,126,-1,-1,-1,-1,-1,-1,-1,-1,-1,-1,-1,-1,-1,-1,-1,-1,-1,-1,-1,-1,-1,-1,-1,-1,-1,-1,-1,-1,-1,-1,-1,-1,-1,-1,-1,-1,-1,-1,-1,-1,-1,-1,-1,-1,-1,-1,-1,-1,-1,-1,-1,-1,-1,-1,-1,-1,-1,-1,-1,-1,-1,-1,-1,-1],"split_conditions":[3.967617E2,-4.1791856E-2,2.5580597E-1,3.8634903E2,3.9083017E2,4.0822375E2,4.1239484E2,-1.0004444E0,-5.691414E0,1.6418266E-1,-6.7372403E0,-4.1032088E-1,-3.793335E-1,-6.699883E0,1.2858435E0,5.7062113E-1,-5.691414E0,-5.9762955E-1,3.9633243E2,-7.1855397E0,6.755902E-1,9.238795E-1,1.2858435E0,-4.4550326E-1,-5.691414E0,-8.433914E-1,3.46508E1,-7.156554E0,1.0202417E0,-6.9817553E0,-7.1855397E0,-6.4292226E0,7.6040596E-1,2.1473446E0,-8.703557E-1,-8.5264015E-1,-1.308217E-1,1.8894849E0,-4.6878433E-1,-7.6948414E0,6.5828323E-1,-5.9718227E0,3.4681496E1,3.0882368E1,3.417308E1,8.703557E-1,8.209584E-1,-4.9002868E-1,-6.066906E0,-9.072018E-2,-9.170601E-1,1.4364176E0,-2.070694E-1,-9.5881975E-1,8.9493436E-1,-4.7495106E-1,3.9874908E-1,-5.513451E0,6.755902E-1,-4.7495106E-1,3.0312836E1,1.3690414E0,4.1854034E2,1.9660069E-1,-3.8577428E-1,-1.7899387E-1,-1.2423905E0,-3.065694E-1,7.591082E-2,-2.0471377E0,-8.7446326E-1,-2.5909948E-1,2.146463E-1,2.1098256E-1,-7.5156175E-2,-1.1438156E0,-6.3640517E-1,-4.0618396E0,-1.7817112E0,-1.9338338E-1,-4.036667E-1,-7.7194655E-1,-4.3826127E-1,-6.1809343E-1,-1.98591E0,-6.895729E-1,-1.45956E0,-1.0243647E0,-1.01962425E-1,5.044533E-1,-1.231822E0,-2.4381082E-1,-7.9959977E-1,1.0868787E-2,-1.219319E0,1.3298573E0,6.8301505E-1,4.236065E-1,-1.1972626E0,3.9784303E-1,1.330886E-1,-2.0644557E0,-9.1960233E-1,-2.8690178E-2,3.3066866E-1,1.3078555E0,8.241221E-1,-1.9917217E0,3.9452043E-1,6.662534E-1,-2.1306816E-1,3.5989362E-1,2.9468263E-2,3.6155704E-2,-3.3291468E-1,-2.8285816E-1,-1.8415091E0,-5.7683057E-1,-1.3655576E0,6.945269E-1,3.6644965E-1,-1.7493095E0,2.3792635E-1,6.076069E-1,1.4615272E-1,-5.6302303E-1,-2.1653086E-2],"split_indices":[7,1,1,7,7,7,7,1,5,6,5,1,1,5,1,10,5,1,7,5,8,8,1,10,5,8,2,5,1,5,5,5,8,4,8,8,6,4,1,5,3,5,2,2,2,8,4,11,5,6,8,4,6,8,8,11,8,5,8,11,2,4,7,0,0,0,0,0,0,0,0,0,0,0,0,0,0,0,0,0,0,0,0,0,0,0,0,0,0,0,0,0,0,0,0,0,0,0,0,0,0,0,0,0,0,0,0,0,0,0,0,0,0,0,0,0,0,0,0,0,0,0,0,0,0,0,0],"split_type":[0,0,0,0,0,0,0,0,0,0,0,0,0,0,0,0,0,0,0,0,0,0,0,0,0,0,0,0,0,0,0,0,0,0,0,0,0,0,0,0,0,0,0,0,0,0,0,0,0,0,0,0,0,0,0,0,0,0,0,0,0,0,0,0,0,0,0,0,0,0,0,0,0,0,0,0,0,0,0,0,0,0,0,0,0,0,0,0,0,0,0,0,0,0,0,0,0,0,0,0,0,0,0,0,0,0,0,0,0,0,0,0,0,0,0,0,0,0,0,0,0,0,0,0,0,0,0],"sum_hessian":[1.44026E5,7.3625E4,7.0401E4,4.5175E4,2.845E4,3.9563E4,3.0838E4,2.4894E4,2.0281E4,1.893E4,9.52E3,2.2581E4,1.6982E4,1.7351E4,1.3487E4,4.946E3,1.9948E4,2.0171E4,1.1E2,1.7174E4,1.756E3,6.82E3,2.7E3,6.393E3,1.6188E4,4.574E3,1.2408E4,1.3649E4,3.702E3,1.1123E4,2.364E3,3.106E3,1.84E3,1.979E4,1.58E2,6.235E3,1.3936E4,8.8E1,2.2E1,5.394E3,1.178E4,5.99E2,1.157E3,6.652E3,1.68E2,2.508E3,1.92E2,2.014E3,4.379E3,1.6058E4,1.3E2,3.85E2,4.189E3,6.168E3,6.24E3,6.631E3,7.018E3,2.803E3,8.99E2,4.281E3,6.842E3,7.54E2,1.61E3,2.721E3,3.85E2,1.768E3,7.2E1,1.8732E4,1.058E3,9.5E1,6.3E1,4.47E2,5.788E3,1.167E3,1.2769E4,5.8E1,3E1,1E1,1.2E1,2.57E3,2.824E3,5.044E3,6.736E3,5.71E2,2.8E1,2.74E2,8.83E2,5.7E1,6.595E3,1.59E2,9E0,2.19E3,3.18E2,2E1,1.72E2,4.94E2,1.52E3,4.298E3,8.1E1,1.91E3,1.4148E4,8.3E1,4.7E1,1.41E2,2.44E2,4.24E2,3.765E3,2E1,6.148E3,6.059E3,1.81E2,2.428E3,4.203E3,3.702E3,3.316E3,2.731E3,7.2E1,3.45E2,5.54E2,1.375E3,2.906E3,2.3E1,6.819E3,4.21E2,3.33E2,8.62E2,7.48E2],"tree_param":{"num_deleted":"0","num_feature":"13","num_nodes":"127","size_leaf_vector":"1"}},{"base_weights":[1.6880527E-2,-4.923405E0,4.463217E0,-3.5258882E0,-1.0991327E1,8.797771E0,2.2092788E0,-5.629106E0,-1.1573397E0,-8.574239E0,-1.6654678E1,4.58458E0,1.1925766E1,-3.0251893E-1,6.1808825E0,-3.329273E0,-8.185442E0,2.2392478E0,-2.646697E0,-1.0600126E1,-3.3736968E0,-1.4724043E1,-2.9702477E1,4.883107E0,-5.304698E1,8.169995E-1,1.3003965E1,5.549285E-1,-9.374086E0,7.9231086E0,1.5784334E0,-6.363119E0,-8.930907E-1,-7.9497695E0,-3.3090336E1,-5.0211734E-1,4.3674026E0,6.6305727E-1,-3.4788735E0,-1.3698897E1,-7.2517595E0,2.9397833E0,-4.713464E0,-1.9447613E1,-1.1879135E1,-5.6704164E-1,-3.0873888E1,-2.7620466E0,5.7115245E0,-6.1640293E1,-9.606336E-1,2.305436E0,-2.16272E1,1.8757566E1,1.1271605E1,7.82465E-1,-2.8075373E1,-1.3371875E0,-1.7440428E1,6.5823135E0,1.0903413E1,4.770048E0,-6.6866465E0,-1.9063257E-1,-5.601264E-1,-5.9408396E-1,1.7733049E-3,-2.3847727E-1,-4.5048404E-1,-2.0469582E0,-8.6763924E-1,2.583738E-1,-1.5797096E-1,-3.0079392E-1,2.8273928E-1,2.4260043E-1,-4.5450013E-2,-1.9329461E-1,1.5506369E-1,-9.6310094E-2,-7.495985E-1,-5.858267E-1,-3.0188695E-1,5.95399E-1,-1.9168468E-2,-1.7902526E-1,-4.8248082E-1,-8.427191E-1,-1.3165414E0,-3.579064E-1,-7.1690035E-1,-3.8288748E-1,4.4695646E-1,-5.83353E-1,-1.6052331E0,3.791387E-1,-2.3500948E-1,4.549318E-1,1.8222187E-1,-2.4449937E0,-3.9014356E0,5.9990567E-1,6.165398E-2,-6.8349206E-1,-1.9118258E0,1.6014655E0,8.780838E-1,5.140581E-1,9.184894E-1,1.2338241E-1,-6.53088E-2,-1.0540323E0,-2.4090853E0,2.123272E-1,-3.747984E-1,-6.996264E-1,-1.4741715E0,3.473669E-1,-2.0662124E-1,6.0354495E-1,3.6593303E-1,-8.0235135E-3,3.751884E-1,-1.1424289E0,-2.0623927E-1],"categories":[],"categories_nodes":[],"categories_segments":[],"categories_sizes":[],"default_left":[0,0,0,0,0,0,0,0,0,0,0,0,0,0,0,0,0,0,0,0,0,0,0,0,0,0,0,0,0,0,0,0,0,0,0,0,0,0,0,0,0,0,0,0,0,0,0,0,0,0,0,0,0,0,0,0,0,0,0,0,0,0,0,0,0,0,0,0,0,0,0,0,0,0,0,0,0,0,0,0,0,0,0,0,0,0,0,0,0,0,0,0,0,0,0,0,0,0,0,0,0,0,0,0,0,0,0,0,0,0,0,0,0,0,0,0,0,0,0,0,0,0,0,0,0],"id":13,"left_children":[1,3,5,7,9,11,13,15,17,19,21,23,25,27,29,31,33,35,37,39,41,43,45,47,49,51,53,55,57,59,61,63,65,67,69,71,73,75,77,79,81,83,85,87,89,91,93,95,97,99,-1,101,103,105,107,109,111,113,115,117,119,121,123,-1,-1,-1,-1,-1,-1,-1,-1,-1,-1,-1,-1,-1,-1,-1,-1,-1,-1,-1,-1,-1,-1,-1,-1,-1,-1,-1,-1,-1,-1,-1,-1,-1,-1,-1,-1,-1,-1,-1,-1,-1,-1,-1,-1,-1,-1,-1,-1,-1,-1,-1,-1,-1,-1,-1,-1,-1,-1,-1,-1,-1,-1],"loss_changes":[3.1620085E6,5.7818725E5,7.401604E5,2.760915E5,1.7457875E5,3.4151275E5,4.9724944E5,1.7255988E5,1.3188208E5,9.4236375E4,9.57105E4,1.9027881E5,1.7814075E5,2.3751925E5,1.5483194E5,1.14221516E5,8.132931E4,4.6365766E4,4.9918766E4,6.670844E4,2.1245104E4,4.4474438E4,1.6736969E4,6.961358E4,1.53803125E4,4.404463E4,1.349225E5,1.8176561E5,1.7092722E5,5.5902188E4,1.3994567E5,8.491097E4,8.747645E4,4.6381062E4,1.5341531E4,5.2354793E4,5.9839125E4,2.3988363E4,3.6892484E4,5.0859812E4,1.6714234E4,1.31189E4,1.1546105E4,2.184625E4,2.4028969E4,1.4164352E3,1.077875E4,2.1588826E4,6.938497E4,5.5675E3,0E0,1.2830869E4,1.0309758E4,4.920575E4,7.3085625E4,9.742983E4,2.9917797E4,4.549438E4,5.422747E4,3.782625E4,1.8094219E4,5.158475E4,6.109908E4,0E0,0E0,0E0,0E0,0E0,0E0,0E0,0E0,0E0,0E0,0E0,0E0,0E0,0E0,0E0,0E0,0E0,0E0,0E0,0E0,0E0,0E0,0E0,0E0,0E0,0E0,0E0,0E0,0E0,0E0,0E0,0E0,0E0,0E0,0E0,0E0,0E0,0E0,0E0,0E0,0E0,0E0,0E0,0E0,0E0,0E0,0E0,0E0,0E0,0E0,0E0,0E0,0E0,0E0,0E0,0E0,0E0,0E0,0E0,0E0,0E0,0E0],"parents":[2147483647,0,0,1,1,2,2,3,3,4,4,5,5,6,6,7,7,8,8,9,9,10,10,11,11,12,12,13,13,14,14,15,15,16,16,17,17,18,18,19,19,20,20,21,21,22,22,23,23,24,24,25,25,26,26,27,27,28,28,29,29,30,30,31,31,32,32,33,33,34,34,35,35,36,36,37,37,38,38,39,39,40,40,41,41,42,42,43,43,44,44,45,45,46,46,47,47,48,48,49,49,51,51,52,52,53,53,54,54,55,55,56,56,57,57,58,58,59,59,60,60,61,61,62,62],"right_children":[2,4,6,8,10,12,14,16,18,20,22,24,26,28,30,32,34,36,38,40,42,44,46,48,50,52,54,56,58,60,62,64,66,68,70,72,74,76,78,80,82,84,86,88,90,92,94,96,98,100,-1,102,104,106,108,110,112,114,116,118,120,122,124,-1,-1,-1,-1,-1,-1,-1,-1,-1,-1,-1,-1,-1,-1,-1,-1,-1,-1,-1,-1,-1,-1,-1,-1,